68 128
66 -0.410269 -0.069157 0.317804 -0.221042 -0.128210 -0.079260 0.041866 0.163053 0.266300 0.095236 -0.308100 0.161428 0.370886 -0.219760 -0.245483 -0.052513 -0.136440 -0.093761 0.103887 0.048847 0.038112 -0.055620 0.192669 0.282238 0.145497 0.068770 -0.059581 0.205373 0.193720 0.000231 -0.025347 0.222403 -0.094769 -0.185507 0.004572 -0.395211 0.067199 -0.121834 0.225086 0.034589 -0.173259 -0.037380 0.020757 0.027562 -0.010732 0.136408 -0.176697 0.190817 -0.222808 0.242308 -0.012624 0.011825 0.208049 -0.021692 -0.290288 0.085462 -0.159365 -0.208079 -0.158869 -0.089668 -0.045948 -0.342998 -0.114803 0.136916 0.194142 -0.043156 -0.048896 0.099562 -0.083357 0.420873 0.127342 -0.196365 0.280818 -0.215589 -0.070546 -0.127989 0.045780 0.031198 0.001280 -0.030077 0.292701 -0.301196 -0.105421 -0.329924 0.091404 0.170023 0.039944 -0.129743 -0.082153 0.154370 -0.009473 0.311862 -0.111724 0.237887 -0.290706 0.219005 0.004792 0.078089 -0.131542 -0.037299 -0.104380 0.182816 -0.231840 0.065467 0.200524 0.045021 0.227410 0.203274 -0.236427 0.448049 0.174225 0.099235 0.089994 -0.090902 -0.201197 0.087143 0.047698 0.173974 -0.477727 0.171790 0.155863 0.098372 -0.216720 0.034093 0.217946 0.166499 -0.347061 -0.026988
61 -0.451225 -0.089701 0.258227 -0.315366 -0.133815 -0.079130 0.008498 0.161363 0.356873 0.130415 -0.224977 0.115530 0.309269 -0.241236 -0.200784 -0.030154 -0.147355 -0.083753 0.179978 -0.047668 -0.080093 -0.113559 0.294793 0.375558 0.269389 -0.054730 -0.009763 0.104339 0.203207 -0.025209 -0.071617 0.242797 -0.046027 -0.223688 -0.045513 -0.270550 -0.001703 -0.165608 0.159537 0.085730 -0.090721 0.004666 0.021053 -0.019531 0.004156 0.129190 -0.132773 0.217931 -0.110441 0.193613 -0.049912 0.109646 0.194658 -0.027852 -0.192643 0.047630 -0.158410 -0.283431 -0.129886 0.014949 -0.041111 -0.387229 -0.132887 0.196019 0.184140 -0.100880 -0.030049 0.148241 -0.021149 0.463019 0.173823 -0.165771 0.294508 -0.148093 0.077805 -0.199910 -0.001004 0.039662 -0.070589 -0.094509 0.157906 -0.378476 -0.215236 -0.570729 0.032932 0.043152 0.055150 -0.171497 -0.122993 0.195732 -0.037752 0.284919 -0.120599 0.249357 -0.151736 0.250497 0.097265 0.083674 -0.205164 -0.129195 -0.078604 0.084384 -0.171828 0.093772 0.272581 -0.054617 0.113528 0.197588 -0.150483 0.487121 0.182247 0.055277 0.119023 -0.117345 -0.185379 0.084443 0.100333 0.070411 -0.518827 0.177895 0.057901 0.161816 -0.201800 0.211228 0.224819 0.190256 -0.309369 -0.029602
64 -0.395134 -0.045310 0.245368 -0.356622 -0.129596 -0.048399 -0.017167 0.124565 0.258059 0.110185 -0.258162 0.054565 0.310219 -0.176372 -0.145082 -0.031060 -0.212808 -0.140979 0.125315 0.052204 0.012097 -0.072266 0.310919 0.382691 0.212171 -0.057388 -0.012915 0.098349 0.140037 -0.059375 -0.095622 0.216040 -0.102054 -0.287873 -0.122874 -0.302596 -0.007038 -0.229084 0.132165 0.024423 -0.164134 0.007584 -0.032016 -0.068404 0.090113 0.189730 -0.164711 0.216466 -0.196310 0.214744 0.051886 0.116657 0.133248 -0.024842 -0.224073 0.050425 -0.084647 -0.297534 -0.187096 0.031021 0.034393 -0.419746 -0.225194 0.212161 0.199015 -0.094484 -0.098533 0.100689 -0.002397 0.366881 0.171611 -0.195978 0.244894 -0.216256 0.032597 -0.141651 0.075276 0.067205 -0.035807 -0.014547 0.150339 -0.290750 -0.192495 -0.459538 0.038623 0.122967 0.006499 -0.190071 -0.117855 0.166386 -0.027875 0.336034 -0.097463 0.265142 -0.223638 0.337073 0.023786 0.018739 -0.172742 -0.140395 -0.167835 0.146312 -0.174365 0.018717 0.166192 0.049201 0.229649 0.303415 -0.150586 0.427162 0.188138 0.077187 0.041650 -0.084607 -0.221695 0.072489 0.147105 0.062574 -0.483981 0.119582 0.090056 0.059546 -0.203636 0.067559 0.227903 0.163288 -0.303788 -0.004943
23 -0.405708 -0.065344 0.218448 -0.317431 -0.089816 -0.028480 0.048694 0.140242 0.272303 0.162490 -0.278538 0.198081 0.376713 -0.171235 -0.247943 -0.063987 -0.157086 -0.085431 0.174537 0.081007 -0.052929 -0.130286 0.195946 0.367704 0.209638 -0.012848 -0.101412 0.125280 0.119943 0.030430 -0.015633 0.244784 -0.050430 -0.228703 -0.104411 -0.361153 0.044607 -0.176030 0.196207 0.039197 -0.205697 -0.031698 0.010266 -0.028019 0.016649 0.170573 -0.217039 0.220717 -0.220677 0.218182 -0.002933 0.078456 0.197488 -0.021746 -0.255441 0.075546 -0.168380 -0.300195 -0.175873 -0.026616 -0.053197 -0.388171 -0.159024 0.177508 0.182993 -0.093820 -0.085202 0.098292 -0.052008 0.408981 0.122904 -0.166716 0.290701 -0.229735 0.007558 -0.184908 0.034666 0.026878 -0.011442 -0.048681 0.175236 -0.349831 -0.144263 -0.461405 0.028195 0.082420 0.066931 -0.151869 -0.108097 0.184581 -0.030409 0.271225 -0.088995 0.302645 -0.225769 0.240371 0.082571 0.108000 -0.195953 -0.064353 -0.090591 0.165998 -0.222008 0.031190 0.235978 0.144938 0.280140 0.273181 -0.240520 0.487233 0.170511 0.028602 0.087899 -0.108461 -0.258188 0.047942 0.143088 0.112344 -0.451086 0.120795 0.128482 0.051081 -0.214655 0.046515 0.204469 0.111335 -0.341671 -0.043828
21 -0.341148 -0.023548 0.181257 -0.325516 -0.153516 -0.034335 0.049528 0.122741 0.334325 0.183164 -0.288726 0.173412 0.365460 -0.267364 -0.219176 -0.072032 -0.146267 -0.131010 0.129625 0.015667 0.007925 -0.091610 0.234235 0.385198 0.240015 -0.026140 -0.081728 0.154596 0.167031 -0.007642 -0.015225 0.256126 -0.028292 -0.207866 -0.134936 -0.365639 -0.002997 -0.099004 0.209024 0.008994 -0.244035 0.014310 -0.003691 -0.061669 -0.047015 0.172256 -0.169101 0.198766 -0.165168 0.182429 0.012526 0.090632 0.194698 -0.084556 -0.249069 0.062028 -0.199623 -0.392975 -0.161213 -0.063327 -0.041577 -0.379366 -0.135143 0.208682 0.115822 -0.036542 -0.019323 0.214571 -0.123780 0.436108 0.275374 -0.182947 0.321518 -0.217964 0.042453 -0.226433 0.030478 0.010955 -0.015533 -0.048133 0.147286 -0.426373 -0.177721 -0.577654 0.046207 0.085770 0.060541 -0.164014 -0.125519 0.067949 -0.120617 0.309013 -0.081024 0.274808 -0.204531 0.190125 0.012086 0.056762 -0.174672 -0.058344 -0.145761 0.180233 -0.244562 0.103970 0.205562 0.028951 0.229967 0.201599 -0.114893 0.394839 0.200475 0.060278 -0.036857 -0.077003 -0.180150 0.166929 0.053247 0.043744 -0.344215 0.196711 0.094301 0.059616 -0.218760 0.062967 0.217391 0.156823 -0.291736 -0.063267
16 -0.468270 -0.063540 0.245239 -0.296130 0.004280 0.004354 -0.054030 0.148044 0.299302 0.087510 -0.275495 0.084694 0.244740 -0.086734 -0.093311 -0.068240 -0.116229 -0.183176 0.112718 0.073407 -0.057565 -0.045021 0.262455 0.307883 0.238949 -0.045358 -0.068856 0.120651 0.156758 -0.128461 -0.076253 0.274191 -0.041231 -0.172171 -0.065599 -0.229983 0.038153 -0.208477 0.181226 0.011028 -0.192080 0.012826 -0.017070 -0.068797 0.101976 0.093791 -0.180052 0.257311 -0.220852 0.260421 0.110435 0.109867 0.143099 0.006295 -0.243811 0.124447 -0.131890 -0.255959 -0.208638 0.039940 -0.050142 -0.485905 -0.155770 0.212353 0.184587 -0.077618 -0.095113 0.209678 -0.098111 0.375051 0.200001 -0.240026 0.206594 -0.224711 0.037148 -0.138539 0.052981 0.033270 -0.049667 0.009595 0.142932 -0.301146 -0.129395 -0.379003 0.048223 0.101297 0.044949 -0.095182 -0.065435 0.132965 -0.069000 0.264160 -0.126208 0.213588 -0.139103 0.274845 0.022691 -0.012754 -0.128524 -0.121011 -0.140264 0.124358 -0.189094 0.011849 0.198567 0.069181 0.194467 0.223010 -0.179372 0.397709 0.185563 0.103217 0.021771 -0.086872 -0.204112 0.047466 0.118766 0.047387 -0.457811 0.120452 0.158581 -0.002316 -0.223082 0.144610 0.237083 0.136408 -0.301929 -0.030476
19 -0.529873 -0.077940 0.292225 -0.350924 -0.064564 -0.063563 -0.015220 0.160765 0.397289 0.119879 -0.326143 0.130019 0.345561 -0.186615 -0.195537 -0.047659 -0.132147 -0.141670 0.141278 0.098658 -0.018917 -0.088827 0.236540 0.322584 0.235130 -0.006176 -0.053981 0.126439 0.186587 -0.056209 -0.043601 0.282713 -0.010934 -0.172770 -0.053490 -0.268820 0.044556 -0.132757 0.137717 0.067128 -0.186855 -0.029005 -0.044467 -0.063719 0.055082 0.125088 -0.168510 0.221860 -0.203437 0.210916 0.006394 0.067690 0.197016 -0.060354 -0.178305 0.063423 -0.155446 -0.255966 -0.136252 -0.056780 -0.013340 -0.336059 -0.102116 0.166262 0.175280 -0.045012 -0.046895 0.136223 -0.138669 0.375329 0.155579 -0.174108 0.226656 -0.164382 0.049181 -0.135775 0.005750 -0.011978 -0.014997 -0.031335 0.167265 -0.366347 -0.112891 -0.407936 0.106739 0.071602 0.033895 -0.120104 -0.054859 0.118146 -0.025023 0.254429 -0.069533 0.197671 -0.156333 0.187135 0.066634 0.062831 -0.113592 -0.088899 -0.131562 0.121243 -0.263478 0.100913 0.208709 0.070425 0.165730 0.188507 -0.168514 0.440583 0.170452 0.072268 0.045368 -0.101704 -0.179515 0.064713 0.130581 0.079171 -0.380765 0.149173 0.211597 0.040663 -0.242007 0.155373 0.165503 0.094744 -0.316859 -0.075123
47 -0.522082 -0.113304 0.291713 -0.315231 -0.059183 -0.091716 -0.030922 0.185118 0.255822 0.128117 -0.334687 0.161813 0.421108 -0.271826 -0.243188 -0.039358 -0.215044 -0.120959 0.170188 0.124946 -0.005376 -0.112089 0.300027 0.427797 0.231315 -0.006291 -0.049456 0.090648 0.123856 -0.080882 -0.082269 0.202536 -0.097705 -0.287366 -0.087524 -0.268348 0.000311 -0.159961 0.111512 0.046235 -0.154776 0.024001 -0.004058 -0.052928 0.087027 0.132274 -0.142001 0.145710 -0.186872 0.189232 0.133893 0.078687 0.107005 -0.064517 -0.199078 0.076057 -0.139610 -0.248515 -0.124070 -0.019478 0.001986 -0.356167 -0.139327 0.193093 0.238832 -0.073794 -0.039482 0.171481 -0.062804 0.391883 0.227806 -0.203024 0.272125 -0.153436 0.010362 -0.171822 0.060784 0.074911 -0.031033 -0.027785 0.179283 -0.353945 -0.211432 -0.477116 0.101606 0.087887 0.051237 -0.138945 -0.048298 0.147646 -0.105659 0.295324 -0.129641 0.268742 -0.212419 0.232875 0.051139 0.033225 -0.137158 -0.101149 -0.114971 0.197679 -0.195006 0.068841 0.227264 0.107338 0.122091 0.246488 -0.211123 0.485204 0.280308 0.069390 0.152264 -0.110069 -0.145723 0.116990 0.121041 0.037134 -0.531697 0.106000 0.213874 0.018640 -0.257856 0.163506 0.248126 0.159269 -0.386956 -0.096564
46 -0.398494 -0.056007 0.219318 -0.299353 -0.090224 -0.060351 0.023444 0.138468 0.302956 0.138709 -0.292623 0.146411 0.387859 -0.191475 -0.238570 -0.072752 -0.163974 -0.132393 0.139873 0.080807 -0.009454 -0.097887 0.292760 0.367659 0.194106 -0.011770 -0.062401 0.139780 0.151097 -0.051729 -0.036447 0.206186 -0.050612 -0.258858 -0.092119 -0.311583 0.024534 -0.153375 0.133904 0.052603 -0.176914 0.026639 0.001376 -0.044305 0.011059 0.186491 -0.136093 0.197680 -0.194928 0.224003 0.009615 0.110641 0.186449 -0.050160 -0.245487 0.032361 -0.135087 -0.283526 -0.158962 -0.037430 0.000084 -0.399965 -0.163215 0.212684 0.183571 -0.091187 -0.069331 0.130547 -0.065425 0.419892 0.192362 -0.172386 0.262855 -0.201707 0.052181 -0.199891 -0.023667 0.034692 -0.024426 -0.037884 0.192648 -0.334153 -0.143777 -0.447342 0.085634 0.111423 0.042226 -0.145313 -0.137577 0.158046 -0.076401 0.313616 -0.108916 0.263318 -0.206663 0.222046 0.034572 0.077137 -0.151403 -0.097188 -0.108087 0.166718 -0.208271 0.093947 0.226632 0.060316 0.277992 0.281234 -0.211548 0.506290 0.227903 0.073309 0.057862 -0.085408 -0.226401 0.110272 0.112416 0.107674 -0.514981 0.151886 0.134932 0.042938 -0.211412 0.086475 0.239184 0.182818 -0.327905 -0.037245
15 -0.428188 -0.047439 0.226010 -0.345479 -0.026838 0.021165 -0.029199 0.108193 0.386588 0.132890 -0.241730 0.147760 0.320153 -0.208585 -0.216417 -0.088697 -0.117880 -0.172860 0.193813 0.000144 -0.045208 -0.026360 0.306009 0.379064 0.222255 -0.059470 -0.033147 0.133691 0.227255 -0.067744 -0.085815 0.248491 -0.088789 -0.292978 -0.133764 -0.371139 -0.006953 -0.238096 0.207304 0.031996 -0.194739 0.012474 0.014060 -0.027288 0.056838 0.182793 -0.220473 0.277063 -0.222677 0.257414 0.053395 0.155319 0.173085 0.026369 -0.320095 0.119333 -0.186512 -0.326561 -0.194770 0.060817 -0.119831 -0.477521 -0.132253 0.222286 0.240821 -0.076195 -0.074182 0.149662 -0.080819 0.429847 0.223543 -0.244745 0.291692 -0.242702 -0.027244 -0.184248 0.005962 0.084434 -0.056599 -0.046379 0.182764 -0.312196 -0.159525 -0.446351 0.009562 0.119756 -0.013797 -0.165983 -0.117713 0.131666 -0.049852 0.337506 -0.057793 0.246184 -0.167256 0.264270 0.064735 0.058266 -0.170320 -0.136464 -0.067418 0.170518 -0.221285 0.031733 0.224927 0.084868 0.197806 0.180625 -0.126793 0.372440 0.194370 0.107257 0.056045 -0.098190 -0.172265 0.127226 0.162289 0.042732 -0.440474 0.116888 0.082202 0.079012 -0.184370 0.153046 0.243310 0.099738 -0.355736 -0.023896
29 -0.203471 -0.083609 -0.077874 0.169829 0.466700 -0.046765 -0.038046 -0.046539 -0.161717 0.172809 0.275880 0.440481 0.066393 -0.015525 -0.099693 -0.189553 -0.107852 0.172166 0.271735 -0.206807 -0.360741 -0.358050 -0.075935 -0.113293 0.088311 0.097740 -0.101891 -0.037582 0.198634 0.359595 -0.065354 0.329623 -0.004142 0.450816 -0.121662 0.083854 0.311487 0.027623 0.137040 -0.107206 -0.130888 -0.003508 0.159673 -0.121779 -0.305791 -0.209258 -0.124785 -0.285072 0.118886 -0.038036 -0.061923 -0.135783 -0.003869 0.196805 -0.378657 0.073543 0.277892 -0.233297 -0.287730 0.172798 0.251195 -0.330978 -0.559488 0.346610 -0.023191 0.099448 -0.213906 0.121922 -0.112453 -0.089280 0.068084 -0.128683 -0.160893 -0.155784 -0.075021 0.361482 0.732666 0.010964 -0.000431 0.213000 -0.109406 -0.234612 -0.288683 -0.112693 0.065421 0.116942 0.128328 -0.000341 0.169531 -0.258342 -0.237006 -0.049439 0.031326 0.005113 0.009384 -0.050269 -0.419993 -0.392751 0.030073 0.088219 -0.492995 0.032300 -0.147878 0.040801 -0.082516 -0.027476 0.168842 0.380840 -0.116562 0.178022 0.226863 0.132312 -0.055606 -0.070256 -0.022753 -0.044689 0.057862 0.013659 -0.239251 0.145139 0.148198 -0.299014 -0.109284 -0.028057 -0.023169 0.145449 0.045311 0.026678
56 -0.342279 -0.133539 0.019504 0.145626 0.441950 -0.056218 -0.020404 0.049163 -0.024283 0.105566 0.306791 0.446535 0.045575 -0.096220 -0.116115 -0.184308 -0.022737 0.185948 0.295487 -0.350316 -0.308940 -0.281471 -0.128994 -0.115043 0.150621 0.062916 -0.099042 -0.057638 0.156937 0.253587 -0.103386 0.268949 -0.064590 0.466221 -0.100272 -0.041600 0.350534 0.051937 0.155563 0.005334 -0.120786 0.003289 0.322847 -0.018455 -0.461301 -0.173580 -0.107704 -0.390414 0.243918 -0.125270 -0.163222 -0.173439 0.092405 0.296776 -0.475681 0.008154 0.215756 -0.202495 -0.244122 0.149146 0.301258 -0.242654 -0.568574 0.364569 -0.008093 0.244571 -0.106178 0.153304 -0.108747 -0.121933 0.133243 -0.167835 -0.043281 -0.107584 -0.221644 0.322523 0.731271 -0.042649 0.021135 0.137357 0.013093 -0.264711 -0.312815 -0.096059 0.097377 0.097603 0.065002 0.022177 0.227603 -0.227948 -0.213698 0.052328 0.112854 -0.066165 -0.005181 -0.093152 -0.425358 -0.441790 -0.013852 0.072460 -0.500509 -0.024833 -0.076151 0.096246 -0.142729 -0.137347 0.015585 0.275818 -0.126635 0.052294 0.154003 0.178508 0.030916 -0.070432 0.039264 0.044602 -0.006420 0.148315 -0.209179 0.250949 0.162926 -0.212286 -0.093910 -0.007274 -0.076180 0.210566 0.053621 0.081553
40 -0.032655 -0.254391 0.036739 0.013410 0.006445 -0.194762 -0.000570 -0.107985 0.072068 -0.094501 -0.055309 0.131049 0.080005 -0.134716 -0.024178 -0.224168 -0.306508 -0.183400 0.125128 -0.053092 0.192425 0.040901 0.044376 0.151929 0.061466 0.229621 0.155029 -0.065755 0.074714 -0.173813 -0.229507 -0.002670 -0.205194 -0.216925 0.234957 -0.133838 0.114148 0.083120 0.066129 -0.160280 0.016950 0.105397 0.147956 0.168569 -0.174400 0.210443 -0.043476 0.038909 0.159768 -0.026669 -0.385296 0.114388 0.082465 0.240827 -0.037460 -0.109196 0.127921 0.127873 -0.141536 -0.052081 0.062857 -0.061580 -0.007261 0.041827 -0.154344 -0.057499 -0.004018 0.102631 0.113405 0.027912 -0.049813 -0.013177 0.131595 0.011142 0.190446 -0.114259 0.242305 -0.099920 -0.014230 -0.014209 -0.147674 -0.263558 -0.190464 -0.503937 -0.168732 -0.228755 0.238948 0.069956 0.080019 0.199819 0.169751 -0.233672 -0.138234 0.016837 -0.060956 -0.097220 -0.065351 -0.402687 0.028198 0.140040 -0.037296 -0.075872 0.004634 -0.149692 0.089796 0.236315 0.148039 0.089994 -0.193806 0.079220 -0.035603 0.041645 0.168661 0.055937 -0.227198 -0.106083 0.059246 0.047936 -0.060907 -0.187675 -0.027725 -0.068009 0.052409 -0.342487 -0.097096 0.007065 0.033872 0.054885
65 -0.374776 -0.098793 -0.001449 0.111094 0.483920 -0.078791 -0.033898 0.050412 -0.143660 0.147918 0.247892 0.459012 0.217846 0.001749 -0.229413 -0.218346 -0.126339 0.152873 0.295085 -0.127687 -0.368365 -0.418603 -0.018579 -0.058889 0.154508 0.165619 -0.184725 0.035427 0.216164 0.367406 -0.090248 0.324307 -0.018884 0.378530 -0.146859 -0.036993 0.300193 0.084879 0.126992 -0.034635 -0.145027 -0.011983 0.241581 -0.061221 -0.383173 -0.163327 -0.096931 -0.237572 0.113617 -0.042445 -0.053490 -0.142232 0.013723 0.173133 -0.349185 0.037920 0.163307 -0.210682 -0.270379 0.065049 0.240569 -0.256791 -0.497106 0.327668 0.005156 0.201062 -0.111961 0.199608 -0.141854 -0.094890 0.099989 -0.127446 -0.066659 -0.160321 -0.169355 0.299860 0.675977 -0.027094 0.085010 0.157940 0.019943 -0.273367 -0.243783 -0.015273 0.138769 0.092030 0.177974 0.065279 0.300920 -0.177300 -0.276742 0.014976 -0.002505 0.038078 -0.035311 -0.075693 -0.317512 -0.360108 -0.021987 0.066235 -0.441448 0.023783 -0.059741 0.090775 -0.211156 -0.096946 0.032731 0.314085 -0.163718 0.130072 0.121991 0.206239 -0.016499 -0.067887 -0.078524 0.054202 -0.091755 0.200799 -0.195041 0.254855 0.135527 -0.255561 -0.047837 -0.146682 -0.129849 0.223961 0.196118 0.189077
63 -0.121919 -0.300998 0.026829 0.191721 0.226528 -0.095795 -0.029031 0.170214 0.288996 -0.116050 -0.028038 0.122594 -0.010258 -0.129672 0.096438 -0.181974 -0.016050 -0.132889 0.108534 -0.153633 0.040824 0.086677 0.003203 0.047931 0.057697 0.012121 0.085432 -0.120977 0.081900 -0.065197 -0.021558 -0.098767 -0.020874 -0.242251 0.274898 -0.172701 0.061444 0.161809 -0.033505 0.098702 0.111158 0.233321 0.238836 -0.051604 -0.415559 0.001072 0.070043 0.164852 0.271254 0.097049 -0.351773 0.291784 0.239103 0.358475 -0.132454 -0.184544 0.094903 -0.023854 -0.109072 -0.007864 0.103601 -0.338181 0.051107 0.217543 -0.161545 0.070428 0.036108 0.136627 -0.040035 -0.106629 0.062999 0.064181 -0.156064 0.105781 0.342334 -0.066037 -0.055058 -0.140894 -0.140885 -0.235566 -0.179539 -0.074910 -0.017344 -0.281196 -0.043440 -0.314456 0.244598 0.108600 0.161544 0.248459 0.095897 -0.162304 -0.009783 0.083067 -0.018679 -0.145302 0.102321 -0.340513 0.096965 0.149592 0.115255 0.031528 -0.200608 0.014593 0.100117 0.263436 0.160919 0.013666 -0.074564 0.032916 0.065842 0.134466 0.152252 0.017273 -0.118714 -0.012448 0.230715 -0.034022 -0.065171 -0.152295 0.215311 -0.065273 0.138160 -0.275163 -0.212328 -0.246084 -0.027770 -0.028464
53 -0.116877 -0.193519 0.027927 -0.029817 0.088683 -0.047486 -0.050963 0.118175 0.305191 -0.107354 -0.017696 0.109278 -0.032464 -0.053850 0.034044 -0.141391 -0.048305 -0.182868 0.141401 -0.118556 0.058810 0.106114 -0.028389 0.052932 0.036340 0.050053 0.152567 -0.070941 0.118659 -0.031801 -0.043625 -0.030483 -0.012612 -0.259541 0.206714 -0.206469 0.046722 0.173959 -0.009328 0.056212 0.030032 0.185352 0.131661 -0.064465 -0.405024 0.053873 0.009327 0.257134 0.210228 0.092976 -0.403048 0.274344 0.225387 0.339617 -0.081080 -0.213440 0.110089 -0.095171 -0.112095 -0.016178 0.123774 -0.223686 -0.018440 0.193536 -0.157331 0.069434 0.006522 0.108696 -0.029559 -0.187826 0.031350 0.069217 -0.107431 0.036332 0.334668 -0.020178 0.029414 -0.147194 -0.102436 -0.170777 -0.156634 -0.137141 -0.058127 -0.324682 -0.033758 -0.242458 0.226259 0.045916 0.185779 0.140182 0.065600 -0.101801 0.048618 0.116895 -0.037192 -0.087265 0.085526 -0.348973 0.078103 0.097169 -0.036385 0.032967 -0.265734 0.031917 0.059929 0.355139 0.149428 0.021731 -0.050144 -0.014187 0.071944 0.129861 0.101369 0.006877 -0.076340 -0.005304 0.235732 -0.028299 0.071815 -0.161205 0.197936 -0.102992 0.123972 -0.360513 -0.250019 -0.284645 -0.005540 -0.022415
11 -0.273070 -0.328772 0.107105 0.063977 0.083509 -0.178867 0.032104 0.096887 0.371145 -0.132750 -0.022150 0.175540 0.000990 -0.022882 0.044544 -0.212349 -0.054412 -0.156815 0.162734 -0.127195 0.055472 0.044155 -0.049290 0.039507 0.057826 0.068534 0.145829 -0.044481 0.110704 -0.115545 -0.045832 -0.058545 0.024979 -0.225480 0.319968 -0.059764 0.149921 0.199055 -0.059156 0.070445 0.153359 0.252080 0.202183 -0.045026 -0.374614 0.042993 0.074996 0.228910 0.171023 0.140899 -0.400212 0.289378 0.308619 0.265775 -0.084812 -0.230684 0.097003 0.011441 -0.133878 -0.058417 0.148286 -0.352736 0.082172 0.191535 -0.226785 -0.003905 -0.078197 0.049481 0.006933 -0.110830 -0.048546 0.054740 -0.150815 0.077103 0.350815 -0.009462 -0.040064 -0.178901 -0.153975 -0.192125 -0.105535 -0.097720 -0.062295 -0.271918 -0.044034 -0.257451 0.178612 0.057777 0.155694 0.221549 0.047770 -0.112287 -0.017937 0.118490 0.022969 -0.113570 0.069736 -0.253997 0.072643 0.115229 0.043073 0.013072 -0.169487 0.029050 0.083337 0.215581 0.227270 0.019262 -0.144336 0.113269 0.042437 0.099851 0.114845 -0.050600 -0.129832 -0.024345 0.163321 0.084546 -0.091526 -0.100960 0.185461 -0.042694 0.148321 -0.418790 -0.219036 -0.204241 -0.039825 0.099164
49 0.087674 -0.235797 0.035368 0.039406 -0.068522 -0.136957 0.081025 -0.083080 0.018849 -0.074025 -0.014567 0.136180 -0.035184 -0.190750 0.017294 -0.225765 -0.267238 -0.183568 0.104731 -0.214212 0.200790 0.090075 0.045826 0.176899 0.063202 0.102965 0.087909 -0.042104 0.055688 -0.109405 -0.175560 -0.072962 -0.183109 -0.173715 0.227039 -0.193777 0.111579 0.063731 0.146209 -0.158478 0.025666 0.080944 0.173489 0.218758 -0.216893 0.156475 -0.028424 0.043516 0.160355 0.011833 -0.354270 0.071260 0.069116 0.294512 -0.084159 -0.083339 0.099997 0.080082 -0.124302 -0.038442 -0.001024 -0.065599 -0.022219 0.056572 -0.148808 -0.071669 -0.029718 0.103280 0.174128 0.021678 -0.059434 -0.002449 0.117076 -0.086025 0.210626 -0.128825 0.233178 -0.105886 -0.070574 -0.023261 -0.167048 -0.148327 -0.161640 -0.409794 -0.216297 -0.155413 0.324030 0.046519 -0.038949 0.205617 0.184680 -0.214550 -0.129454 0.048880 -0.141537 -0.067449 -0.116997 -0.418194 0.061127 0.140211 -0.052123 -0.033245 -0.071532 -0.108595 0.156018 0.212169 0.328099 0.164310 -0.207658 0.119355 -0.008527 0.019471 0.108242 0.126652 -0.230017 -0.115727 0.088896 0.041743 -0.085420 -0.190815 -0.033070 -0.056493 0.031395 -0.403339 -0.093612 0.043901 0.026553 0.028967
31 -0.341239 -0.193107 0.045128 0.218587 0.518982 -0.146358 -0.006160 0.060092 -0.084038 0.123623 0.272113 0.476812 0.146016 -0.094418 -0.132532 -0.228979 -0.144155 0.212982 0.312129 -0.244652 -0.326789 -0.371367 -0.043619 -0.066973 0.126236 0.114016 -0.115013 -0.005097 0.226211 0.391720 -0.120453 0.290857 -0.113945 0.469788 -0.041219 0.036807 0.370188 0.011788 0.144081 -0.085171 -0.078445 -0.036974 0.251960 -0.046396 -0.344176 -0.187125 -0.145711 -0.328223 0.125014 -0.048628 -0.097056 -0.161504 0.067823 0.247716 -0.445775 0.050280 0.225488 -0.155168 -0.293203 0.078277 0.306534 -0.329918 -0.513462 0.307908 -0.034223 0.125030 -0.176898 0.037741 -0.027166 -0.109362 0.009366 -0.123712 -0.121864 -0.124400 -0.162981 0.360520 0.653586 -0.022407 0.058233 0.144174 -0.005916 -0.184524 -0.266099 0.016435 0.087832 0.093477 0.079997 -0.008281 0.210377 -0.214658 -0.266436 0.018905 0.027510 -0.003838 -0.046505 -0.015706 -0.436983 -0.266643 0.019275 0.095985 -0.460185 0.008988 -0.081524 0.050400 -0.152590 -0.168574 0.104398 0.378655 -0.135457 0.139672 0.140452 0.119840 0.005340 -0.091893 0.006138 -0.032336 -0.022745 0.119236 -0.316074 0.257464 0.131976 -0.211467 -0.075906 -0.041347 -0.035712 0.242491 0.088420 0.119633
22 0.055896 -0.221005 0.035755 0.057660 0.074749 -0.153142 0.022129 0.018476 0.117856 -0.038717 -0.108669 0.079555 0.063568 -0.201652 0.074805 -0.236631 -0.329115 -0.194719 0.035256 -0.074688 0.242702 0.091186 0.149452 0.209675 0.107961 0.052594 0.055907 -0.104622 0.041600 -0.154413 -0.201293 -0.158915 -0.246458 -0.217378 0.216986 -0.165400 0.059579 0.005791 0.071507 -0.137619 0.021828 0.008409 0.183762 0.212941 -0.155014 0.133224 -0.060723 0.060266 0.140191 -0.058845 -0.322568 0.078347 0.078161 0.249330 -0.045421 -0.090071 0.126490 0.113928 -0.114180 -0.136309 0.128178 -0.053484 0.021386 0.052526 -0.261958 0.036527 -0.025897 0.125489 0.195094 -0.016337 -0.073428 0.099251 0.128674 -0.091743 0.210901 -0.116714 0.235340 -0.129967 0.004245 0.035405 -0.167046 -0.259774 -0.187173 -0.420686 -0.179348 -0.227599 0.315435 0.062021 0.080756 0.164390 0.161726 -0.251755 -0.123019 -0.039156 -0.088087 -0.146439 -0.098590 -0.451487 0.068390 0.181178 -0.115333 -0.046079 -0.079193 -0.073083 0.051620 0.201482 0.313357 0.248160 -0.194603 0.145392 -0.030019 0.043031 0.101800 0.130598 -0.247257 -0.125987 0.092681 0.067293 -0.112497 -0.142003 0.044030 -0.038591 0.057469 -0.190774 -0.111376 0.115189 0.070292 0.130601
5 -0.152036 -0.291203 0.003291 0.071801 0.083962 -0.170035 0.060114 0.060964 0.340387 -0.040405 0.017140 0.179484 -0.009195 -0.091789 0.094647 -0.183561 -0.106188 -0.093597 0.113032 -0.159921 0.063706 -0.003041 -0.049262 0.049066 0.120866 0.005746 0.083295 -0.102639 0.136432 0.008479 -0.047400 0.013724 -0.003700 -0.207807 0.231879 -0.090915 0.090419 0.161024 -0.072434 0.055248 0.143734 0.215803 0.149828 -0.041288 -0.382451 0.026777 0.030053 0.219312 0.232154 0.045232 -0.440615 0.254061 0.269194 0.252750 -0.052718 -0.194532 0.092252 -0.050044 -0.110236 -0.082347 0.098978 -0.275720 0.086571 0.119834 -0.249766 0.057503 -0.032162 0.063383 -0.013712 -0.135663 -0.063858 0.068009 -0.139706 0.059610 0.327621 0.053894 0.067394 -0.220485 -0.102995 -0.209323 -0.179074 -0.150421 -0.079377 -0.332043 -0.136069 -0.359230 0.220525 0.054550 0.208933 0.231370 0.129204 -0.167981 -0.018057 0.107857 -0.027800 -0.122892 0.165368 -0.278531 0.037702 0.192391 0.121535 0.078903 -0.225211 -0.039865 0.124842 0.319074 0.216638 -0.000125 -0.116161 0.100966 0.030093 0.132797 0.169710 -0.030698 -0.171780 -0.012292 0.240419 -0.006972 -0.032979 -0.208696 0.182359 -0.003708 0.152027 -0.415150 -0.256993 -0.352677 -0.079781 0.057562
58 -0.372803 -0.079609 0.068880 0.066706 0.399527 -0.070919 -0.047654 0.022052 -0.083462 0.168998 0.268245 0.396302 0.190965 -0.041160 -0.187496 -0.151954 -0.103362 0.223530 0.243274 -0.167401 -0.329920 -0.386959 -0.023196 -0.100021 0.136667 0.087537 -0.199466 0.004929 0.221359 0.338902 -0.101587 0.292800 -0.050058 0.412254 -0.148085 -0.005589 0.296176 0.016308 0.153112 -0.000239 -0.119072 -0.084416 0.223783 -0.017864 -0.326208 -0.129300 -0.186343 -0.219004 0.062713 -0.080106 -0.068541 -0.172294 0.061029 0.156071 -0.408926 0.082006 0.092562 -0.189158 -0.286839 0.031139 0.240304 -0.271316 -0.447319 0.256687 -0.052329 0.206367 -0.102917 0.055965 -0.052789 -0.063046 0.040687 -0.141633 -0.016966 -0.183775 -0.260630 0.365723 0.678165 -0.033402 0.133904 0.096846 0.043412 -0.262064 -0.245874 0.051173 0.045460 0.045287 0.100274 0.004487 0.304235 -0.234742 -0.302299 0.056736 -0.014564 0.047375 -0.007105 -0.077882 -0.323265 -0.238062 -0.071167 0.096777 -0.390659 0.013593 -0.054321 0.079894 -0.154930 -0.125462 0.088538 0.371654 -0.168050 0.142372 0.046838 0.169578 0.052483 -0.060817 -0.072994 0.025445 -0.035606 0.180165 -0.272282 0.212028 0.120991 -0.224670 -0.047588 -0.097341 -0.108690 0.161734 0.141165 0.176180
18 0.009682 -0.240331 0.061318 -0.028097 -0.052791 -0.135756 0.067117 -0.050301 0.065068 -0.023046 -0.010813 0.133990 0.015770 -0.248167 0.030414 -0.214313 -0.294825 -0.161391 0.129761 -0.255930 0.179551 0.055571 0.060050 0.248158 0.117543 0.031247 0.067219 -0.066322 0.077184 -0.074738 -0.195181 -0.066232 -0.200791 -0.200590 0.150436 -0.188050 0.078529 0.030440 0.140897 -0.139210 0.018158 0.021904 0.167021 0.200089 -0.191798 0.168669 -0.070899 0.024964 0.165799 -0.055839 -0.316616 0.054558 0.048480 0.264031 -0.098924 -0.067638 0.085893 0.045061 -0.127557 -0.028555 0.033244 -0.027982 -0.010929 0.021302 -0.217692 -0.004139 0.040032 0.093593 0.183770 -0.045155 -0.043192 0.034759 0.132861 -0.057988 0.171360 -0.085171 0.312956 -0.106207 -0.013064 -0.057140 -0.202483 -0.189191 -0.221988 -0.452665 -0.249746 -0.206229 0.273270 0.018420 0.014075 0.160848 0.219796 -0.196831 -0.089340 0.016414 -0.127926 -0.081524 -0.068059 -0.396846 0.016463 0.162091 -0.010083 -0.050350 -0.046309 -0.158484 0.130810 0.191954 0.259790 0.153024 -0.136728 0.027898 -0.078557 0.018157 0.141852 0.132635 -0.233273 -0.090079 0.133758 -0.010669 -0.011557 -0.264048 -0.090664 -0.005364 0.101424 -0.369556 -0.142786 -0.056969 0.052013 0.041178
10 -0.261631 -0.063582 -0.056005 0.030407 0.320589 -0.095959 0.040190 -0.041678 0.015320 0.207560 0.312036 0.459016 0.139887 -0.079712 -0.191452 -0.188041 -0.130856 0.210769 0.281835 -0.186223 -0.297207 -0.395740 -0.013811 -0.012985 0.265771 0.096066 -0.122232 -0.030059 0.265228 0.335538 -0.164212 0.376518 -0.123840 0.396194 -0.136066 -0.019651 0.337327 0.030505 0.143441 -0.101347 -0.103557 -0.026351 0.256596 0.056350 -0.358831 -0.131237 -0.139862 -0.297136 0.191026 -0.127746 -0.228747 -0.178169 0.045077 0.156171 -0.339651 0.026894 0.190189 -0.227297 -0.264593 0.045198 0.261265 -0.195113 -0.496550 0.243981 0.005553 0.172923 -0.186339 0.072316 -0.096663 0.010343 0.070266 -0.179311 0.040534 -0.185130 -0.236656 0.314271 0.711968 -0.028663 0.083545 0.179637 0.016817 -0.313198 -0.316866 -0.049743 0.044371 0.079787 0.043820 -0.065795 0.221070 -0.244602 -0.266820 0.047141 0.024301 0.027095 -0.007066 -0.038976 -0.317459 -0.281122 -0.040532 0.037232 -0.475675 0.033762 -0.088386 0.121272 -0.134426 -0.164049 0.033431 0.293176 -0.106745 0.200906 0.108606 0.173809 0.020245 -0.091637 0.012502 0.064787 -0.026062 0.155057 -0.284637 0.262894 0.088248 -0.124835 -0.126832 -0.033986 -0.062654 0.279886 0.038841 0.182918
7 -0.196104 -0.270130 -0.038536 0.110141 0.198104 -0.101742 0.002782 0.132878 0.461786 -0.108684 -0.017516 0.166851 -0.052754 -0.024881 0.092113 -0.168560 0.078420 -0.155044 0.123298 -0.110367 0.033005 0.099339 -0.072663 0.025550 0.072852 -0.030224 0.137123 -0.098953 0.077079 -0.110296 0.049994 -0.038031 0.058540 -0.279466 0.201905 -0.125952 0.085347 0.202220 -0.146121 0.118718 0.123992 0.313884 0.196096 -0.133866 -0.428568 -0.023904 0.136826 0.173189 0.272552 0.067813 -0.344570 0.293424 0.265416 0.275119 -0.107336 -0.206182 0.175621 -0.039569 -0.061196 0.084025 0.085090 -0.258360 -0.008715 0.220468 -0.168774 0.141840 0.010673 0.175756 -0.188716 -0.173836 0.108554 0.053814 -0.224667 0.157789 0.341162 -0.012480 -0.100754 -0.180079 -0.149212 -0.182823 -0.155249 -0.063314 -0.005294 -0.185369 0.030089 -0.259816 0.139795 0.100282 0.198442 0.183572 0.067483 -0.072189 0.111853 0.062820 0.035637 -0.121777 0.129675 -0.324815 0.089732 0.090148 0.064105 0.133437 -0.243668 0.012224 0.104145 0.365916 0.159635 -0.062756 -0.085616 0.051665 0.176423 0.175213 0.182996 -0.089349 -0.050074 0.070413 0.296947 -0.042014 -0.048481 -0.185036 0.297907 -0.085172 0.122079 -0.298758 -0.184272 -0.357941 -0.206904 -0.004258
6 -0.189377 -0.325393 -0.004755 0.030482 0.079638 -0.020304 0.091741 0.147900 0.417711 -0.091620 -0.041187 0.301853 -0.062729 -0.059291 0.141535 -0.278438 -0.040733 -0.242978 0.182758 -0.200107 0.001972 0.046705 -0.077941 0.109890 0.174778 -0.120259 -0.017802 -0.131244 0.105159 -0.083487 0.053436 0.006817 0.061870 -0.286727 0.228198 -0.125896 0.218519 0.287195 -0.056514 0.043110 0.116738 0.271524 0.233090 -0.061540 -0.505854 0.080201 0.095486 0.161934 0.245963 0.105599 -0.446779 0.300993 0.252138 0.305114 -0.056686 -0.311138 0.148206 -0.068113 -0.140516 -0.043953 0.123409 -0.283854 0.100625 0.212256 -0.175060 -0.006738 -0.016483 0.106837 -0.070277 -0.151146 0.092399 0.065023 -0.148255 0.109161 0.379583 -0.042479 -0.075448 -0.110469 -0.153209 -0.222637 -0.107402 -0.049174 -0.028812 -0.250845 -0.032588 -0.263409 0.153816 0.046440 0.133641 0.117191 0.007858 -0.077733 0.034716 0.152059 0.047433 -0.139164 0.085043 -0.327308 0.071416 0.120917 0.065815 0.012029 -0.253537 0.040759 0.162488 0.333375 0.287791 0.110867 -0.070344 -0.012784 0.123303 0.145029 0.162075 0.013979 -0.080073 0.026953 0.346422 -0.053719 -0.078591 -0.275346 0.183342 -0.133892 0.194079 -0.419299 -0.264299 -0.338918 -0.038417 -0.046989
55 -0.200234 -0.266516 0.024334 0.068044 0.144348 -0.122360 0.025955 0.075678 0.451067 -0.107490 0.000168 0.152554 -0.048731 -0.076196 0.107595 -0.191140 0.007007 -0.124497 0.081050 -0.129102 0.029991 0.043076 -0.064489 0.017657 0.126779 -0.041963 0.063548 -0.117960 0.147074 -0.071072 0.002884 -0.011351 0.042185 -0.304742 0.247231 -0.062980 0.061686 0.207621 -0.159257 0.112615 0.179930 0.299563 0.183658 -0.133977 -0.383582 0.042696 0.126658 0.196712 0.239990 0.079869 -0.368108 0.330998 0.273129 0.199260 -0.087120 -0.236710 0.192369 -0.039442 -0.105407 0.022482 0.117740 -0.321838 0.088854 0.219754 -0.254691 0.118891 0.007641 0.129994 -0.099717 -0.146862 0.118450 0.070310 -0.207809 0.142685 0.400316 0.018435 0.000647 -0.214767 -0.127574 -0.238554 -0.187039 -0.117788 -0.089150 -0.282487 -0.040974 -0.351738 0.137885 0.070595 0.161610 0.168002 0.019278 -0.057476 0.043374 0.121440 -0.007821 -0.147222 0.083628 -0.244766 0.071897 0.162302 0.079516 0.118427 -0.239768 0.002535 0.066874 0.217506 0.189899 0.050571 -0.031512 0.044581 0.082399 0.139112 0.122737 -0.060882 -0.042779 0.059227 0.293171 -0.078932 -0.063509 -0.173665 0.216305 -0.065525 0.131466 -0.330120 -0.217812 -0.333187 -0.102123 0.028263
26 -0.134215 0.311380 0.133763 -0.213655 0.094614 0.075656 -0.368041 -0.045698 0.140174 -0.203974 0.218470 -0.286523 0.172119 0.090379 -0.448124 0.207218 0.302266 -0.105462 0.151798 0.070962 -0.168779 0.188518 0.133699 -0.049200 -0.320723 0.380273 0.387805 0.308719 0.382811 0.080975 -0.038973 -0.030129 -0.069512 -0.029734 -0.025977 -0.240294 -0.335524 0.056075 0.103187 -0.093043 0.025573 -0.261464 0.079987 0.081339 -0.463715 -0.170242 -0.201228 0.288181 0.353157 -0.065783 -0.547787 0.023567 -0.192600 0.394220 -0.290758 0.153612 0.461309 0.209306 -0.304773 0.506584 -0.268692 0.180166 -0.389204 -0.027110 -0.192980 0.341318 0.356862 0.381494 -0.545068 0.169489 0.378938 -0.041966 0.142362 0.109592 -0.048930 -0.194656 0.158273 -0.139881 0.406066 -0.047290 -0.284645 -0.538665 0.067465 -0.090203 0.381747 -0.295151 0.023712 0.116574 0.129078 -0.197714 -0.620727 -0.326372 -0.259573 0.198325 0.021132 -0.295451 -0.063922 0.057367 0.010784 0.313316 0.019273 0.082252 -0.172936 -0.115212 0.632142 0.700735 0.412400 0.553576 -0.331525 0.312134 0.271584 -0.386207 0.359041 0.101239 -0.051377 -0.335349 0.538962 -0.412431 -0.282252 -0.698553 0.544295 -0.543336 -0.272046 0.139051 -0.074129 -0.366586 -0.333337 -0.507466
44 -0.053123 0.322846 -0.025484 -0.184797 0.176027 0.088109 -0.325003 -0.016583 0.326774 -0.036827 0.303085 -0.105412 0.168978 0.065613 -0.472403 0.112401 0.276017 -0.126485 0.173217 -0.008487 -0.263849 0.178614 0.119864 -0.037982 -0.220643 0.359949 0.401381 0.409391 0.564898 0.234826 -0.032886 -0.006500 -0.066107 -0.007178 -0.094506 -0.266481 -0.421109 -0.004663 0.076896 -0.065065 0.009141 -0.192449 0.083773 0.092004 -0.395368 -0.316074 -0.194872 0.373595 0.272453 -0.091247 -0.461409 0.045811 -0.186288 0.326923 -0.283897 0.275396 0.450160 0.222161 -0.141116 0.539312 -0.347243 0.163258 -0.422112 -0.103562 -0.161143 0.356196 0.377717 0.478333 -0.524278 0.253914 0.428681 -0.045476 0.206867 0.101940 -0.063079 -0.211377 0.026188 -0.191285 0.385487 -0.036215 -0.192465 -0.522220 0.124282 -0.100770 0.296388 -0.344340 0.009009 0.165832 0.016088 -0.071164 -0.584676 -0.249142 -0.374386 0.175815 -0.038433 -0.242902 0.047454 0.227292 -0.082022 0.309024 0.184153 0.160134 -0.080280 -0.135167 0.627663 0.673317 0.487201 0.516168 -0.426028 0.310178 0.319467 -0.437077 0.293397 0.116917 -0.031693 -0.242647 0.509076 -0.382339 -0.356690 -0.711497 0.451629 -0.427500 -0.203933 0.173077 0.052047 -0.387720 -0.357141 -0.423707
50 -0.184626 -0.274400 -0.012637 0.090202 0.147507 -0.105885 0.018274 0.122372 0.302175 -0.056368 0.024043 0.135780 -0.020262 -0.025597 0.089020 -0.132008 -0.001601 -0.067933 0.161566 -0.174497 -0.040136 0.019246 -0.096873 0.044065 0.067636 -0.009112 0.152597 -0.095018 0.042120 0.011894 0.007302 -0.048056 -0.030895 -0.283383 0.217285 -0.153554 0.091129 0.146573 -0.054153 0.101004 0.089035 0.208099 0.176832 -0.107878 -0.395095 0.026326 0.019322 0.170728 0.229160 0.064321 -0.327931 0.245231 0.265696 0.275682 -0.140496 -0.206544 0.094248 -0.144386 -0.121603 -0.021728 0.121467 -0.318766 0.009351 0.169018 -0.226106 0.091978 -0.000184 0.082742 -0.042501 -0.202515 0.049277 0.098416 -0.199153 0.084013 0.347661 -0.002257 0.019179 -0.196299 -0.109619 -0.202771 -0.221615 -0.099136 -0.098144 -0.287239 -0.065006 -0.326669 0.201290 0.021926 0.150997 0.173732 0.090815 -0.141605 0.097319 0.096891 -0.052794 -0.093682 0.143322 -0.254724 0.068958 0.130819 0.063564 0.111369 -0.240649 0.000660 0.061004 0.345636 0.193331 0.040790 -0.094929 0.027210 0.090076 0.103891 0.144977 -0.035854 -0.132729 0.010800 0.268902 -0.047057 -0.020204 -0.154370 0.262530 -0.067842 0.107372 -0.326641 -0.217087 -0.312157 -0.118004 -0.002169
13 -0.009093 -0.219374 -0.036612 -0.018459 0.063500 -0.135751 0.051047 -0.079311 0.200860 -0.007788 0.014308 0.228659 0.072375 -0.141825 -0.025637 -0.286292 -0.235562 -0.154501 0.181657 -0.101562 0.113997 0.000077 0.013476 0.158837 0.114900 0.081454 0.085319 -0.099635 0.076054 -0.084604 -0.168386 -0.017863 -0.189083 -0.268520 0.141305 -0.204721 0.132372 0.067454 0.050283 -0.102654 0.020025 0.123092 0.188975 0.163424 -0.233573 0.210716 -0.058979 0.077754 0.147301 -0.019475 -0.396123 0.125073 0.141942 0.222723 -0.101786 -0.105013 0.056021 0.031467 -0.118622 -0.073561 0.005817 -0.066099 0.032967 0.014855 -0.168402 -0.003217 -0.009509 0.029389 0.081502 -0.010949 -0.052066 0.023253 0.093213 -0.016549 0.182399 -0.096516 0.193146 -0.134374 -0.007636 -0.044955 -0.170131 -0.221149 -0.159565 -0.382335 -0.208776 -0.258297 0.231736 0.039893 0.090115 0.194151 0.208456 -0.231288 -0.052919 0.001033 -0.053245 -0.140042 0.003903 -0.380516 0.030906 0.140645 0.030906 -0.016281 -0.046556 -0.125364 0.079809 0.297439 0.205549 0.060268 -0.171596 0.035751 -0.069691 0.072747 0.203885 0.057642 -0.252765 -0.052735 0.144274 0.060895 -0.027489 -0.221377 -0.036246 0.000308 0.090279 -0.365671 -0.127347 -0.062400 -0.017307 0.122629
57 -0.077148 0.271773 -0.030240 -0.134802 0.223534 0.102581 -0.347549 -0.040698 0.285574 -0.097866 0.239968 -0.126163 0.207993 0.182785 -0.436402 0.096715 0.320102 -0.108827 0.234228 0.060783 -0.306541 0.128240 0.048833 -0.083061 -0.247112 0.380419 0.380289 0.285850 0.381079 0.155652 0.003855 0.042111 -0.017637 -0.006477 -0.025006 -0.224303 -0.339018 0.067518 0.085714 -0.030264 -0.008312 -0.234332 0.085102 0.016108 -0.464747 -0.272283 -0.221592 0.300094 0.367272 -0.083503 -0.536035 0.058208 -0.123529 0.391747 -0.293504 0.187830 0.432132 0.141516 -0.258612 0.490211 -0.264009 0.139982 -0.435355 -0.061541 -0.192824 0.342777 0.382724 0.369248 -0.582739 0.196187 0.373022 -0.024697 0.133637 0.172802 -0.023316 -0.209034 0.004750 -0.163242 0.379914 -0.032299 -0.223469 -0.512133 0.138880 -0.104384 0.342999 -0.359104 -0.045232 0.137089 0.120583 -0.124078 -0.515107 -0.353023 -0.246043 0.149886 0.076960 -0.310943 0.036367 0.082627 -0.012248 0.324218 0.118599 0.049355 -0.139688 -0.111558 0.609449 0.792710 0.435470 0.506986 -0.394467 0.259701 0.271504 -0.393259 0.348894 0.094315 -0.111358 -0.355658 0.579937 -0.398328 -0.275408 -0.695479 0.540246 -0.463827 -0.205134 0.161172 -0.033162 -0.394066 -0.354855 -0.486159
25 -0.108412 0.316244 0.068425 -0.153418 0.173330 0.108832 -0.386718 -0.004031 0.284102 -0.201648 0.282933 -0.150776 0.209300 0.128624 -0.548021 0.080685 0.354778 -0.137532 0.262114 0.020837 -0.252980 0.179565 0.123834 -0.045307 -0.302228 0.414798 0.400752 0.347574 0.458118 0.190541 -0.025753 -0.026782 -0.064888 -0.028882 0.010915 -0.250846 -0.370604 0.105701 0.092581 -0.112389 0.071427 -0.236327 0.130196 0.080550 -0.517720 -0.252640 -0.141236 0.320403 0.408533 -0.038690 -0.605872 0.059383 -0.201723 0.444972 -0.303556 0.159440 0.566229 0.289210 -0.285215 0.604758 -0.335024 0.210944 -0.431995 -0.057905 -0.182514 0.363680 0.375798 0.408151 -0.600261 0.182276 0.394628 -0.039912 0.126624 0.173027 -0.031437 -0.213948 0.050584 -0.129445 0.428002 -0.057207 -0.256153 -0.486304 0.125175 -0.019584 0.408537 -0.309532 -0.002443 0.130583 0.084307 -0.158625 -0.618379 -0.363870 -0.279235 0.178466 0.020875 -0.319557 -0.061622 0.105211 0.048539 0.341920 0.069093 0.052783 -0.142934 -0.101798 0.595950 0.672914 0.380550 0.523646 -0.351929 0.292599 0.272696 -0.433638 0.353947 0.088222 -0.024182 -0.357312 0.503749 -0.370814 -0.287337 -0.656827 0.503880 -0.480507 -0.231753 0.157341 -0.054925 -0.306920 -0.285708 -0.460908
62 -0.053428 -0.238132 0.035660 -0.066950 0.025004 -0.192803 -0.020243 -0.083434 0.081540 -0.081507 -0.010417 0.158781 0.069966 -0.127185 -0.024625 -0.244206 -0.365302 -0.212267 0.160843 -0.054309 0.162721 0.014921 0.093951 0.176293 0.082154 0.242302 0.160990 -0.094139 0.107924 -0.167585 -0.263326 0.004004 -0.171317 -0.211730 0.208581 -0.182314 0.106985 0.061496 0.108512 -0.105900 -0.034658 0.088695 0.111518 0.155959 -0.203454 0.213962 -0.098106 0.125731 0.132496 0.011700 -0.400355 0.134482 0.109775 0.297106 -0.060118 -0.108894 0.084414 0.032925 -0.164606 -0.088274 0.088254 -0.079035 -0.050605 0.083416 -0.108606 -0.070242 -0.031015 0.054847 0.143411 -0.035460 -0.088075 -0.007052 0.117780 -0.072995 0.186817 -0.062995 0.199048 -0.063572 -0.031801 -0.010231 -0.110153 -0.160338 -0.121824 -0.406607 -0.176171 -0.155389 0.234412 0.038851 0.093958 0.148566 0.152409 -0.153613 -0.120388 0.071609 -0.080270 -0.035384 -0.033603 -0.349898 0.014373 0.086641 -0.045289 -0.065930 -0.048262 -0.116115 0.074826 0.268651 0.133557 0.077702 -0.129112 0.030887 -0.048367 0.082186 0.118972 0.094666 -0.206863 -0.096952 0.061623 0.030758 0.042148 -0.219408 -0.026211 -0.114932 0.054837 -0.445580 -0.145815 -0.060991 0.085817 0.025963
28 -0.232704 -0.153365 -0.038281 0.288330 0.529022 -0.012267 -0.003234 0.034144 0.026621 0.145388 0.097187 0.442479 0.061117 -0.120104 0.077722 -0.221598 -0.054105 0.076608 0.286703 -0.367914 -0.327914 -0.241831 -0.022207 -0.020088 0.194516 -0.087692 -0.258649 -0.007420 0.140313 0.331434 0.036428 0.448289 0.056132 0.653265 -0.096997 -0.013851 0.412475 -0.014140 0.169579 -0.042129 -0.194867 -0.114495 0.154522 -0.116743 -0.343502 -0.247260 -0.221607 -0.290491 0.110268 -0.061529 -0.100669 -0.167762 0.123324 0.274294 -0.483069 0.163200 0.148310 -0.254057 -0.279851 0.135283 0.167016 -0.286547 -0.513666 0.333026 -0.034111 0.214970 -0.147571 0.259483 -0.286403 -0.077583 0.096015 -0.224690 -0.170001 -0.127823 -0.282901 0.359955 0.648275 -0.022659 0.010377 0.238090 0.000409 -0.246044 -0.148149 0.004277 0.183964 0.176502 -0.020476 0.123086 0.219054 -0.283485 -0.214260 -0.074836 0.094036 -0.163625 0.130613 -0.094345 -0.499615 -0.421885 -0.024955 0.141552 -0.475885 -0.087041 -0.116962 -0.071828 -0.018868 0.012083 0.189215 0.313390 -0.155873 -0.061094 0.169240 0.121123 -0.084505 -0.038447 -0.071537 -0.136631 0.089070 -0.000366 -0.122725 0.111813 0.160473 -0.244122 -0.032244 0.006352 -0.024606 0.067259 -0.000503 -0.055179
45 -0.298269 -0.020526 0.058335 0.105400 0.372255 0.014934 -0.042536 0.137411 -0.053445 0.191074 0.087046 0.289546 0.014405 -0.122554 -0.000715 -0.044385 0.006007 0.195870 0.098620 -0.299474 -0.266408 -0.254974 0.013641 -0.061444 0.172576 -0.045540 -0.160170 -0.019386 0.163913 0.324367 -0.014046 0.356776 0.047338 0.573537 -0.140418 0.022305 0.348817 -0.037652 0.173123 -0.040659 -0.219397 -0.057243 0.137368 -0.117117 -0.269873 -0.288107 -0.070720 -0.319276 0.164706 -0.083603 0.071120 -0.241089 0.045389 0.237964 -0.366499 0.114640 0.154002 -0.303467 -0.227022 0.140995 0.291084 -0.299907 -0.585240 0.345366 -0.047180 0.233375 -0.104961 0.212116 -0.146790 -0.136920 0.120859 -0.147920 -0.185488 -0.142340 -0.064459 0.379369 0.700823 -0.112202 -0.045184 0.166263 -0.123529 -0.217733 -0.208625 -0.030836 0.096309 0.084723 0.139303 0.071394 0.160316 -0.256140 -0.208077 -0.000942 0.089745 -0.026943 0.003217 -0.020609 -0.430854 -0.474996 0.053044 0.145466 -0.513431 -0.000935 -0.201742 0.091586 -0.098974 -0.130685 0.210501 0.350238 -0.116127 0.139487 0.255502 0.166496 -0.126141 -0.035514 0.050273 -0.031243 0.113794 -0.025671 -0.152392 0.219845 0.266736 -0.309851 -0.087877 0.049099 -0.031557 0.088401 0.079158 -0.039776
20 -0.007648 -0.172621 0.073684 0.137735 0.020515 -0.127211 0.137287 0.075908 0.062872 -0.046706 -0.221916 0.102381 0.176333 -0.087741 -0.080435 -0.226007 -0.151733 -0.124132 0.059465 -0.145350 0.100944 0.034949 0.063963 0.176511 0.001197 0.114505 0.067156 0.104165 -0.059058 0.021637 -0.036418 -0.045661 -0.130419 -0.104758 0.210126 -0.168753 0.196318 0.014902 0.013121 -0.184889 -0.001291 -0.006804 0.146727 0.165165 -0.149969 0.131952 0.067122 -0.064929 0.140648 0.018336 -0.296053 -0.025540 0.123972 0.202376 -0.090743 -0.087411 0.174663 0.088796 -0.122865 -0.081348 0.065869 -0.018938 -0.091495 -0.019780 -0.203706 0.003606 0.005359 0.135295 -0.001797 -0.016049 -0.100971 0.085671 0.025173 0.018756 0.211961 -0.141650 0.184840 -0.198405 -0.006074 0.087943 -0.077873 -0.260241 -0.130508 -0.357354 -0.009199 -0.138001 0.208732 0.103073 -0.111071 0.257392 0.234805 -0.282454 -0.018671 -0.080446 -0.178447 -0.069145 -0.185631 -0.363602 0.036600 0.224328 -0.131087 -0.126999 0.041261 -0.116569 0.012421 0.200894 0.320866 0.236265 -0.356222 0.140517 -0.005801 -0.069759 0.102565 0.034394 -0.381225 -0.237340 0.048432 0.208318 -0.118053 -0.036760 -0.052696 0.008045 0.088099 -0.459665 -0.053156 0.227063 0.068960 0.215925
54 -0.064723 -0.117901 0.086687 -0.009715 -0.111934 -0.134931 0.070680 -0.079308 0.128466 -0.025471 -0.106222 0.061952 0.113687 -0.100732 -0.084273 -0.145617 -0.191731 -0.084012 0.124666 -0.221660 0.072358 0.005827 0.126905 0.166706 0.059555 0.101228 0.166698 0.085463 0.059260 -0.012877 -0.146784 0.107667 -0.172358 -0.113129 0.162839 -0.116832 0.226567 0.005441 0.024149 -0.187472 0.017780 0.009678 0.095538 0.190834 -0.107075 0.190634 -0.014810 -0.013964 0.124889 -0.031676 -0.377271 -0.034689 0.107800 0.147541 -0.060401 -0.076834 0.138375 0.093886 -0.127293 -0.043908 0.001554 0.068962 -0.062410 -0.109928 -0.212812 0.008536 -0.023108 0.063470 0.019178 -0.057859 -0.109904 0.034486 0.004967 0.001726 0.146821 -0.008538 0.279109 -0.213993 0.027080 0.079844 -0.141523 -0.224921 -0.181265 -0.279481 -0.098330 -0.198712 0.172214 0.043642 -0.038679 0.198365 0.237937 -0.301255 -0.016601 -0.080573 -0.108687 -0.048842 -0.131616 -0.421031 0.020331 0.219670 -0.127381 -0.087902 0.025165 -0.173142 0.036596 0.255254 0.336915 0.205610 -0.347190 0.120353 -0.044966 -0.048639 0.122520 0.028098 -0.369915 -0.207927 0.115785 0.115445 -0.041375 -0.145762 -0.029887 -0.019378 0.056526 -0.477733 -0.109289 0.055172 0.022756 0.184602
43 -0.000840 -0.098488 0.097759 0.023112 -0.050647 -0.115704 0.030281 0.058783 0.070028 -0.019762 -0.186027 0.066964 0.157950 -0.187359 -0.085673 -0.156409 -0.202258 -0.165483 -0.021170 -0.091432 0.189933 0.071166 0.181012 0.149263 0.042071 0.108561 0.013284 0.119822 0.122438 -0.092148 -0.123474 -0.066352 -0.130089 -0.070335 0.118301 -0.174054 0.163280 0.019901 0.093176 -0.133142 -0.029955 0.034692 0.182471 0.212059 -0.126352 0.129838 0.067360 -0.018037 0.060926 -0.031522 -0.147080 -0.011372 0.075216 0.184952 -0.098718 -0.014217 0.022887 0.139244 -0.082094 -0.102858 0.054874 -0.045394 -0.049439 0.063148 -0.248403 0.051416 0.060695 0.275222 0.045077 0.025172 -0.054164 0.045035 0.136636 -0.061957 0.161315 -0.141750 0.196687 -0.185091 -0.004814 0.016640 -0.037387 -0.273135 -0.057072 -0.335813 -0.113746 -0.165765 0.358622 0.205995 0.065624 0.234657 0.153860 -0.220351 -0.178181 0.002089 -0.110934 -0.128272 -0.089043 -0.435679 -0.009689 0.221049 -0.056208 -0.065238 0.041803 -0.089849 -0.016069 0.122376 0.327666 0.148335 -0.306086 0.111387 -0.067008 0.070251 0.048191 0.120680 -0.342692 -0.094271 -0.083298 0.250644 -0.057102 -0.088259 -0.018875 -0.124951 0.146285 -0.591648 -0.157079 0.127785 0.196398 0.243641
17 -0.069332 0.341678 0.334912 -0.009217 -0.147427 0.170183 -0.190403 0.126133 0.146472 -0.099570 0.122395 -0.115188 0.141155 0.066752 -0.466955 0.199626 0.379452 -0.033335 0.123625 -0.143884 -0.246562 0.195573 -0.013020 -0.060615 -0.239511 0.473884 0.504319 0.428961 0.440288 0.102564 -0.076643 -0.006899 -0.013444 0.134627 0.192823 -0.381055 -0.246472 -0.095916 0.397747 -0.142563 0.093839 -0.352352 0.207218 0.295639 -0.377581 -0.642035 -0.165208 0.354881 0.335509 -0.021268 -0.327272 -0.106307 -0.187877 0.548876 -0.141157 0.470223 0.212324 0.373147 -0.199817 0.549476 -0.437438 0.039223 -0.345031 -0.219740 -0.131607 0.267037 0.350628 0.441154 -0.562631 0.222651 0.094998 -0.112869 0.169387 0.137474 -0.134317 -0.145914 0.212001 -0.178764 0.179592 -0.057201 -0.122031 -0.552723 0.107645 -0.053592 0.245660 -0.224821 0.065958 0.249383 0.273898 0.080481 -0.461881 -0.381355 -0.354280 0.242453 0.063035 -0.167408 -0.075020 -0.042229 -0.052797 0.369299 0.068508 -0.010048 -0.033905 -0.219563 0.744331 0.648212 0.388578 0.377544 -0.628156 0.493333 0.415046 -0.412802 0.509663 -0.073848 0.001784 -0.480255 0.388106 -0.158124 -0.513458 -0.445916 0.406708 -0.202842 -0.089923 0.140605 0.013683 -0.171295 -0.325179 -0.152720
52 -0.088790 0.280250 0.306529 -0.032842 -0.139744 0.099311 -0.111711 0.060672 0.087332 -0.042190 0.110317 -0.040797 0.180007 0.045639 -0.476566 0.155132 0.321503 0.028511 0.161209 -0.160529 -0.272905 0.134445 -0.070386 -0.040464 -0.225720 0.468083 0.508646 0.408662 0.387068 0.091205 -0.089487 0.015647 -0.046051 0.188078 0.142341 -0.317405 -0.170829 -0.111330 0.343744 -0.141276 0.104229 -0.315923 0.225020 0.306189 -0.367493 -0.640169 -0.153817 0.190937 0.371912 -0.129192 -0.298998 -0.176404 -0.192475 0.508415 -0.119363 0.476621 0.216140 0.339786 -0.168771 0.538040 -0.382904 0.100248 -0.439752 -0.235271 -0.116440 0.242631 0.384114 0.407326 -0.555162 0.236335 0.076723 -0.109953 0.196013 0.187791 -0.163615 -0.168796 0.261594 -0.214076 0.191908 0.021055 -0.126237 -0.594859 0.051321 -0.079379 0.253902 -0.241471 0.029226 0.281847 0.247276 0.102631 -0.428954 -0.404773 -0.351853 0.181977 0.093876 -0.200108 -0.075431 -0.000734 -0.080161 0.309696 0.073799 -0.010275 0.073311 -0.212714 0.771943 0.678587 0.396144 0.416072 -0.721754 0.549220 0.447726 -0.438356 0.581451 -0.087747 -0.042743 -0.474297 0.403736 -0.125211 -0.611857 -0.456861 0.389620 -0.216424 -0.130025 0.163771 0.092317 -0.103492 -0.387662 -0.153996
8 -0.030757 -0.175954 0.134673 0.075032 -0.054334 -0.071195 0.106624 0.066132 0.106399 -0.010266 -0.160521 0.115899 0.113986 -0.197337 -0.095243 -0.191131 -0.095588 -0.131114 0.073463 -0.229162 0.126260 0.094781 0.117562 0.228252 0.063708 -0.030669 0.003070 0.145487 0.082772 0.031022 -0.060457 -0.074987 -0.174077 -0.071362 0.133510 -0.131703 0.198789 0.032049 0.066185 -0.188559 0.067278 0.008934 0.174545 0.239068 -0.111033 0.092889 0.080632 -0.060182 0.103603 -0.030092 -0.162208 -0.061808 0.042480 0.161954 -0.062917 -0.029874 0.055308 0.143532 -0.070251 -0.051809 -0.050291 0.035612 0.023859 -0.046956 -0.234209 0.046141 0.036147 0.189186 0.041560 -0.046644 -0.059180 0.043509 0.090793 -0.037943 0.110977 -0.126496 0.231193 -0.186509 0.024362 0.000433 -0.105402 -0.219194 -0.140150 -0.227156 -0.114810 -0.170992 0.301025 0.125709 0.013111 0.193003 0.166298 -0.277397 -0.066527 -0.045817 -0.133090 -0.122842 -0.151821 -0.396700 0.029201 0.242658 -0.053423 -0.047530 0.027180 -0.141219 0.050679 0.171773 0.365648 0.207775 -0.353239 0.125723 -0.045336 -0.028521 0.149829 0.083338 -0.309563 -0.142135 0.037608 0.179652 -0.120917 -0.121769 -0.064484 -0.032136 0.150074 -0.491733 -0.119279 0.117425 0.101759 0.218060
9 -0.070736 -0.203771 0.015720 0.010502 -0.137991 -0.127166 0.226384 0.015314 0.193016 -0.048294 -0.224300 0.196773 0.190544 -0.123390 -0.138845 -0.227251 -0.184231 -0.117030 0.110431 -0.184536 -0.001196 -0.045607 0.153094 0.227256 0.148859 0.075293 0.009098 0.131298 0.143662 0.037482 -0.078770 0.145670 -0.097354 -0.162863 0.233399 -0.089708 0.257770 0.078932 0.058606 -0.231743 0.047324 -0.056061 0.144997 0.189924 -0.175735 0.144579 0.049464 -0.075265 0.145177 -0.024723 -0.370791 -0.028525 0.096779 0.138198 -0.036693 -0.087920 0.163476 0.071985 -0.172323 -0.081826 -0.019882 0.010272 0.007827 -0.065247 -0.173366 -0.048755 0.043807 0.136873 -0.053000 0.056729 -0.093389 0.077725 0.037192 0.074830 0.204783 -0.021979 0.156394 -0.144322 -0.015091 0.043755 0.002653 -0.298497 -0.219716 -0.419186 -0.056176 -0.214632 0.140885 0.062606 -0.118690 0.217131 0.280853 -0.320580 -0.055442 -0.106792 -0.073421 -0.104802 -0.056385 -0.289654 -0.018295 0.268891 -0.021783 -0.260724 0.050787 -0.091943 0.049396 0.046325 0.116748 0.133812 -0.285299 0.085931 -0.066919 -0.027470 0.186893 0.016157 -0.390388 -0.218885 0.005396 0.169640 -0.101572 -0.077886 -0.158062 0.028255 0.131935 -0.418135 -0.124243 0.113410 0.134929 0.208897
14 -0.081226 -0.194745 0.215998 0.017444 -0.121084 -0.102379 0.102010 0.042403 0.185750 -0.096571 -0.226990 0.134416 0.118017 -0.160971 -0.087301 -0.213314 -0.141492 -0.205248 0.055500 -0.209090 0.173717 0.130042 0.097481 0.190801 0.034012 0.080522 0.047348 0.199968 0.145349 -0.069679 -0.069536 0.033379 -0.095186 -0.072176 0.215544 -0.158841 0.246722 0.078943 0.094499 -0.201274 0.026895 0.050286 0.164757 0.184860 -0.158957 0.165270 0.068147 -0.002704 0.056413 0.046649 -0.264973 0.003790 0.095136 0.220147 -0.098763 -0.062910 0.107507 0.163306 -0.164983 -0.062646 -0.040933 -0.029585 0.014964 -0.033331 -0.254174 0.013070 -0.015322 0.150973 -0.019854 -0.076567 -0.061309 0.038720 0.023492 -0.024328 0.199746 -0.068574 0.167844 -0.206905 0.010668 0.003334 -0.042340 -0.176507 -0.045697 -0.179527 -0.069405 -0.151862 0.237394 0.118704 0.001098 0.155519 0.143159 -0.194476 -0.050891 0.001094 -0.149152 -0.053596 -0.218617 -0.314835 0.015967 0.239168 -0.138569 -0.090225 -0.008404 -0.132917 0.009616 0.171987 0.333190 0.207663 -0.318473 0.077257 -0.074650 -0.037801 0.060074 0.043699 -0.278258 -0.192447 -0.019405 0.189560 -0.063719 -0.071440 -0.064908 -0.144743 0.110992 -0.645854 -0.125828 0.051695 0.125428 0.178675
60 -0.021296 -0.213948 0.106745 0.060061 -0.080797 -0.148393 0.123657 0.054482 0.053107 -0.058454 -0.226765 0.105901 0.192192 -0.182488 -0.131190 -0.158634 -0.175349 -0.131059 0.066631 -0.252300 0.112660 0.080906 0.131917 0.249538 -0.028172 0.040162 0.081111 0.203076 0.050227 0.102352 -0.073194 0.006854 -0.162368 -0.088154 0.121657 -0.109223 0.166459 -0.049827 0.003776 -0.172888 0.027680 -0.008415 0.052229 0.079834 -0.069347 0.116137 0.047567 -0.112056 0.084586 -0.023140 -0.111483 -0.031840 0.072001 0.150611 -0.091528 -0.013387 0.161610 0.062735 -0.083495 -0.016203 0.026654 -0.025339 -0.121317 -0.033485 -0.313960 0.007719 0.040086 0.192783 0.036109 -0.210484 -0.156450 0.074675 -0.045587 0.019945 0.195872 -0.075171 0.262863 -0.269205 -0.028640 0.037881 -0.121930 -0.174240 -0.154960 -0.375228 -0.090015 -0.178022 0.249583 0.169289 -0.093021 0.283279 0.268637 -0.286729 -0.031825 -0.023683 -0.243274 0.003015 -0.166920 -0.445077 0.028628 0.293559 -0.084845 -0.037764 0.061618 -0.260186 0.007640 0.225781 0.346767 0.172255 -0.347698 0.092348 0.004139 -0.079117 0.088754 0.006027 -0.380042 -0.208444 0.057283 0.165133 -0.083489 -0.138107 -0.058299 -0.043923 0.162909 -0.712144 -0.071725 0.098583 0.024497 0.178032
41 -0.082195 -0.068224 0.144106 0.054352 -0.064609 -0.106910 0.072526 0.071816 0.100070 -0.070728 -0.260850 -0.041160 0.151176 -0.066782 -0.027557 -0.141554 -0.168481 -0.139303 -0.029254 -0.133052 0.184983 0.046437 0.133450 0.157284 0.011686 0.098254 0.082394 0.122950 -0.077671 0.005281 -0.057220 0.066111 -0.149008 -0.090570 0.168541 -0.191319 0.182784 -0.006145 -0.039924 -0.194946 -0.029844 0.012449 0.067158 0.156312 -0.106870 0.162744 0.061719 0.052443 0.139896 0.007979 -0.355239 -0.041460 0.127380 0.135086 -0.001786 -0.110267 0.150201 0.085908 -0.114561 -0.111908 0.093424 0.039907 -0.106623 -0.068451 -0.174004 0.071333 -0.024288 0.144167 -0.042536 -0.038937 -0.102846 0.018213 0.014134 -0.008232 0.125955 -0.052153 0.310291 -0.247735 0.049718 0.120332 -0.088630 -0.291946 -0.123886 -0.285184 0.011943 -0.133896 0.189477 0.101314 0.022659 0.255604 0.213420 -0.267567 -0.017988 -0.086123 -0.181559 -0.003440 -0.169307 -0.463756 0.020581 0.232964 -0.197411 -0.094998 0.078018 -0.177022 -0.031093 0.274357 0.357901 0.228332 -0.386044 0.115132 -0.025833 -0.028351 0.073322 0.025467 -0.397280 -0.240356 0.076605 0.185941 -0.018420 -0.069751 -0.005534 0.026987 0.097765 -0.510404 -0.111282 0.159224 0.087998 0.257160
51 -0.806501 -0.141329 0.799128 0.403964 0.440878 -0.325832 -0.650821 0.068570 0.526941 0.331270 0.090670 -0.156772 0.341867 -1.008753 -0.205701 0.147351 -0.043824 0.307787 0.354632 -1.108352 -0.205951 -0.018895 0.818608 0.133018 0.083380 0.086301 0.678132 0.034797 0.548592 0.202383 -0.366159 0.216546 -0.288924 0.429641 0.078541 -0.294156 0.186995 -0.419751 -0.005407 0.494412 0.013027 0.002319 0.086438 0.043283 0.049304 -0.054833 -0.044724 -0.254951 0.315910 -0.072846 -0.096278 -0.039523 0.351986 0.254648 -0.769059 0.272219 0.115175 -0.039819 0.133107 0.501370 0.368505 -0.192554 -0.687810 0.416959 -0.006956 0.269109 0.323010 0.062242 0.052789 0.209024 0.350721 -0.297427 0.010720 0.376534 -0.261603 0.018314 0.228181 -0.026831 -0.205637 -0.152061 -0.011898 0.004720 -0.065499 -0.218176 0.173049 0.102867 -0.518431 0.188259 -0.202387 -0.215648 -0.236127 -0.033224 0.039694 -0.356637 0.308566 -0.436714 -0.694259 -0.456271 0.047472 0.160317 0.015344 -0.378221 0.306911 0.024688 -0.106999 -0.474984 0.247125 0.165402 0.081981 -0.571476 -0.069745 -0.076266 -0.075293 0.315079 0.365904 -0.102402 0.367965 -0.168989 0.106948 -0.302717 0.042280 -0.106957 0.400817 -0.316512 -0.158850 0.100630 0.243735 -0.190253
33 -0.713365 -0.290759 0.667153 0.393784 0.493576 -0.365952 -0.493338 0.194956 0.544160 0.258516 0.084169 0.017181 0.295981 -0.998524 -0.037332 0.003004 -0.197101 0.223724 0.398564 -1.072568 -0.116080 -0.078220 0.728680 0.166790 0.159384 0.101058 0.501657 0.015246 0.535465 0.225156 -0.438454 0.366943 -0.241452 0.472786 0.049947 -0.298134 0.153927 -0.343809 0.051669 0.426489 -0.078515 0.000600 0.145970 -0.036863 0.039793 -0.172899 -0.119812 -0.351638 0.187974 -0.056720 0.049053 0.002618 0.299064 0.249942 -0.775121 0.307112 0.045976 0.070682 0.180238 0.495002 0.493935 -0.341500 -0.650942 0.467717 0.066915 0.114852 0.405315 0.031187 0.146194 0.235809 0.400160 -0.298363 -0.051024 0.470767 -0.201839 0.051255 0.106222 -0.054879 -0.205996 -0.172488 -0.033456 0.171669 -0.039823 -0.138897 0.088842 0.053654 -0.434674 0.210750 -0.205733 -0.050523 -0.025171 -0.008039 0.003505 -0.405961 0.324525 -0.320734 -0.754513 -0.633834 0.259091 0.116137 0.022085 -0.448920 0.270564 0.043967 0.009009 -0.480571 0.435902 0.185961 0.127212 -0.651124 -0.092930 -0.138095 -0.063539 0.348936 0.376531 -0.128604 0.426096 -0.294156 0.054826 -0.388357 0.049994 -0.024115 0.478708 -0.197307 -0.119323 -0.015173 0.220208 -0.296491
59 -0.198714 -0.334597 0.109372 0.110673 0.278790 -0.036765 -0.056824 0.118959 0.323750 -0.132390 -0.218081 0.262801 0.103340 -0.511183 -0.118933 -0.268020 -0.012816 -0.209271 0.053404 -0.192931 0.267329 0.213167 0.204765 0.258389 -0.026164 -0.309118 -0.152617 -0.019596 0.165986 -0.033656 0.027609 -0.206109 -0.186687 -0.302040 -0.149563 -0.048584 0.149417 0.066480 -0.307585 -0.141552 0.178498 0.388009 0.247596 -0.061145 -0.174266 0.360180 0.329384 -0.251742 0.094403 0.042181 -0.004691 0.192243 -0.060870 0.063477 -0.315618 -0.162814 0.358680 0.307502 0.036053 0.283417 -0.143544 -0.079740 0.145566 0.219863 -0.075164 0.007337 -0.001145 0.219223 0.007468 -0.219842 0.235542 0.003374 -0.133602 0.144876 0.206640 -0.090780 0.051429 -0.050425 0.008575 -0.260821 -0.199092 0.051387 -0.091237 -0.156386 -0.046300 -0.200478 0.211731 0.158837 -0.178895 0.154028 0.014703 0.015922 0.069465 0.037854 -0.256188 -0.097434 -0.163327 -0.283340 0.101541 0.262873 0.145823 0.241458 -0.089551 -0.228126 -0.015392 0.164344 0.319052 0.137315 -0.085562 0.015260 0.120036 0.063788 0.177510 -0.022254 -0.043528 0.192284 0.252325 -0.045366 -0.124081 -0.278970 -0.009254 -0.262536 0.132361 -0.403718 -0.031536 -0.246374 -0.106022 -0.015225
30 -0.458421 0.028554 0.119501 -0.291018 0.298743 -0.144451 -0.186801 0.228540 0.654144 0.211865 -0.018011 0.268926 0.539161 -0.186951 -0.632291 -0.325394 -0.011104 -0.284600 0.626304 0.054387 -0.200636 -0.082238 0.546075 0.573140 0.156026 0.216043 0.327311 0.390670 0.438443 0.490369 -0.066647 0.149407 -0.079581 -0.411992 -0.001375 -0.413265 -0.304602 0.002373 0.099841 -0.084183 -0.118690 0.215638 0.024458 -0.158771 -0.036569 -0.062199 -0.035448 0.584053 -0.192099 0.533252 -0.005408 0.361938 0.056993 -0.008517 -0.135165 -0.001965 0.104921 -0.194199 -0.047944 0.228606 -0.197878 -0.337535 -0.059295 0.225895 0.048559 -0.053184 -0.304525 0.124866 -0.085581 0.225936 0.243537 0.017756 -0.120413 -0.242076 0.320247 -0.333630 -0.356537 -0.018391 -0.098051 0.104226 -0.301080 0.143201 0.043685 0.063962 0.116846 0.084537 0.220910 -0.166679 -0.287567 0.134228 -0.051404 -0.040300 0.065790 0.218396 -0.121295 0.117719 0.069118 0.100165 0.276152 -0.232768 -0.088380 0.348970 -0.314567 0.226920 -0.082150 0.073390 0.269199 -0.090304 0.171425 0.352324 0.090139 -0.170703 -0.525536 -0.019744 0.091467 0.121259 -0.061061 -0.089322 0.153428 0.289387 0.077721 0.188129 -0.182687 0.203188 0.179810 0.207249 -0.142963 0.029975
4 -0.202572 -0.286496 0.154320 0.035550 0.265438 -0.062937 -0.051675 0.275578 0.290746 -0.084230 -0.192626 0.167625 0.059515 -0.485566 0.029041 -0.286924 -0.127562 -0.249800 0.061183 -0.247952 0.290044 0.225029 0.269047 0.409961 0.078477 -0.357855 -0.114850 -0.046761 0.115598 -0.019633 -0.029380 -0.307433 -0.253745 -0.333898 -0.107423 -0.233352 0.158401 -0.025719 -0.185767 -0.081143 0.111516 0.259630 0.273827 0.061354 -0.134097 0.334155 0.261163 -0.106433 0.074504 0.067253 0.013028 0.157703 0.010432 0.222820 -0.313112 -0.145425 0.186291 0.177329 0.037263 0.179925 -0.063039 -0.109090 0.107711 0.197606 -0.138063 0.075862 0.035685 0.249785 0.106349 -0.301299 0.181597 0.082403 -0.149479 0.047434 0.242007 -0.129928 0.062365 -0.077263 -0.038488 -0.212453 -0.230733 0.130929 -0.016791 -0.030570 -0.068486 -0.157542 0.295241 0.134912 -0.117020 0.156907 0.082871 0.008783 0.106102 0.038346 -0.280734 0.017520 -0.142345 -0.301557 0.112960 0.173395 0.041969 0.251415 -0.133284 -0.185993 -0.041513 0.195293 0.348284 0.178738 -0.046205 -0.060811 0.097358 0.068601 0.072782 0.055852 -0.074800 0.133238 0.255780 -0.060517 -0.043848 -0.259602 0.022443 -0.186154 0.162859 -0.466501 -0.097724 -0.177337 -0.018376 0.065525
39 -0.292106 -0.333433 0.229674 0.165157 0.364163 -0.015649 -0.136641 0.218358 0.248101 -0.165297 -0.078382 0.183136 -0.000773 -0.489184 -0.026582 -0.202304 -0.004836 -0.157490 0.080204 -0.243383 0.201880 0.234030 0.159882 0.264519 -0.035207 -0.323377 -0.069326 -0.075233 0.164296 -0.073488 -0.016171 -0.407684 -0.268207 -0.379386 -0.065754 -0.161239 0.121810 -0.006651 -0.183463 -0.033707 0.202078 0.334159 0.365712 -0.018881 -0.197295 0.298564 0.262222 -0.147551 0.074357 0.092757 0.084919 0.221411 -0.018444 0.215040 -0.446200 -0.116062 0.292464 0.276375 0.006101 0.323962 -0.094856 -0.197216 0.126514 0.296601 -0.135853 0.067929 0.021154 0.222155 0.130761 -0.316215 0.246308 0.066805 -0.190274 0.111405 0.214459 -0.073556 0.061034 0.006283 -0.044817 -0.329118 -0.209429 0.167103 -0.086918 -0.041197 -0.055346 -0.151950 0.239257 0.128706 -0.101271 0.098087 -0.088541 0.102550 0.090954 0.105933 -0.266670 -0.054946 -0.168219 -0.205136 0.084063 0.200737 0.113640 0.304986 -0.160712 -0.197600 -0.076261 0.057409 0.292671 0.182563 0.018086 -0.079547 0.115178 0.109634 0.118650 -0.008283 0.056238 0.232942 0.235375 -0.073977 -0.127620 -0.227028 0.063930 -0.280756 0.158290 -0.380161 -0.107740 -0.234700 -0.048025 0.018397
36 -0.487998 0.095406 0.162258 -0.408686 0.131105 -0.170333 -0.110124 0.194117 0.726401 0.365786 -0.092074 0.234611 0.571524 -0.263658 -0.511036 -0.315766 -0.120869 -0.294914 0.546037 -0.007128 -0.172380 -0.190802 0.707672 0.685325 0.392740 0.050212 0.155707 0.427505 0.512012 0.438774 -0.084905 0.324125 -0.010465 -0.315124 -0.075297 -0.297400 -0.308941 -0.021507 0.112442 -0.130372 -0.140781 0.150553 -0.044408 -0.137411 0.043470 -0.127998 -0.038154 0.648986 -0.236257 0.490607 0.062330 0.276993 0.014127 -0.177235 -0.046004 0.053186 0.051649 -0.216031 -0.074452 0.136226 -0.227324 -0.250890 0.025523 0.131488 -0.079150 0.057104 -0.258049 0.242969 -0.203437 0.292176 0.319448 -0.033327 -0.093399 -0.291139 0.226468 -0.237652 -0.229139 -0.077681 -0.007213 0.173886 -0.296645 0.091125 0.049165 0.217285 0.122761 0.112183 0.186527 -0.145050 -0.200757 0.015200 -0.166763 -0.012686 -0.056391 0.175707 -0.056869 0.060662 0.018850 0.016306 0.234263 -0.166408 -0.139982 0.324426 -0.289705 0.219684 -0.012308 -0.041052 0.457734 0.059901 0.153650 0.408811 0.044752 -0.081785 -0.576242 0.061535 -0.007838 0.143355 -0.027457 -0.121086 0.111647 0.194573 0.079746 0.188169 -0.135656 0.071884 0.084582 0.190718 -0.074641 0.108539
2 -0.206468 -0.308750 0.184937 0.082615 0.267253 -0.059146 -0.131196 0.125611 0.278201 -0.092704 -0.046773 0.189963 -0.022980 -0.606695 0.053762 -0.241689 -0.103748 -0.200926 0.049205 -0.318950 0.304344 0.208115 0.206340 0.318562 0.060411 -0.395956 -0.095619 -0.115035 0.220422 -0.109043 -0.093635 -0.316515 -0.283356 -0.318213 -0.161863 -0.124226 0.071236 -0.035763 -0.229213 -0.082406 0.226597 0.434471 0.312305 -0.025911 -0.232000 0.318146 0.307170 -0.165052 0.172268 0.018267 0.002329 0.232666 -0.074916 0.199491 -0.391239 -0.139948 0.327660 0.323125 0.028951 0.365518 -0.124742 -0.136710 0.127882 0.233331 -0.128100 0.093658 0.045108 0.281857 0.064188 -0.315211 0.271693 -0.063046 -0.133653 0.092886 0.121852 -0.024197 0.235778 -0.033662 0.015570 -0.355274 -0.302550 0.155329 -0.088183 -0.089246 -0.145147 -0.172769 0.217186 0.154805 -0.041046 0.098310 -0.059572 0.184823 0.019725 0.102802 -0.309446 0.006316 -0.186875 -0.320715 0.033928 0.235187 0.148442 0.342008 -0.073231 -0.353576 -0.017062 0.081400 0.321820 0.154971 0.036880 -0.101892 0.106248 0.188687 0.150286 0.016794 0.035254 0.285500 0.269284 -0.112456 -0.091241 -0.345616 -0.027918 -0.258935 0.202387 -0.529060 -0.142802 -0.396956 -0.048287 0.028970
42 -0.769917 -0.183028 0.687282 0.464104 0.620880 -0.502215 -0.601332 0.138365 0.576573 0.166280 0.161207 -0.109089 0.288291 -1.098697 -0.155075 0.018787 -0.198856 0.218133 0.316486 -1.128198 0.019568 -0.038387 0.986631 0.049346 0.008672 0.149967 0.484831 0.127931 0.679809 0.446945 -0.384661 0.448122 -0.275388 0.534716 -0.043178 -0.345285 0.128841 -0.317911 -0.195600 0.429942 -0.020245 0.075315 0.041776 -0.027886 -0.047393 0.011912 0.070090 -0.365566 0.309608 -0.029426 -0.249181 -0.055402 0.304050 0.199436 -0.973035 0.181907 0.382290 0.161240 0.199008 0.634994 0.451158 -0.125705 -0.893509 0.611533 0.215650 0.266320 0.463945 0.165732 0.004958 0.428347 0.610216 -0.356888 0.004985 0.493058 -0.185354 -0.016143 0.001731 -0.042416 -0.063608 -0.152793 0.003668 0.132111 0.063138 -0.122235 0.335365 0.182520 -0.449062 0.211561 -0.480727 -0.065959 -0.143621 0.062118 -0.075241 -0.495120 0.137083 -0.400371 -0.833222 -0.539883 0.297625 0.201634 0.109639 -0.369026 0.234205 0.047655 0.092186 -0.497407 0.641738 0.287770 0.099763 -0.641997 -0.044953 -0.197602 -0.082252 0.515649 0.369747 -0.117154 0.523599 -0.365497 0.116190 -0.652774 0.111794 -0.113944 0.370984 -0.189491 -0.089497 -0.078432 0.169921 -0.502740
34 -0.637191 -0.169082 0.633369 0.458806 0.489188 -0.480748 -0.506776 0.141198 0.691850 0.225356 0.001326 -0.149378 0.299936 -1.054191 -0.089033 0.001362 -0.168947 0.189429 0.237666 -1.135984 0.036082 -0.001928 1.010684 0.069973 0.072983 0.077944 0.489221 0.128233 0.632100 0.450222 -0.309690 0.521526 -0.197928 0.500914 -0.000577 -0.365815 0.156136 -0.327019 -0.242064 0.470811 -0.025782 0.063685 -0.068975 -0.029998 0.028935 -0.037468 0.104798 -0.230289 0.321336 -0.009789 -0.273107 -0.018127 0.397740 0.174200 -0.803946 0.182891 0.282946 0.061915 0.242249 0.542639 0.407229 -0.097698 -0.827834 0.516691 0.154662 0.285772 0.454800 0.165062 -0.111888 0.408242 0.523352 -0.317523 -0.058253 0.509116 -0.115731 -0.050483 -0.143536 -0.136874 -0.117565 -0.129072 0.023519 0.115231 0.188548 -0.078408 0.348938 0.133062 -0.502862 0.266485 -0.425335 0.004634 -0.062122 -0.043567 -0.026509 -0.483009 0.218261 -0.408338 -0.681931 -0.536281 0.267535 0.232748 0.153840 -0.370824 0.218878 0.052151 0.108421 -0.326282 0.657398 0.195990 0.034289 -0.610719 -0.042346 -0.201410 -0.095213 0.488137 0.300939 -0.209749 0.605093 -0.356199 0.178918 -0.673494 0.141221 -0.043640 0.445410 -0.314021 -0.116180 -0.130171 0.126245 -0.451852
35 -0.511101 0.048826 0.189081 -0.383146 0.214411 -0.159201 -0.174663 0.217069 0.615840 0.227639 -0.064432 0.247118 0.521162 -0.274143 -0.563440 -0.290981 -0.106741 -0.296357 0.512589 0.037018 -0.072991 -0.093768 0.627020 0.589169 0.207163 0.116007 0.173293 0.393115 0.480287 0.453910 -0.082525 0.209134 -0.057483 -0.313097 -0.091993 -0.351025 -0.289119 -0.005489 0.073096 -0.116078 -0.138750 0.168943 -0.030649 -0.146784 -0.005247 -0.045646 -0.038444 0.566069 -0.240695 0.476040 0.017933 0.286765 -0.008284 -0.084978 -0.109378 0.005723 0.115556 -0.150038 -0.060534 0.181226 -0.180226 -0.244777 -0.051198 0.194625 0.021161 -0.003688 -0.289970 0.161515 -0.078281 0.206314 0.243824 -0.025031 -0.081789 -0.282542 0.238975 -0.220700 -0.209957 -0.030252 -0.022361 0.100813 -0.271088 0.104564 0.041450 0.115734 0.106764 0.103555 0.242834 -0.148128 -0.212097 0.068002 -0.119142 0.015549 -0.013934 0.211563 -0.155171 0.103960 0.018104 0.039218 0.245074 -0.154997 -0.114222 0.329191 -0.317921 0.173830 -0.043657 0.039167 0.344478 0.008326 0.160788 0.351869 0.065817 -0.135119 -0.510150 0.025841 0.079222 0.142463 -0.044091 -0.102187 0.159018 0.183642 0.095557 0.099905 -0.161621 0.115745 0.101973 0.112368 -0.084001 0.016094
38 -0.268680 -0.175907 0.210082 0.030846 0.225279 -0.019070 -0.161577 0.174248 0.304511 -0.107269 -0.060808 0.068944 -0.002878 -0.526002 0.002054 -0.123199 -0.012664 -0.119695 0.025469 -0.254785 0.226872 0.209316 0.230320 0.282250 0.023096 -0.380900 0.004697 -0.101279 0.164166 -0.156602 -0.075844 -0.350635 -0.330624 -0.469826 -0.171295 -0.183296 0.086487 -0.099989 -0.279193 -0.031164 0.213947 0.418081 0.374855 -0.002453 -0.151377 0.385230 0.347082 -0.191073 0.149683 0.022457 0.034215 0.219516 -0.032041 0.155285 -0.472089 -0.143459 0.355118 0.297476 0.058928 0.424741 -0.074145 -0.135589 0.043182 0.269903 -0.094343 0.126627 0.084561 0.275694 0.073672 -0.261242 0.328775 0.015487 -0.175785 0.180387 0.170750 -0.054764 0.178246 -0.013887 -0.037646 -0.285928 -0.239556 0.141501 -0.144660 -0.082501 -0.072977 -0.135448 0.155063 0.120361 -0.151920 0.148527 0.018332 0.187209 0.089579 0.026792 -0.299595 0.013816 -0.162785 -0.355466 0.042440 0.169899 0.090360 0.320834 -0.055710 -0.271742 -0.100660 0.012815 0.299918 0.159919 0.036153 -0.104675 0.112401 0.202424 0.166888 -0.006960 -0.008196 0.302858 0.289706 -0.075289 -0.140035 -0.299555 -0.014630 -0.194010 0.194282 -0.505621 -0.113641 -0.245408 -0.099490 0.110526
27 -0.326459 -0.093977 0.119685 -0.209888 0.043148 -0.135984 0.016458 0.171067 0.395347 0.219698 -0.263931 0.190043 0.362931 -0.194991 -0.158367 -0.187971 -0.189263 -0.221128 0.262440 -0.024409 -0.022277 -0.105742 0.394451 0.497772 0.287299 -0.004564 0.008003 0.183631 0.206025 0.244881 0.017691 0.324963 -0.011413 -0.177412 -0.027957 -0.316499 -0.059732 -0.101791 0.095367 -0.033148 -0.173523 0.106547 -0.094891 -0.172194 -0.003309 0.006932 -0.040838 0.336245 -0.103606 0.321034 0.011750 0.176978 0.123011 0.001776 -0.103777 0.004608 0.016000 -0.297600 -0.085773 0.104248 -0.051718 -0.347551 -0.217008 0.238918 0.156572 -0.064753 -0.156799 0.200201 -0.131544 0.356645 0.228333 -0.159631 0.077361 -0.206136 0.159388 -0.262902 -0.160267 0.012698 -0.093632 0.056435 -0.032271 -0.094688 0.007567 -0.263731 0.133282 0.182439 0.057328 -0.117125 -0.231439 0.177358 -0.039837 0.200131 -0.073450 0.256704 -0.174146 0.282231 0.055109 0.118203 -0.025358 -0.174573 -0.058638 0.226846 -0.201557 0.042396 0.208665 0.037636 0.315686 0.117171 -0.047997 0.453711 0.244951 -0.018224 -0.242297 -0.042086 -0.089278 0.073310 0.089735 -0.069553 -0.267515 0.167442 0.083420 0.146944 -0.171214 0.213802 0.309076 0.172204 -0.282315 -0.158861
24 -0.466162 0.052074 0.156685 -0.303862 0.260115 -0.135635 -0.157793 0.185931 0.713852 0.356019 -0.061575 0.292002 0.531091 -0.243323 -0.489627 -0.332809 -0.076812 -0.249957 0.543065 -0.003340 -0.225821 -0.165172 0.598361 0.561503 0.340899 0.121570 0.193682 0.331520 0.489304 0.426946 -0.108900 0.333732 -0.016998 -0.340453 -0.055277 -0.396201 -0.291831 -0.068801 0.125161 -0.018687 -0.161989 0.196156 -0.035133 -0.161281 0.058562 -0.163878 -0.091159 0.665465 -0.213712 0.519181 0.096996 0.343301 0.094660 -0.079132 -0.136523 0.127803 -0.033031 -0.270523 -0.035273 0.171937 -0.215827 -0.389147 -0.020034 0.221748 0.037076 0.020799 -0.201513 0.202980 -0.183331 0.375049 0.347073 -0.077398 -0.086811 -0.213003 0.239176 -0.289479 -0.355412 -0.063597 -0.102716 0.110947 -0.255828 0.125588 0.107983 0.148227 0.089264 0.067134 0.114108 -0.092780 -0.185096 0.066384 -0.146267 -0.016115 -0.013866 0.184356 0.023037 0.019659 0.070929 -0.009869 0.263726 -0.198841 -0.041888 0.317880 -0.301897 0.262923 -0.001329 0.048466 0.392954 -0.073697 0.172630 0.301874 0.074986 -0.103918 -0.532473 0.060405 0.115646 0.126195 0.069042 -0.181517 0.153564 0.157123 0.134512 0.204455 -0.083164 0.143401 0.117266 0.138579 -0.123337 0.012719
68 -0.434137 0.029797 0.243818 -0.331295 0.041455 -0.086339 -0.081988 0.176263 0.379785 0.109064 -0.230334 0.159216 0.421827 -0.198751 -0.390949 -0.144711 -0.160069 -0.237559 0.247226 0.094608 -0.015931 -0.058757 0.436428 0.390772 0.147169 0.183311 0.030511 0.318061 0.402851 0.252092 -0.067018 0.328435 -0.043733 -0.183281 -0.033529 -0.378572 -0.101532 -0.090703 0.185420 -0.074885 -0.190601 -0.000618 -0.104363 -0.054227 0.040137 0.043735 -0.125781 0.420634 -0.221094 0.351756 -0.008160 0.107256 0.058690 -0.028031 -0.162486 0.113339 -0.039771 -0.217633 -0.138791 0.058076 -0.139683 -0.301894 -0.148932 0.210115 0.197180 -0.043079 -0.122714 0.204127 -0.123127 0.410013 0.185976 -0.153805 0.149994 -0.275892 0.114087 -0.190232 -0.090831 0.040805 -0.020142 0.035624 0.049684 -0.184032 0.000241 -0.238450 0.126980 0.161328 0.181091 -0.115304 -0.163766 0.143199 -0.073938 0.162746 -0.141633 0.249224 -0.225858 0.204783 0.036251 0.073064 0.008519 -0.088699 -0.094558 0.214332 -0.304257 0.112373 0.167213 0.023637 0.254846 0.101934 -0.076906 0.429385 0.176731 0.013175 -0.193158 -0.007126 -0.089137 0.062325 0.005263 -0.007315 -0.201881 0.149773 0.117130 0.069244 -0.216797 0.181539 0.228281 0.157789 -0.207407 -0.111414
3 -0.285982 -0.295753 0.252252 0.073044 0.321928 -0.028430 -0.217683 0.206893 0.201540 -0.185033 -0.019971 0.097393 -0.009425 -0.607240 -0.063550 -0.155665 -0.044398 -0.208626 0.059158 -0.296963 0.266614 0.290163 0.222880 0.263544 -0.068963 -0.289572 -0.002270 -0.030797 0.280621 -0.115300 -0.123598 -0.402447 -0.308162 -0.350152 -0.147346 -0.169635 0.011953 -0.017388 -0.214112 -0.040671 0.211780 0.369172 0.335095 0.001167 -0.217827 0.364077 0.310141 -0.184089 0.138968 0.059443 0.012087 0.240917 -0.089607 0.260760 -0.475312 -0.164941 0.344607 0.352412 0.057981 0.389743 -0.107425 -0.124400 0.110831 0.301955 -0.039507 0.058559 0.131329 0.297102 0.148985 -0.290393 0.323282 0.003114 -0.100210 0.157056 0.175585 -0.097144 0.113714 0.028549 0.002338 -0.380304 -0.215845 0.167385 -0.079744 -0.165526 -0.070494 -0.148743 0.232402 0.137746 -0.168351 0.122049 -0.048405 0.188322 -0.001819 0.054900 -0.363974 -0.001590 -0.213752 -0.289275 0.067940 0.178346 0.124122 0.256437 -0.102060 -0.229468 -0.061962 -0.032549 0.201275 0.141821 0.113661 -0.170787 0.094650 0.151981 0.117131 0.070151 0.077711 0.302523 0.201821 -0.090717 -0.065847 -0.281180 -0.033251 -0.285508 0.162126 -0.468867 -0.158326 -0.291596 0.042338 -0.023867
48 -0.338289 -0.351709 0.191007 0.145952 0.308616 -0.046871 -0.055239 0.314519 0.468344 -0.203421 -0.247438 0.162547 -0.040501 -0.081067 0.269876 -0.280779 0.003615 -0.281470 0.003014 -0.121956 0.248008 0.224346 -0.094762 0.144766 0.077809 -0.201636 -0.147457 -0.125935 -0.076943 -0.171721 0.088532 -0.198551 0.030479 -0.151757 0.159742 -0.194721 0.200494 0.107671 -0.056765 0.081802 -0.005919 0.158737 0.227710 -0.075419 -0.299159 0.105577 0.046299 0.227375 0.032506 0.117627 -0.147920 0.240608 0.275794 0.307666 -0.212035 -0.113701 0.029563 0.055248 -0.162055 0.000846 0.114017 -0.341410 0.069570 0.179129 -0.369878 0.180301 -0.007673 0.224457 -0.056227 -0.269144 0.060595 0.024376 -0.187491 0.052134 0.303690 -0.034966 0.011441 -0.253624 -0.043006 -0.252001 -0.183904 -0.100959 0.075611 -0.110347 -0.001404 -0.325319 0.205414 0.210336 0.281481 0.125349 -0.090864 -0.067240 0.055253 0.158416 0.016277 -0.098041 -0.062032 -0.230069 0.070348 0.273391 0.006523 0.051892 -0.143570 -0.158477 -0.004665 0.332928 0.308196 0.118256 -0.170556 -0.131860 0.003598 -0.036580 0.024586 -0.054622 -0.036780 -0.081675 0.229436 -0.012807 0.092492 -0.167330 0.234418 -0.176427 0.213189 -0.281890 -0.179355 -0.324289 0.035893 0.059774
32 -0.321243 -0.417456 0.071893 0.186942 0.374853 -0.000646 -0.011320 0.255883 0.392017 -0.018705 -0.228605 0.323329 0.080794 -0.124645 0.095130 -0.302931 0.071641 -0.231385 0.229032 -0.207986 0.019331 0.173228 -0.097603 0.188244 0.021435 -0.204952 0.016059 -0.109789 -0.180528 -0.174555 0.113378 -0.237585 -0.005233 -0.222816 0.081106 -0.135806 0.226098 0.115404 -0.091005 0.033848 0.010478 0.268240 0.279492 -0.134942 -0.345021 0.077545 0.075244 -0.041179 0.100830 0.096649 -0.043430 0.219599 0.232232 0.293913 -0.298029 -0.152550 0.100829 0.033453 -0.017168 0.045548 0.037809 -0.241728 0.115641 0.185481 -0.237882 0.042497 0.003629 0.196057 -0.048533 -0.308548 0.086228 0.084517 -0.153570 0.136736 0.224401 -0.178267 -0.144596 -0.120830 -0.125193 -0.169556 -0.165260 0.030032 0.007091 -0.188520 -0.050084 -0.221298 0.140135 0.173274 0.064251 0.162484 0.155517 -0.149166 0.226220 -0.052104 0.011578 -0.151357 -0.047258 -0.396960 0.091738 0.144761 0.085232 0.053653 -0.123286 -0.150925 0.036419 0.565288 0.328670 0.049485 -0.220069 -0.118614 0.124952 0.024947 0.220748 -0.031624 -0.141161 0.006065 0.305891 0.054396 0.060358 -0.232506 0.190517 -0.179385 0.229462 -0.402943 -0.142482 -0.271420 -0.115864 0.063548
37 -0.709960 -0.250601 1.045962 0.404044 0.116812 0.448683 -0.466123 0.429708 0.272667 0.150631 -0.312637 0.058749 0.262959 -0.997767 -0.126039 0.383694 0.306578 0.107029 0.529607 -0.943079 -0.487976 0.361295 0.123283 0.670995 0.106055 -0.232101 0.796448 0.003121 0.215977 -0.509439 -0.279218 -0.445903 -0.358994 -0.216418 0.171407 -0.467332 0.122380 -0.621308 0.667527 0.104302 0.133889 -0.045338 0.839589 0.110356 -0.085936 -0.614223 -0.230517 -0.287376 0.311371 -0.156950 0.785802 0.071361 -0.087508 0.956292 -0.615032 0.805428 -0.320061 0.232360 -0.029253 0.836218 -0.359249 -0.558155 -0.003643 -0.031865 -0.183268 0.088057 0.456707 0.378167 -0.013302 -0.379235 0.133798 -0.165489 -0.175274 0.640824 -0.250965 -0.062503 0.582124 0.076953 -0.502237 -0.295278 -0.366794 -0.159880 -0.365714 -0.439045 -0.151284 -0.347952 -0.190775 0.437959 0.436357 0.122536 -0.129338 -0.297901 0.121112 0.003799 0.390228 -0.100525 -0.474923 -0.793094 -0.193693 0.169859 0.077599 -0.330057 0.323785 -0.594121 0.016924 -0.085120 -0.416024 -0.155105 -0.021448 -0.440564 0.297936 0.074899 0.496206 -0.380698 0.378858 -0.049366 0.296749 -0.167631 -0.350088 0.151762 -0.183422 -0.026277 0.628148 0.013078 -0.067941 -0.072873 0.023133 0.227940
1 -0.486162 -0.273228 0.921494 0.440766 0.112346 0.371817 -0.414298 0.474833 0.388109 0.117203 -0.347361 -0.096644 0.099968 -0.944442 0.027461 0.343193 0.503848 0.065410 0.424580 -1.043979 -0.350955 0.458645 0.046365 0.563320 0.131682 -0.305193 0.796388 0.097675 0.209410 -0.535760 -0.320885 -0.392944 -0.266631 -0.019859 0.136005 -0.520245 0.036629 -0.626727 0.724672 0.046104 0.057973 -0.132311 0.881277 0.202348 -0.136303 -0.752978 -0.221605 -0.230532 0.442065 -0.088173 0.622565 0.177632 -0.054546 1.097520 -0.632738 0.811375 -0.440076 0.332848 -0.022633 0.875244 -0.314295 -0.698037 0.004450 -0.048731 -0.179417 0.095896 0.414339 0.423753 -0.138735 -0.308848 0.100189 -0.322372 -0.119294 0.609603 -0.348750 -0.054975 0.559579 -0.036530 -0.481956 -0.364771 -0.345390 -0.172553 -0.233085 -0.358587 -0.197673 -0.377144 -0.294259 0.439057 0.491875 0.126580 -0.073676 -0.231697 0.174511 -0.062180 0.460295 -0.065478 -0.510065 -0.858894 -0.086087 0.147601 -0.105129 -0.322643 0.347040 -0.492844 0.072958 -0.077746 -0.320523 -0.162674 -0.028291 -0.452472 0.233004 0.018177 0.366542 -0.290374 0.374813 -0.151551 0.340485 -0.100072 -0.321952 0.220640 -0.139025 0.101534 0.560529 -0.003730 -0.160626 -0.098728 0.049774 0.334814
67 -0.248517 0.024233 0.283580 -0.163504 -0.091374 -0.095310 -0.138173 -0.147446 0.003803 0.036437 0.152528 -0.189160 0.057551 -0.034730 -0.028572 -0.046934 -0.196191 -0.045746 0.120356 -0.065288 -0.054695 -0.074246 0.037978 0.045458 0.104312 0.249395 0.383224 -0.103135 0.038542 -0.502010 -0.386138 -0.255737 -0.280759 -0.479713 0.290720 -0.086361 -0.038319 -0.027190 0.168421 0.074633 0.037109 0.064917 0.248346 0.246046 0.015218 0.233318 -0.094333 0.080607 0.066666 -0.020630 -0.184673 0.126515 0.133986 0.016444 -0.124291 -0.123635 0.046605 0.081607 -0.122003 -0.091042 0.295168 -0.118123 0.037279 0.100030 -0.371885 0.005560 0.140347 0.014494 0.318894 0.116651 0.154886 0.154763 0.243797 0.019242 0.296052 -0.221288 0.297051 -0.099813 -0.016542 0.006336 -0.146679 -0.283049 -0.419806 -0.577177 -0.272897 -0.229172 0.165293 -0.056354 -0.008570 0.083072 0.174228 -0.103394 -0.175175 -0.088317 -0.012287 -0.294177 -0.133007 -0.466173 0.032283 0.044543 -0.099075 -0.106455 0.040382 0.063812 -0.002968 -0.037188 0.385366 0.367448 -0.125238 0.061834 -0.192683 0.114112 0.066562 0.256524 -0.319950 0.027092 0.059309 0.088071 -0.141302 -0.185070 -0.000474 -0.016495 0.000975 -0.304743 -0.162315 0.254571 0.129837 0.220464
12 -0.064596 -0.039236 0.098070 -0.185032 -0.226819 -0.065503 -0.171890 -0.116043 0.163986 0.025267 0.116703 -0.122355 0.040397 -0.146817 -0.053814 0.037508 -0.148323 -0.123507 0.144677 -0.249177 0.112227 0.137031 0.099910 0.127204 0.039281 0.065469 0.345268 -0.010419 0.081542 -0.326198 -0.235579 -0.137605 -0.214980 -0.236082 0.113339 -0.083137 -0.034518 0.045822 0.093211 0.016872 0.006646 0.137511 0.189001 0.151734 -0.113686 0.351459 -0.032078 0.048742 0.130963 -0.068884 -0.353157 0.151675 0.170726 0.083013 -0.141188 -0.208395 -0.004309 -0.044275 -0.036624 -0.058562 0.226380 -0.108435 -0.050127 0.104434 -0.338455 0.045076 0.091855 0.165289 0.280323 0.225624 0.179350 0.015494 0.360776 -0.002857 0.233085 -0.318632 0.322051 -0.112451 -0.050786 -0.036821 -0.172437 -0.461101 -0.374033 -0.881074 -0.229597 -0.225546 0.255315 -0.053985 -0.054902 0.111531 0.129086 -0.140067 -0.144151 -0.061373 0.007349 -0.189157 -0.103659 -0.647263 -0.015579 0.025577 -0.185922 -0.186964 0.073308 0.046350 -0.072399 -0.077590 0.208355 0.102114 0.002940 -0.058879 -0.236300 0.104729 0.018067 0.186522 -0.217452 0.088808 -0.010830 0.162142 -0.042655 -0.102404 -0.137635 0.056141 0.129270 -0.453345 -0.202673 0.220698 0.123593 0.183635
