68 128
46 -0.121831 -0.258754 0.081684 0.074578 0.061320 -0.088103 0.228489 0.177436 0.226302 0.030329 -0.019782 0.173767 0.190142 -0.295025 -0.268647 -0.283559 0.033750 -0.099459 0.033899 0.044664 -0.117920 0.051303 0.079085 0.287112 0.205530 -0.024199 -0.166524 0.056854 0.005317 -0.050877 -0.051365 -0.197574 -0.392115 -0.192648 -0.107735 -0.056080 0.082833 0.156359 -0.023464 -0.052920 0.096151 0.271580 0.400038 -0.067391 -0.198914 0.106573 0.186592 -0.617510 0.278218 -0.067784 -0.281140 0.044944 0.116071 -0.095590 -0.306165 -0.277433 0.381269 0.020740 -0.214405 0.031461 -0.032676 -0.303922 -0.157130 -0.174352 0.034793 -0.013394 -0.003653 0.061810 -0.221434 -0.013078 0.048565 -0.013325 -0.002006 0.010242 -0.057335 -0.127378 0.235957 0.177526 0.024792 0.143716 -0.142262 -0.015811 -0.165728 -0.139379 -0.017267 -0.104303 0.316117 -0.008772 -0.196859 0.076808 -0.073341 -0.018869 -0.007475 -0.035477 -0.520613 0.109554 -0.214027 -0.442053 0.184006 0.391822 -0.265413 0.219903 0.039022 -0.139265 -0.004214 0.089244 0.252096 0.060755 -0.106057 0.113132 0.086600 -0.040536 0.065259 -0.077485 -0.344453 0.168081 -0.074050 0.082536 -0.013628 0.034410 0.126546 -0.296579 -0.138952 -0.375886 -0.297693 0.033620 0.046150 -0.026411
64 -0.086070 -0.198617 0.042235 0.037840 0.086487 -0.064786 0.157174 0.181174 0.231884 -0.039751 0.013680 0.114110 0.234750 -0.353492 -0.290736 -0.262411 0.010052 -0.122071 0.039830 0.113249 -0.103487 0.120175 -0.015648 0.280422 0.112640 -0.091241 -0.224350 0.058936 0.063114 -0.074639 0.032795 -0.310668 -0.290281 -0.246648 -0.168746 -0.016873 0.061228 0.160981 -0.060547 -0.095885 0.134880 0.237918 0.302571 -0.128302 -0.110770 0.113714 0.185030 -0.464457 0.241259 -0.127722 -0.292926 0.019902 0.068771 -0.083496 -0.270309 -0.219901 0.337967 -0.044386 -0.198891 0.037701 0.050811 -0.254841 -0.210787 -0.172056 -0.040738 -0.043688 -0.076483 0.031928 -0.096019 -0.006796 -0.004686 0.001679 0.053409 -0.033609 -0.049593 -0.112540 0.287464 0.221411 0.048077 0.112399 -0.157291 0.045342 -0.164975 -0.084415 -0.063017 -0.076977 0.375896 -0.089828 -0.173543 0.030353 -0.013428 -0.001254 0.007429 0.018458 -0.502254 0.098824 -0.105927 -0.530706 0.182747 0.381962 -0.325993 0.236485 0.039595 -0.086998 -0.041540 0.114500 0.200426 0.033027 -0.022602 0.161329 0.025790 -0.065195 0.119091 -0.086945 -0.342007 0.204122 -0.120541 0.097690 0.019852 -0.021738 0.074091 -0.255936 -0.143561 -0.310213 -0.281539 0.000484 0.006982 -0.008032
61 -0.096543 -0.204134 -0.012536 0.019349 0.093097 -0.083543 0.174183 0.146194 0.238311 0.009852 0.006966 0.166317 0.183810 -0.262342 -0.236948 -0.254430 -0.013032 -0.115756 0.039187 0.061709 -0.062482 0.034473 -0.039841 0.305274 0.204247 -0.112170 -0.150075 0.035349 -0.015681 -0.097435 -0.000269 -0.235663 -0.264980 -0.216974 -0.059363 0.000295 0.022042 0.136564 -0.019941 -0.084388 0.098863 0.242075 0.276377 -0.122956 -0.144710 0.057058 0.144296 -0.439836 0.304670 -0.092780 -0.378484 0.048892 0.100125 -0.055612 -0.283742 -0.243129 0.406715 -0.013446 -0.176015 0.006983 0.034619 -0.263732 -0.184837 -0.170929 -0.038737 -0.016527 -0.054473 0.020960 -0.179991 0.031406 -0.007254 0.056130 0.021313 -0.003064 -0.029556 -0.104711 0.246639 0.191019 -0.002881 0.144002 -0.158722 0.023488 -0.163562 -0.160383 -0.056664 -0.102223 0.371109 -0.092711 -0.169366 0.095920 -0.037954 -0.028287 0.039065 0.009360 -0.502162 0.159763 -0.063920 -0.471730 0.145497 0.372666 -0.231373 0.250282 0.027407 -0.105994 0.033604 0.117313 0.230524 -0.023875 -0.059152 0.136580 0.076075 -0.047689 0.089975 -0.094562 -0.346645 0.188545 -0.134652 0.118453 0.045807 0.071318 0.124295 -0.230956 -0.150834 -0.348053 -0.307774 0.021695 0.033615 0.014578
21 -0.146344 -0.225089 0.066250 0.074589 0.043267 -0.063093 0.317489 0.193176 0.205823 0.017427 0.026669 0.249293 0.190902 -0.270209 -0.222716 -0.250260 0.037045 -0.103522 0.033332 0.094114 -0.114436 0.066996 -0.066731 0.306315 0.224091 -0.115802 -0.197485 0.001966 0.017761 -0.123043 0.010388 -0.272119 -0.273298 -0.152264 -0.165526 -0.071183 0.096079 0.196910 -0.016086 0.054679 0.103338 0.279900 0.316666 -0.135729 -0.189281 0.140889 0.145804 -0.556585 0.188745 -0.082870 -0.279290 0.057152 0.174600 -0.138607 -0.252759 -0.312625 0.320645 -0.054334 -0.177632 -0.024513 0.026617 -0.289438 -0.142979 -0.162557 0.064198 0.016856 -0.060946 -0.019940 -0.146840 0.030246 0.033453 -0.036794 0.013022 -0.026863 -0.014895 -0.048366 0.205270 0.082853 0.052605 0.162967 -0.129732 0.063885 -0.145793 -0.107970 -0.024357 -0.116955 0.281208 -0.098807 -0.125742 0.029071 -0.003143 0.027261 0.009488 0.038750 -0.453452 0.111227 -0.152962 -0.474777 0.234344 0.352228 -0.308025 0.135180 0.056959 0.000215 -0.073399 0.095681 0.144007 -0.061180 -0.092763 0.089139 0.037778 -0.039715 -0.039094 -0.073037 -0.300563 0.170775 -0.119097 0.091183 0.169168 0.001902 0.149066 -0.216259 -0.206826 -0.389159 -0.286917 0.023282 0.071652 -0.093625
47 -0.046126 -0.218259 0.024917 0.084923 0.071031 -0.108080 0.152533 0.161385 0.270426 0.034174 -0.004431 0.106430 0.175106 -0.317524 -0.228225 -0.254630 0.026565 -0.075832 0.024312 0.034297 -0.090963 0.035033 0.063285 0.231158 0.163438 -0.050054 -0.113349 0.017074 0.006652 -0.074181 -0.024161 -0.256237 -0.355850 -0.201157 -0.070719 0.010520 0.009285 0.126961 -0.011975 -0.050225 0.120721 0.246725 0.344352 -0.056697 -0.155647 0.091631 0.160996 -0.472417 0.322743 -0.062694 -0.309928 0.041849 0.108134 -0.096197 -0.304259 -0.258125 0.375612 0.049890 -0.180874 0.043777 0.016142 -0.292287 -0.139037 -0.167781 -0.000709 -0.004511 0.008681 0.025968 -0.136739 0.023649 0.060075 0.027395 0.036377 -0.003644 -0.043631 -0.086456 0.296302 0.225754 0.076812 0.154485 -0.161535 0.018970 -0.229077 -0.156256 -0.082351 -0.074673 0.351588 -0.068452 -0.192026 0.057552 -0.042408 0.018291 -0.028814 -0.021975 -0.553995 0.148906 -0.123588 -0.490860 0.127503 0.371837 -0.254173 0.266478 0.032664 -0.142952 -0.020815 0.053486 0.183614 0.015505 -0.032954 0.134099 0.057528 0.032052 0.072400 -0.127561 -0.364856 0.204884 -0.159761 0.095558 -0.006306 0.040205 0.135889 -0.261994 -0.157917 -0.395452 -0.331100 0.088025 0.072581 0.014984
66 -0.108090 -0.213094 0.028070 0.038730 0.095125 -0.054494 0.208956 0.198454 0.216085 -0.030086 -0.008487 0.168986 0.241580 -0.306738 -0.288655 -0.259866 -0.008491 -0.099727 0.051762 0.161267 -0.118643 0.042364 -0.052277 0.354062 0.209970 -0.117471 -0.246362 0.096043 0.019376 -0.000734 0.021774 -0.200694 -0.307749 -0.186826 -0.159596 -0.015607 0.082547 0.186288 -0.081255 -0.055971 0.117684 0.234114 0.293654 -0.151398 -0.135172 0.141329 0.153860 -0.520695 0.260043 -0.117347 -0.325224 0.015426 0.134676 -0.097857 -0.272331 -0.289305 0.358336 -0.045223 -0.218850 -0.049098 0.048594 -0.317208 -0.191491 -0.230304 0.035065 -0.070773 -0.059242 -0.002323 -0.128421 -0.028945 -0.041598 -0.019879 -0.001821 0.007018 -0.037594 -0.105136 0.238780 0.210062 -0.018288 0.076259 -0.101195 0.073194 -0.144813 -0.148373 -0.037976 -0.122572 0.338106 -0.091076 -0.234236 0.064217 0.041288 0.012720 -0.003557 -0.013834 -0.554516 0.169621 -0.155852 -0.478504 0.226999 0.405375 -0.307337 0.196659 0.023983 -0.060187 -0.062005 0.116378 0.152000 0.018294 -0.049144 0.139925 0.067768 -0.094738 0.080376 -0.130577 -0.365361 0.141467 -0.149351 0.108556 0.051589 0.054315 0.116568 -0.269149 -0.159167 -0.362064 -0.297944 0.006304 0.088410 -0.028286
23 -0.073284 -0.188565 -0.053137 0.038099 0.104959 -0.063319 0.162676 0.233955 0.246405 -0.017555 -0.078713 0.122611 0.223105 -0.342815 -0.283876 -0.239755 -0.038380 -0.094686 0.091278 0.198415 -0.082061 0.031573 -0.029872 0.412087 0.229367 -0.189494 -0.209053 0.081921 -0.003609 0.013132 0.033917 -0.212542 -0.409030 -0.270460 -0.160256 -0.015249 0.086953 0.160032 -0.160629 -0.164427 0.116413 0.289409 0.318533 -0.160472 -0.114211 0.095215 0.176941 -0.472750 0.276548 -0.068948 -0.277783 0.054587 0.117701 -0.092496 -0.290753 -0.291938 0.368891 -0.001789 -0.180667 0.003049 -0.033714 -0.279869 -0.167422 -0.198639 0.050663 -0.093342 -0.051928 0.071241 -0.190653 0.012889 0.055944 0.073629 -0.020096 0.076909 -0.022437 -0.110800 0.204333 0.303950 0.012572 0.138757 -0.111518 -0.006663 -0.131084 -0.146558 0.002407 -0.069943 0.354964 -0.039879 -0.193209 0.076955 -0.043634 0.022052 -0.008054 -0.011876 -0.523511 0.133697 -0.175674 -0.545950 0.199980 0.388895 -0.316926 0.278784 0.065333 -0.146156 -0.053422 0.073587 0.169343 0.001886 -0.044555 0.139914 0.111209 -0.064621 0.087005 -0.121299 -0.395907 0.195754 -0.124374 0.058601 0.055170 0.043882 0.153667 -0.302281 -0.164156 -0.444617 -0.317831 0.001895 0.093061 -0.053724
15 -0.121899 -0.230705 0.013375 0.055364 0.135853 -0.060353 0.252229 0.101847 0.246495 -0.002549 0.011963 0.203855 0.186976 -0.269468 -0.286218 -0.295970 -0.005690 -0.120639 -0.009403 0.065608 -0.066643 0.033912 -0.057458 0.305755 0.207647 -0.062575 -0.246039 0.015442 -0.022424 -0.076981 0.003145 -0.217681 -0.248388 -0.253824 -0.126133 -0.056330 0.094472 0.164200 0.027573 -0.083394 0.127030 0.314290 0.350576 -0.176733 -0.177953 0.119212 0.143520 -0.581457 0.280981 -0.113416 -0.388162 0.031095 0.095332 -0.060470 -0.324311 -0.262787 0.410104 -0.075257 -0.224047 0.035184 -0.016460 -0.245607 -0.218609 -0.202709 0.020058 0.022601 -0.015734 0.014877 -0.180655 0.002783 0.037161 0.029127 0.028844 -0.028360 0.006400 -0.109470 0.257291 0.233084 -0.053581 0.093573 -0.126059 0.068730 -0.161450 -0.217860 -0.106581 -0.131385 0.435794 -0.066518 -0.170625 0.171686 0.012896 -0.037681 0.065984 -0.012201 -0.551273 0.186099 -0.067057 -0.423834 0.222630 0.455806 -0.194777 0.180807 0.039712 -0.054978 0.063421 0.063072 0.235479 -0.071299 -0.101184 0.048107 0.064439 -0.057567 0.079365 -0.044849 -0.339658 0.113204 -0.169735 0.114899 0.147006 0.079841 0.128111 -0.318455 -0.044866 -0.393313 -0.348683 -0.010734 0.134654 -0.012521
16 -0.130898 -0.253139 0.037795 0.104668 0.104852 -0.078476 0.269108 0.180795 0.170306 0.012636 -0.000441 0.231610 0.204742 -0.288573 -0.302000 -0.293075 0.058689 -0.030366 0.009230 0.054718 -0.131672 0.028885 -0.023543 0.232002 0.177778 -0.038951 -0.208465 0.026429 -0.005670 -0.087990 -0.027553 -0.229306 -0.283191 -0.144511 -0.082479 -0.027483 0.162976 0.125416 -0.050631 -0.032712 0.131157 0.231804 0.354375 -0.097727 -0.156251 0.039370 0.201255 -0.630256 0.216392 -0.059299 -0.247560 0.000307 0.125297 -0.108713 -0.227812 -0.285237 0.335982 0.010170 -0.155771 -0.038725 -0.026875 -0.270716 -0.148389 -0.180992 0.012067 -0.045594 -0.025723 0.050839 -0.213663 0.013780 -0.030195 0.039009 -0.017086 0.019266 -0.041778 -0.111163 0.267604 0.241817 -0.024969 0.157411 -0.142292 0.008836 -0.143536 -0.213825 -0.005254 -0.073910 0.403271 -0.042363 -0.250509 0.129086 -0.036000 -0.002019 -0.019064 -0.032224 -0.598543 0.137749 -0.186181 -0.517888 0.235279 0.491185 -0.268304 0.228945 0.046990 -0.150195 0.026504 0.080538 0.269952 -0.015156 -0.080056 0.085901 0.093466 -0.076430 0.084375 -0.088224 -0.410391 0.256181 -0.141831 0.172888 0.057997 0.073729 0.132374 -0.317039 -0.202991 -0.409204 -0.330759 0.005408 0.030000 0.007104
19 -0.107716 -0.232799 -0.002185 -0.016827 0.040280 -0.041245 0.188071 0.170352 0.203198 -0.038228 0.004166 0.184869 0.182439 -0.255207 -0.210924 -0.234626 -0.028891 -0.140821 0.074903 0.120044 -0.147678 0.079861 -0.064340 0.332120 0.169504 -0.072608 -0.272694 0.089348 0.006582 -0.089631 0.009418 -0.254151 -0.350992 -0.249173 -0.119588 0.012932 0.029654 0.192974 -0.083846 -0.089046 0.107629 0.237829 0.308237 -0.121344 -0.095859 0.137423 0.188387 -0.500619 0.204949 -0.105528 -0.306155 0.040591 0.066581 -0.101982 -0.287495 -0.312472 0.381764 -0.013998 -0.229662 0.009853 -0.021801 -0.258345 -0.134536 -0.219063 -0.005188 -0.049224 -0.105774 0.061723 -0.157746 -0.043886 0.003238 0.006544 0.024947 -0.007968 -0.043962 -0.140845 0.228779 0.164403 0.028410 0.145534 -0.160594 0.037868 -0.140992 -0.049746 -0.020291 -0.091770 0.304351 -0.103359 -0.176717 -0.015477 -0.047477 -0.005566 0.009611 -0.006647 -0.492523 0.090222 -0.132430 -0.507887 0.165720 0.360352 -0.305124 0.222370 0.011705 -0.140666 -0.041387 0.166910 0.189661 0.033889 -0.066074 0.170255 0.081541 -0.078388 0.111214 -0.087864 -0.388113 0.289887 -0.069227 0.126496 0.045996 -0.051053 0.105891 -0.331725 -0.196933 -0.419812 -0.358734 -0.024129 0.003694 -0.042571
56 0.157544 0.026765 -0.387668 0.167715 0.294645 0.056355 0.149124 -0.159294 -0.229451 0.002023 0.343731 0.323452 0.040253 0.275266 -0.296401 -0.293197 -0.062421 0.257519 0.114029 -0.085131 -0.387807 -0.533101 -0.281081 -0.170816 0.056004 0.315870 -0.489903 -0.101859 -0.127877 0.390193 -0.037248 0.261477 -0.066399 0.319289 0.123660 0.205965 0.179933 0.255326 -0.084114 -0.136425 0.025877 -0.074856 0.022630 0.042248 -0.150094 -0.158888 -0.012679 -0.231822 0.334678 -0.251951 -0.343113 -0.265471 0.110927 -0.069754 0.040969 0.004457 0.337821 -0.153280 -0.060674 -0.203008 0.265585 -0.040733 -0.134753 0.002485 0.042653 -0.014258 -0.144328 -0.098487 -0.106803 -0.123581 -0.290534 -0.003648 -0.151020 -0.181609 -0.136127 0.183819 0.211272 -0.235246 0.016832 0.299483 -0.006797 0.112354 0.079071 0.609830 0.129479 -0.023040 0.123385 -0.112802 0.147348 -0.208562 -0.089117 -0.251689 0.205042 -0.065386 -0.054588 -0.066011 -0.285304 -0.302389 0.222221 -0.003172 -0.347250 0.005240 0.196669 0.299461 -0.370022 0.068060 -0.151027 0.028423 -0.199098 0.236093 0.015720 -0.178983 -0.233975 -0.191728 -0.096768 -0.023464 -0.155565 0.103805 0.232880 0.097706 0.197877 -0.050976 -0.216523 -0.214511 -0.169000 0.291948 0.170880 0.051550
11 0.203770 0.183972 -0.080648 0.144512 0.022420 0.099309 -0.214650 0.074640 0.114086 -0.151899 -0.220300 -0.401102 -0.135212 -0.131152 0.059475 0.112437 0.267546 -0.052106 -0.175329 0.041614 0.009604 0.233875 -0.111319 -0.240492 -0.249687 0.034413 0.033430 0.000995 -0.014014 -0.170767 0.182987 -0.192473 0.032046 -0.003081 0.233186 0.121020 -0.106295 -0.003779 -0.110473 0.049499 0.271364 -0.024870 -0.180321 -0.017694 0.150500 -0.356432 0.100723 -0.051037 0.364283 -0.039807 -0.184062 -0.132307 -0.065159 0.062349 -0.076341 -0.048228 0.231774 0.273384 0.188085 0.010224 -0.097186 0.205397 0.118825 -0.168607 0.030440 0.094569 0.155254 0.111457 -0.332644 -0.125200 -0.201824 0.304015 -0.358257 0.255600 -0.021115 0.270181 0.020303 0.113521 -0.113652 0.075009 -0.015906 0.226270 0.213953 0.382725 0.093681 -0.139204 0.205240 0.042840 -0.109777 -0.151780 -0.122388 -0.119130 0.057930 -0.313194 -0.123146 -0.260782 -0.106633 -0.366866 0.226642 0.200392 -0.015572 -0.055295 0.198084 0.073525 -0.101219 -0.107691 -0.137516 -0.329087 -0.079138 -0.201998 -0.032952 0.031407 -0.128522 0.097330 0.060292 -0.114666 0.078977 -0.259020 0.349432 -0.358583 0.205599 -0.176768 0.009587 -0.384262 -0.184358 -0.071361 0.142570 -0.351323
53 0.204073 0.141354 0.078807 0.171683 -0.013129 0.181418 -0.163843 0.080357 0.017757 -0.109004 -0.272815 -0.374284 -0.062021 -0.127284 -0.011946 0.140266 0.262538 0.090535 -0.112205 -0.042260 -0.091353 0.058185 -0.188175 -0.242183 -0.251615 0.021911 -0.007145 -0.000737 -0.018036 -0.114565 0.087572 -0.126722 -0.043544 0.015102 0.221822 0.179871 -0.065361 0.001955 -0.100551 -0.006513 0.315732 -0.026729 -0.005845 0.027149 0.134019 -0.361205 0.223000 -0.236470 0.367318 -0.099301 -0.146693 -0.187527 -0.092064 0.059359 -0.061365 -0.058686 0.158619 0.218433 0.172978 -0.010163 -0.045716 0.231539 0.050681 -0.213667 0.030525 0.072414 0.143441 0.067635 -0.230982 -0.124221 -0.209661 0.276905 -0.295554 0.170175 -0.037283 0.245773 -0.018190 0.110244 -0.035612 0.101815 0.031217 0.223795 0.277259 0.519602 0.052342 -0.050557 0.177826 0.073626 -0.248617 -0.209990 -0.138756 -0.127046 -0.009492 -0.488137 -0.145804 -0.339064 -0.067826 -0.276916 0.184230 0.135373 0.070768 -0.077936 0.169693 -0.023290 -0.091338 -0.192521 -0.130975 -0.243646 0.016108 -0.247399 -0.107495 0.006800 -0.110080 0.181769 0.074126 -0.166892 0.086778 -0.346371 0.355229 -0.498007 0.163564 -0.186756 0.097091 -0.290836 -0.113481 -0.133578 0.079678 -0.348931
29 0.133494 0.016093 -0.400157 0.133535 0.307107 0.054566 0.117694 -0.165884 -0.128666 -0.000064 0.321035 0.302273 0.019917 0.212985 -0.262454 -0.251416 -0.031500 0.215368 0.104299 -0.075381 -0.303515 -0.421472 -0.265186 -0.170732 -0.039598 0.259807 -0.406144 -0.109052 -0.080726 0.292497 0.051085 0.154720 0.032532 0.329192 0.077878 0.222551 0.136207 0.252164 -0.065589 -0.170779 0.015804 -0.018294 0.020099 -0.061690 -0.171209 -0.183966 0.002104 -0.164520 0.356206 -0.254455 -0.413560 -0.211953 0.098904 -0.070101 -0.040289 0.025113 0.368275 -0.205720 -0.060789 -0.137736 0.322843 -0.056202 -0.245135 0.034681 -0.034340 0.005910 -0.157868 -0.124145 -0.076069 -0.036679 -0.238369 -0.002670 -0.114868 -0.183539 -0.112893 0.245131 0.348652 -0.202445 0.030365 0.372578 -0.012701 0.104250 0.038455 0.561008 0.081791 0.058921 0.187948 -0.166661 0.153511 -0.248441 -0.066904 -0.230475 0.210206 -0.021799 0.007399 -0.029191 -0.230833 -0.381605 0.236743 -0.002015 -0.388262 -0.003388 0.229348 0.348079 -0.345487 -0.025336 -0.187962 -0.026485 -0.138689 0.182329 -0.024435 -0.119127 -0.268201 -0.182476 -0.042415 -0.126660 -0.219985 0.077070 0.233812 0.101599 0.179561 -0.015924 -0.155528 -0.199238 -0.127263 0.321547 0.168951 0.027764
5 0.203500 0.171434 0.068052 0.192364 0.049268 0.129993 -0.190077 0.098516 -0.003786 -0.130140 -0.267489 -0.370101 -0.095053 -0.125393 0.051829 0.156212 0.290194 0.021301 -0.073999 -0.034103 -0.107943 0.132677 -0.137231 -0.202022 -0.179439 0.107501 0.039266 0.011351 -0.020742 -0.034653 0.032700 -0.079914 -0.044455 0.001763 0.227809 0.071846 -0.099581 -0.044917 -0.095934 0.021093 0.239818 -0.075326 -0.165908 0.051475 0.146366 -0.301280 0.060649 -0.108755 0.345193 -0.082407 -0.159105 -0.173498 -0.036126 0.080433 -0.043923 -0.023493 0.205909 0.193470 0.179818 -0.072083 -0.086336 0.185119 0.139230 -0.158245 0.078137 0.079491 0.184375 0.054123 -0.259193 -0.140459 -0.260382 0.261878 -0.319041 0.176817 -0.066869 0.228968 -0.054996 0.051107 -0.091235 0.009302 -0.024956 0.219511 0.196903 0.347099 0.043484 -0.173068 0.110176 0.072630 -0.184424 -0.142927 -0.086529 -0.125245 0.030904 -0.402649 -0.215663 -0.208185 -0.116371 -0.280855 0.187087 0.161630 -0.035623 -0.048214 0.132885 -0.004405 -0.128532 -0.038492 -0.053959 -0.204233 -0.078169 -0.167016 -0.064551 -0.024747 -0.056535 0.109116 0.016937 -0.041509 0.144272 -0.263366 0.293207 -0.307790 0.138773 -0.144051 -0.031254 -0.352353 -0.189407 -0.119598 0.076833 -0.313912
6 0.210694 0.116596 0.081982 0.238348 0.005425 0.086288 -0.113218 0.150821 0.139354 -0.118016 -0.303962 -0.426668 -0.081447 -0.312597 0.025020 0.081244 0.341127 -0.053946 -0.160238 -0.011159 -0.092513 0.251815 -0.084387 -0.254466 -0.223645 0.075441 0.004621 -0.005656 0.007361 -0.071913 0.138444 -0.221490 0.039232 -0.017248 0.081398 0.024613 -0.003539 -0.033266 -0.072836 -0.009341 0.214167 -0.002244 -0.144115 -0.009298 0.098978 -0.281162 0.068359 -0.070668 0.338794 -0.047681 -0.085621 -0.138062 -0.046665 0.083735 -0.011885 0.064313 0.130279 0.124525 0.158402 -0.001642 -0.017828 0.096395 0.040529 -0.117117 0.050319 0.046116 0.135683 0.048586 -0.282829 -0.136900 -0.216272 0.271030 -0.349768 0.217901 -0.023838 0.233543 -0.079569 0.074081 -0.080505 0.024183 -0.007150 0.296060 0.224300 0.443520 0.090509 -0.160490 0.165181 0.076191 -0.150856 -0.185812 -0.087423 -0.092887 0.072097 -0.377947 -0.167849 -0.259576 -0.105405 -0.310338 0.235741 0.173913 -0.062318 -0.037102 0.162934 0.110939 -0.145445 -0.071217 -0.099811 -0.261498 -0.054284 -0.188867 -0.079787 -0.058434 -0.138044 0.059389 0.015625 -0.068460 0.047794 -0.276614 0.421645 -0.283292 0.173929 -0.185683 0.005656 -0.378129 -0.131289 -0.058459 0.177017 -0.342654
63 0.189595 0.154661 -0.055414 0.141419 0.038616 0.092345 -0.166425 0.047807 0.063968 -0.103033 -0.214306 -0.348698 -0.100612 -0.043143 0.056098 0.107034 0.307942 -0.049044 -0.087053 -0.007150 -0.104244 0.238373 -0.154301 -0.210866 -0.230765 0.157600 0.030069 0.041363 -0.000568 -0.055600 0.130014 -0.126577 0.050448 -0.042212 0.154541 0.016973 -0.039756 -0.011326 -0.079911 0.134680 0.205931 -0.026442 -0.158771 -0.024986 0.133704 -0.266348 0.011760 -0.074568 0.256230 -0.068168 -0.160919 -0.098327 -0.019144 0.083225 0.005508 -0.021187 0.162482 0.160462 0.184780 -0.047229 -0.067217 0.165330 0.129744 -0.127046 0.049909 0.089725 0.156047 0.098467 -0.328770 -0.009018 -0.238208 0.297110 -0.300562 0.187959 -0.009213 0.177813 -0.113925 0.066600 -0.144387 0.065329 -0.016300 0.164682 0.228932 0.244303 0.059800 -0.172453 0.145707 0.080840 -0.119212 -0.115072 -0.092369 -0.133354 0.012476 -0.375069 -0.139398 -0.295330 -0.090303 -0.366271 0.237055 0.219637 -0.055562 -0.111370 0.207462 0.068866 -0.071342 -0.048651 -0.049844 -0.304456 -0.103276 -0.260397 -0.071786 -0.045901 -0.122608 0.171514 -0.009932 -0.087157 0.114725 -0.227379 0.282154 -0.409300 0.162025 -0.221392 -0.009948 -0.310715 -0.177817 -0.129953 0.055813 -0.392813
50 0.187476 0.213940 0.054907 0.163725 0.040442 0.207670 -0.191734 0.077710 -0.040460 -0.139056 -0.329356 -0.384402 -0.093558 -0.020091 0.036794 0.185959 0.317446 0.003372 -0.084313 -0.018162 -0.102653 0.138635 -0.252571 -0.217905 -0.244399 0.092670 0.069153 0.060652 -0.019493 -0.086115 0.099725 -0.119556 0.023137 -0.039401 0.211945 0.056610 -0.019495 -0.019109 -0.074098 0.063032 0.304808 -0.087487 -0.112702 -0.022520 0.171033 -0.325221 0.081343 -0.190973 0.384788 -0.073587 -0.180145 -0.197194 -0.053330 0.078439 -0.022410 -0.049121 0.217349 0.256515 0.148819 -0.079293 -0.107194 0.137648 0.177860 -0.251295 0.125016 0.047156 0.131073 0.104002 -0.343304 -0.118887 -0.253323 0.236188 -0.354557 0.207381 -0.022854 0.203748 -0.074949 0.057602 -0.130373 0.025870 0.054779 0.185570 0.283522 0.377587 0.146381 -0.155546 0.131523 0.048601 -0.108796 -0.149683 -0.153726 -0.132716 0.021042 -0.344221 -0.121622 -0.245503 -0.150977 -0.300139 0.264116 0.168341 -0.041022 -0.111813 0.206539 0.102992 -0.116078 -0.064390 -0.181510 -0.264387 -0.118197 -0.231882 0.001418 -0.074102 -0.164318 0.110699 0.021220 -0.137124 0.129947 -0.273717 0.307086 -0.444545 0.257389 -0.209701 -0.061300 -0.345756 -0.139199 -0.110497 0.055480 -0.431035
49 0.056171 -0.043021 -0.118782 0.099429 0.104416 -0.080305 -0.220315 -0.137613 0.185170 -0.083607 0.123051 -0.034288 -0.067198 -0.038898 -0.042736 -0.078864 0.075224 0.060983 -0.057153 -0.141094 -0.060032 0.078425 0.151360 -0.401444 -0.318086 0.398360 -0.031681 -0.097256 0.052022 -0.138265 0.001129 -0.030434 -0.190070 0.090088 0.335247 0.207447 -0.097978 0.100346 -0.060135 0.150129 0.096981 0.051015 -0.023484 0.130362 0.014563 -0.132771 0.077060 -0.143542 0.196789 -0.063979 -0.305977 -0.029057 0.006264 -0.063895 -0.057389 -0.189409 0.218186 0.247307 0.085392 -0.049843 0.052945 0.161788 0.139769 0.010584 -0.110108 0.061546 0.165575 0.010904 0.013822 0.082224 -0.075326 0.241827 -0.093168 0.067810 0.059441 0.116455 0.055459 0.118749 -0.105118 0.098249 -0.078977 0.169964 0.006670 0.019481 -0.244496 -0.036198 0.056673 0.026374 -0.157227 -0.020949 0.114519 -0.085119 -0.095152 -0.244876 -0.013563 -0.203175 0.027030 -0.379067 0.222207 0.211957 -0.033939 -0.111645 0.132714 0.042820 -0.024689 -0.216683 0.071486 -0.261527 0.020374 -0.280316 -0.159365 0.113678 -0.121577 0.216511 0.016755 -0.027251 -0.075504 -0.037381 0.179335 -0.251794 0.063604 -0.138668 0.003838 -0.254104 -0.258993 -0.010559 0.125750 -0.169371
7 0.128913 0.145476 0.109454 0.162247 0.020826 0.121157 -0.152914 0.078712 0.030346 -0.149024 -0.197169 -0.312798 -0.059861 -0.095686 0.006551 0.121767 0.289882 0.035494 -0.104947 -0.063648 -0.100697 0.110913 -0.097373 -0.202935 -0.184565 0.127632 0.014558 0.060221 0.021679 -0.067874 0.021992 -0.038458 -0.021368 0.049145 0.245612 0.066014 -0.103837 -0.041212 -0.053228 0.083386 0.251563 -0.093471 -0.088356 0.112667 0.117353 -0.299240 0.074357 -0.153088 0.366038 -0.067825 -0.193142 -0.201310 -0.047099 0.085446 -0.066136 -0.050719 0.213479 0.261783 0.163448 -0.069255 -0.112527 0.201086 0.151170 -0.198765 0.078413 0.127925 0.225810 0.107395 -0.304155 -0.163020 -0.290543 0.245902 -0.336538 0.184569 -0.072369 0.245215 -0.047668 -0.006439 -0.075293 0.011476 0.011630 0.246137 0.246203 0.460228 0.061877 -0.156399 0.123851 0.063801 -0.207691 -0.149728 -0.095633 -0.157358 0.033603 -0.456833 -0.211055 -0.255775 -0.139692 -0.228231 0.160408 0.176067 0.030637 -0.072884 0.142820 0.002300 -0.099143 -0.059422 -0.093191 -0.188500 -0.122215 -0.165638 -0.049519 -0.043060 -0.091259 0.110878 0.064704 -0.133377 0.142483 -0.263553 0.311165 -0.426777 0.198705 -0.152326 -0.019757 -0.340367 -0.169956 -0.096163 0.073061 -0.303950
22 0.119007 -0.064810 -0.105604 0.145459 0.086149 -0.122648 -0.203703 -0.033734 0.192581 -0.057266 0.053694 -0.098749 -0.009617 -0.141987 -0.048308 -0.027019 0.007317 0.087017 -0.023024 -0.150936 -0.084671 0.071783 0.086613 -0.325594 -0.293248 0.335820 -0.042290 -0.126607 0.040662 -0.112652 -0.012522 -0.065377 -0.238957 -0.010221 0.270650 0.161671 -0.090074 0.085463 -0.064869 0.103579 0.135197 0.057556 0.003107 0.134559 0.052990 -0.082892 0.073404 -0.101369 0.230644 -0.109438 -0.275317 -0.025431 0.026634 -0.017536 -0.059153 -0.130197 0.133539 0.158183 0.062785 -0.018923 0.145974 0.065585 0.055356 0.021224 -0.096869 0.031529 0.126363 -0.023035 0.066067 0.144477 -0.122797 0.311713 -0.001635 0.035682 0.037267 0.060634 0.010482 0.183987 -0.116481 0.067611 -0.086808 0.151124 0.091977 0.093693 -0.255816 -0.054521 0.037842 0.047731 -0.153245 -0.089374 0.115324 -0.157863 -0.100685 -0.370261 0.008990 -0.339671 0.049336 -0.467789 0.195886 0.136846 -0.039015 -0.156513 0.205835 0.048563 -0.050775 -0.166772 0.062790 -0.295199 0.046300 -0.232444 -0.200993 0.050121 -0.075684 0.300775 0.039342 -0.037128 -0.004663 -0.125432 0.222764 -0.426198 0.067938 -0.145957 0.030215 -0.302694 -0.288016 -0.124184 0.060624 -0.264163
25 0.346484 0.349502 -0.887626 -0.331379 0.042750 -0.053535 -0.305306 -0.303507 0.035305 -0.155606 0.372699 -0.225890 -0.244101 0.361395 -0.042782 -0.103336 -0.138295 -0.132424 0.003086 0.245494 0.038218 0.080148 0.112637 0.063523 -0.048726 -0.015728 -0.299418 0.274481 0.059321 0.536521 0.328169 0.121946 -0.166148 0.077735 -0.026654 0.327139 -0.330507 0.379600 -0.544108 -0.032637 -0.293284 0.031145 -0.576146 -0.209207 0.110938 0.430814 0.068321 0.304555 -0.153058 -0.243457 -0.530662 -0.008757 0.100904 -0.410160 -0.090834 -0.451839 0.541687 -0.315434 0.000549 -0.178000 0.113778 0.490043 -0.102535 -0.043694 0.031072 0.080591 -0.146791 -0.123495 -0.119469 0.334408 0.133308 0.170105 0.004441 -0.043943 0.297317 0.058621 -0.577052 -0.245439 0.191921 0.397646 -0.100410 0.263269 0.053700 0.270453 0.178286 0.141263 0.035975 -0.572891 -0.850966 -0.594406 -0.021405 0.162102 0.175606 -0.433216 -0.547932 0.060131 0.049149 0.002763 0.367363 0.005629 -0.245654 0.032897 -0.325689 0.442210 -0.092779 0.159911 0.405160 0.249947 0.174144 -0.055945 -0.122855 -0.471874 -0.554673 0.240959 -0.262083 0.106685 0.040847 -0.225976 0.338264 -0.589943 0.283284 -0.244413 -0.459491 -0.093724 0.158630 -0.005952 -0.379143 -0.568756
40 0.062461 -0.075678 -0.019018 0.139699 0.024719 -0.082739 -0.190516 -0.051713 0.159466 -0.099235 -0.007749 -0.106220 -0.127273 -0.104952 0.058264 0.000293 0.020748 0.058435 -0.108133 -0.103470 0.060992 0.092284 0.237472 -0.383312 -0.285487 0.324627 0.036337 -0.154887 0.010253 -0.203611 -0.036727 -0.022024 -0.223091 0.127680 0.299692 0.180942 -0.072264 0.072364 -0.091562 0.066192 0.052862 0.051122 0.027454 0.147457 -0.044590 -0.091376 0.142495 -0.142005 0.130543 -0.059341 -0.224888 -0.040609 -0.020968 -0.090599 -0.051196 -0.179191 0.193631 0.199949 0.050591 -0.065604 0.028254 0.195975 0.081227 0.049101 -0.138916 0.059657 0.185923 -0.001335 0.013453 0.116896 -0.078451 0.291852 -0.102699 0.070785 0.070972 0.158712 0.101026 0.177725 -0.096727 0.185502 -0.008471 0.162942 0.028474 0.132414 -0.178402 0.042358 0.142973 0.042779 -0.288489 -0.076927 0.087219 -0.108042 -0.084328 -0.357775 -0.068994 -0.192539 -0.017605 -0.381254 0.255014 0.196763 -0.050295 -0.107898 0.158666 0.077561 -0.070702 -0.276008 0.121988 -0.194527 0.014792 -0.331154 -0.191280 0.097487 -0.183220 0.250435 -0.015707 -0.123285 -0.118175 -0.095554 0.234676 -0.242327 0.094849 -0.162405 -0.023116 -0.324192 -0.237578 0.028849 0.158649 -0.209232
18 0.081072 -0.082467 -0.098994 0.142803 0.107614 -0.126234 -0.213764 -0.110514 0.171500 -0.036083 0.128484 -0.035270 -0.080197 -0.119767 -0.033365 -0.106137 0.075619 0.089266 -0.073681 -0.176932 0.014853 0.110235 0.180894 -0.431512 -0.339814 0.358053 0.024269 -0.161692 0.062797 -0.195753 -0.001353 -0.095597 -0.165615 0.122670 0.297699 0.188223 -0.083986 0.081057 -0.058608 0.103483 0.061834 0.098505 -0.001496 0.090543 -0.053676 -0.129193 0.113335 -0.129443 0.134346 -0.056264 -0.250367 -0.002735 -0.013585 -0.038937 -0.087151 -0.118775 0.199042 0.186784 0.107454 0.035258 0.059829 0.221092 0.036544 0.088167 -0.198914 0.115117 0.168417 0.027117 -0.021287 0.119792 -0.075329 0.289063 -0.082863 0.066416 0.042016 0.148194 0.138401 0.166194 -0.093540 0.152066 -0.105146 0.108047 0.019923 0.055885 -0.215186 0.047589 0.133523 0.062500 -0.173134 -0.029264 0.071854 -0.119088 -0.038425 -0.309035 -0.013670 -0.266939 0.022230 -0.397400 0.192831 0.202565 -0.029442 -0.085996 0.153974 0.046517 -0.012951 -0.250288 0.136710 -0.282478 0.040806 -0.296210 -0.205313 0.151474 -0.099860 0.253779 0.026372 -0.035114 -0.091890 -0.039312 0.190919 -0.236652 0.039336 -0.168519 0.046687 -0.277764 -0.270317 0.008918 0.099959 -0.145585
44 0.468635 0.395015 -0.922009 -0.323293 -0.009507 -0.017733 -0.246165 -0.274694 -0.051870 -0.160880 0.317969 -0.241102 -0.303032 0.399827 0.061913 -0.031416 -0.177173 -0.149392 -0.071479 0.299856 0.028275 0.078835 0.060885 0.074615 -0.006437 -0.014687 -0.353803 0.243187 -0.007302 0.512766 0.314570 0.088010 -0.197635 0.110977 -0.003692 0.346129 -0.369402 0.398004 -0.560471 -0.050443 -0.278386 -0.033205 -0.676675 -0.197313 0.136040 0.497103 0.024336 0.338247 -0.184198 -0.273610 -0.634339 -0.053654 0.077990 -0.553067 -0.089398 -0.582589 0.720566 -0.319413 0.005922 -0.241176 0.026412 0.652197 -0.009831 -0.133240 0.126435 0.147553 -0.181200 -0.144146 -0.168768 0.340009 0.211789 0.214148 -0.037807 -0.084357 0.375686 0.115849 -0.727877 -0.330409 0.298742 0.491145 -0.181927 0.382515 0.057335 0.409211 0.188910 0.095666 0.093218 -0.650767 -1.006274 -0.721110 -0.077227 0.144817 0.207496 -0.574151 -0.787555 0.092532 0.007571 0.049944 0.469164 0.095763 -0.284142 0.064979 -0.373735 0.462645 -0.106980 0.242662 0.476251 0.306217 0.144890 -0.023301 -0.132623 -0.558848 -0.663200 0.262655 -0.357552 0.146810 -0.005264 -0.283515 0.461318 -0.712970 0.348603 -0.376754 -0.552597 -0.220778 0.139544 0.022529 -0.386987 -0.701354
31 0.112306 0.078162 -0.370328 0.098795 0.256634 0.026320 0.121102 -0.221778 -0.216003 -0.010514 0.450859 0.332541 0.069292 0.235782 -0.296770 -0.310491 0.001976 0.228220 0.119498 -0.061039 -0.320088 -0.435286 -0.325192 -0.180775 -0.014425 0.222400 -0.429795 -0.091049 -0.024987 0.308385 0.033908 0.118308 0.021011 0.306877 0.057459 0.229191 0.139902 0.247298 -0.052103 -0.126264 0.060890 -0.027840 -0.002507 0.030214 -0.122351 -0.217128 -0.002224 -0.163050 0.343332 -0.292847 -0.360323 -0.270979 0.119754 -0.094750 0.025671 0.045642 0.345729 -0.129588 -0.035692 -0.163356 0.367348 -0.049900 -0.174875 0.013891 -0.080762 0.005449 -0.157327 -0.096514 -0.011642 -0.101641 -0.283747 -0.071720 -0.103129 -0.209067 -0.177272 0.229698 0.368643 -0.280604 0.115478 0.323969 -0.057536 0.118794 0.017936 0.631456 0.072965 -0.001987 0.156928 -0.136771 0.171332 -0.259724 -0.067205 -0.210087 0.147123 -0.028637 -0.045406 -0.136434 -0.294725 -0.493520 0.274689 0.079714 -0.429158 0.006107 0.274916 0.337509 -0.419296 0.003156 -0.161994 -0.017686 -0.161950 0.241864 -0.096870 -0.165952 -0.220519 -0.190866 -0.026381 0.003532 -0.189476 0.128203 0.237419 0.008147 0.179508 -0.001489 -0.232684 -0.193318 -0.171497 0.318152 0.150455 0.060481
26 0.375093 0.351240 -0.912717 -0.327891 0.028189 -0.093426 -0.279823 -0.332376 0.042729 -0.112163 0.398842 -0.224650 -0.279107 0.338539 0.032371 -0.049281 -0.128100 -0.156960 -0.022123 0.241571 0.036997 0.102181 0.111017 0.086670 0.002989 -0.050965 -0.316064 0.222997 0.039802 0.489249 0.328755 0.072875 -0.258508 0.023371 -0.035776 0.341429 -0.380297 0.415850 -0.574091 -0.056111 -0.280484 0.075700 -0.613153 -0.219560 0.104240 0.479470 0.055793 0.352786 -0.140024 -0.248140 -0.651842 0.023933 0.101994 -0.536991 -0.164337 -0.559555 0.726919 -0.276807 0.002095 -0.129652 0.060908 0.555938 -0.039246 -0.044016 0.033117 0.135260 -0.150550 -0.103333 -0.136872 0.336377 0.273230 0.208287 -0.011205 -0.016852 0.325822 0.060002 -0.683346 -0.279135 0.276131 0.406876 -0.214227 0.319555 0.047310 0.400022 0.172628 0.122658 0.002535 -0.572888 -0.830341 -0.676380 -0.103924 0.155519 0.195886 -0.488587 -0.557262 -0.016892 0.033790 0.027986 0.350845 -0.009759 -0.245522 0.059850 -0.340551 0.432799 -0.083263 0.195818 0.440231 0.260271 0.157348 0.041597 -0.122833 -0.454456 -0.573052 0.237812 -0.234944 0.158756 0.063298 -0.247005 0.395672 -0.626355 0.313910 -0.254826 -0.457235 -0.137622 0.116184 0.034968 -0.377117 -0.551293
10 0.129657 -0.006429 -0.410027 0.140760 0.242346 0.027575 0.230713 -0.212430 -0.134933 -0.002000 0.375287 0.323901 -0.020686 0.260120 -0.240033 -0.266492 0.015922 0.244727 0.029917 -0.093981 -0.344263 -0.417382 -0.296858 -0.213614 0.018340 0.333425 -0.497737 -0.167489 -0.163853 0.244412 0.016496 0.182187 0.056977 0.288972 0.098512 0.220339 0.170222 0.250500 -0.029854 -0.109864 0.066528 0.038129 0.072516 0.018913 -0.147746 -0.204773 0.034813 -0.258376 0.306378 -0.269015 -0.347308 -0.204800 0.142017 -0.096794 0.086310 0.011075 0.297666 -0.236224 -0.051492 -0.231043 0.334618 -0.112715 -0.161278 0.039372 -0.075546 0.000267 -0.181024 -0.143253 -0.046139 -0.104090 -0.336908 0.040666 -0.114667 -0.198055 -0.130898 0.176477 0.236520 -0.249561 -0.030878 0.336044 -0.075941 0.198047 0.079973 0.660290 0.032848 -0.046536 0.206227 -0.096164 0.105746 -0.185975 -0.013428 -0.288196 0.207441 -0.115588 -0.069242 -0.123530 -0.244258 -0.415646 0.249967 0.100510 -0.365643 -0.003229 0.238780 0.301381 -0.340080 0.003462 -0.062058 -0.061607 -0.200635 0.208100 -0.059129 -0.173445 -0.250301 -0.127396 -0.037559 -0.070291 -0.154160 0.090987 0.347011 0.062840 0.167250 -0.002411 -0.162854 -0.192142 -0.169499 0.253359 0.162363 0.062311
55 0.146138 0.168124 0.050650 0.122391 0.035988 0.161689 -0.171698 0.094241 0.038228 -0.138761 -0.265543 -0.332981 -0.085798 -0.110380 -0.006962 0.119030 0.254187 0.040179 -0.166045 0.012611 0.032732 0.181523 -0.120058 -0.226207 -0.244008 0.040717 0.060941 -0.042330 -0.025463 -0.167559 0.096467 -0.136914 0.102003 0.061736 0.206285 0.098653 -0.025988 -0.020671 -0.049951 0.026969 0.251721 -0.027495 -0.103031 0.003180 0.130317 -0.318461 0.102829 -0.149015 0.317125 -0.069632 -0.136403 -0.172594 -0.065108 0.077952 -0.010090 -0.027140 0.160905 0.190906 0.167686 -0.054522 -0.081507 0.204829 0.103513 -0.180484 0.038082 0.084166 0.124531 0.053190 -0.216411 -0.125180 -0.274557 0.277155 -0.305958 0.144989 -0.001131 0.275559 0.019354 0.091321 -0.130446 0.074030 0.001401 0.228993 0.271695 0.382349 0.032257 -0.116323 0.244879 0.047914 -0.186148 -0.106781 -0.058702 -0.162233 0.066560 -0.389179 -0.167112 -0.235394 -0.141923 -0.309101 0.269749 0.205809 -0.029390 -0.051563 0.211141 0.103901 -0.122708 -0.118730 -0.102160 -0.268213 -0.080339 -0.229681 -0.082546 -0.023778 -0.143505 0.148917 0.089714 -0.168416 0.084367 -0.288017 0.347885 -0.433995 0.201375 -0.198439 -0.009212 -0.341551 -0.098349 -0.073713 0.065450 -0.368609
57 0.373000 0.407806 -0.960052 -0.337293 0.054119 -0.060906 -0.306959 -0.364127 0.012845 -0.134046 0.461538 -0.234095 -0.276729 0.430379 -0.036357 -0.087373 -0.084479 -0.136937 -0.023035 0.260725 0.008378 0.047661 0.098998 0.028169 -0.005483 -0.018511 -0.371431 0.262354 0.070739 0.571822 0.349587 0.125634 -0.156670 0.071271 -0.049711 0.345995 -0.354323 0.420936 -0.597218 0.000105 -0.281202 0.039942 -0.642923 -0.223911 0.108513 0.455609 0.086762 0.338048 -0.173802 -0.236057 -0.614660 0.009322 0.107437 -0.532028 -0.110718 -0.567069 0.651166 -0.278622 0.031989 -0.177985 0.053026 0.565093 -0.035004 -0.058277 0.028967 0.131909 -0.169806 -0.112729 -0.158982 0.303282 0.178662 0.231282 -0.030603 -0.027376 0.345828 0.049480 -0.704688 -0.256100 0.222135 0.380725 -0.201652 0.364191 0.086409 0.383083 0.180381 0.112187 0.100161 -0.605635 -0.873846 -0.601676 -0.058118 0.166639 0.211517 -0.474505 -0.670803 0.013410 0.062804 0.015895 0.403178 0.055469 -0.229204 0.081279 -0.372408 0.440698 -0.077823 0.197671 0.487544 0.224720 0.150859 0.028676 -0.106441 -0.478379 -0.574397 0.268884 -0.296870 0.188535 0.068392 -0.209934 0.416304 -0.640536 0.347805 -0.274817 -0.493377 -0.117811 0.095848 -0.014608 -0.407583 -0.564303
65 0.070708 0.053380 -0.277777 0.175648 0.327261 0.103696 0.134700 -0.171182 -0.174662 -0.026350 0.345535 0.254746 0.022075 0.269666 -0.250950 -0.209402 0.081474 0.267772 0.131200 -0.129144 -0.415598 -0.457822 -0.282754 -0.241897 -0.036188 0.354505 -0.468905 -0.081435 -0.075778 0.356304 0.013009 0.244716 0.050342 0.321361 0.040680 0.182257 0.115106 0.241996 -0.065365 -0.084274 0.032864 0.008218 0.077865 -0.034650 -0.161426 -0.225802 0.040277 -0.182100 0.308908 -0.264524 -0.343816 -0.190806 0.120806 -0.053271 -0.046223 0.020433 0.299648 -0.256585 -0.043726 -0.175678 0.326234 -0.071388 -0.266869 0.070323 -0.051143 0.034165 -0.167894 -0.148144 -0.033298 -0.076946 -0.304130 -0.026231 -0.099248 -0.219865 -0.171881 0.202918 0.302353 -0.274364 0.013462 0.363499 -0.022159 0.175172 0.045277 0.679772 0.090801 0.020205 0.221994 -0.159442 0.087629 -0.274403 -0.067000 -0.200685 0.207546 -0.086269 -0.088855 -0.087954 -0.244547 -0.394498 0.228595 0.003510 -0.397314 0.009796 0.179496 0.313928 -0.397223 -0.028363 -0.117640 0.021649 -0.153274 0.203369 -0.055978 -0.126235 -0.236625 -0.156565 -0.071686 -0.036736 -0.150302 0.122365 0.259958 0.087784 0.193377 -0.007503 -0.169575 -0.170643 -0.195689 0.316302 0.168708 0.065701
58 0.112292 0.009813 -0.276132 0.173357 0.185832 0.038050 0.141809 -0.096545 -0.149661 0.020175 0.335033 0.239003 0.099167 0.090433 -0.247190 -0.283489 -0.030312 0.187020 0.095450 -0.107725 -0.336181 -0.427462 -0.299067 -0.164070 0.026375 0.153848 -0.423888 -0.096660 -0.053849 0.256508 0.024743 0.080172 -0.070022 0.236298 0.120257 0.272186 0.127603 0.266457 -0.102217 -0.089870 0.074461 -0.031816 0.034277 0.030789 -0.107730 -0.195855 0.113385 -0.250188 0.376523 -0.333654 -0.329017 -0.255943 0.118969 -0.072692 0.026498 0.022096 0.302600 -0.158839 -0.035363 -0.168955 0.481689 -0.117921 -0.250880 -0.013452 -0.086196 -0.064506 -0.199714 -0.142527 -0.019048 -0.060322 -0.316209 -0.007403 -0.084990 -0.174315 -0.139290 0.120717 0.286887 -0.152418 0.043851 0.334598 -0.038035 0.142227 0.029599 0.667322 0.149272 0.028468 0.223691 -0.211506 0.026890 -0.296428 -0.069739 -0.203681 0.164994 -0.023996 -0.119349 -0.093409 -0.245806 -0.445561 0.229638 -0.051074 -0.382871 0.021821 0.259176 0.389387 -0.469442 0.022068 -0.206914 0.035167 -0.076482 0.300020 -0.075809 -0.215270 -0.187333 -0.241707 -0.070707 -0.032759 -0.238342 0.114882 0.208640 0.109617 0.161277 0.042455 -0.171538 -0.151163 -0.149333 0.326258 0.201398 0.152599
13 0.084415 -0.032249 -0.073019 0.146235 0.098090 -0.076209 -0.241168 -0.035466 0.187116 -0.093330 -0.016126 -0.173939 -0.065990 -0.133436 -0.005287 0.010199 0.056037 0.074659 -0.088934 -0.084936 -0.000775 0.051926 0.160126 -0.338938 -0.255157 0.246387 0.002951 -0.089707 0.032853 -0.120066 -0.002983 0.002686 -0.231010 0.024255 0.260232 0.173858 -0.045807 0.049817 -0.103766 0.101060 0.133688 0.062321 0.013244 0.096049 0.042483 -0.070357 0.143626 -0.132330 0.201202 -0.027050 -0.170441 -0.029805 0.004911 -0.044573 -0.084307 -0.157479 0.123526 0.206952 0.076959 -0.029976 0.036892 0.092063 0.061678 0.003077 -0.057041 0.001766 0.168200 0.011952 -0.004266 0.038615 -0.094383 0.286645 -0.144627 0.151355 0.035974 0.105791 0.037538 0.238829 -0.161674 0.049314 -0.009157 0.135401 0.057715 0.162383 -0.104873 0.004543 0.095098 0.049440 -0.191339 -0.097677 0.014135 -0.067210 -0.065290 -0.323713 -0.035666 -0.230142 -0.051689 -0.390871 0.206714 0.135401 -0.041998 -0.082720 0.162122 0.068189 -0.087413 -0.241412 0.016439 -0.224225 0.024750 -0.226700 -0.098110 0.088923 -0.136358 0.202805 0.005447 -0.064151 -0.022984 -0.117036 0.171363 -0.298749 0.126163 -0.152412 -0.007779 -0.269195 -0.213849 -0.010869 0.107452 -0.232044
62 0.125568 -0.070392 -0.086698 0.216855 0.042585 -0.112109 -0.145887 0.028293 0.248347 -0.066119 -0.058183 -0.163139 -0.047813 -0.172635 0.016908 -0.039490 0.064973 0.093601 -0.128514 -0.104860 -0.034130 0.032131 0.154132 -0.454246 -0.271708 0.325749 -0.046336 -0.175466 -0.027995 -0.104055 0.044984 -0.056488 -0.158251 0.082552 0.249199 0.138089 -0.024123 0.053717 -0.093398 0.155693 0.100394 0.025057 -0.015903 0.087873 -0.010582 -0.146548 0.128515 -0.160815 0.244302 -0.066033 -0.200397 -0.066271 0.006745 -0.009582 -0.035466 -0.100918 0.114915 0.192902 0.129930 -0.062450 0.116122 0.162684 0.013634 0.058857 -0.090230 0.011615 0.172385 -0.061556 -0.000759 0.189215 -0.187959 0.360920 -0.137376 0.108121 0.083730 0.141023 -0.017967 0.236424 -0.161946 0.136455 0.007336 0.190895 0.135608 0.185218 -0.107237 -0.005616 0.193427 0.018899 -0.292253 -0.114149 0.046809 -0.120478 -0.057363 -0.363151 -0.075059 -0.277715 -0.002348 -0.357808 0.245490 0.113999 0.017373 -0.120336 0.175571 0.093906 -0.076834 -0.275929 0.043157 -0.240449 0.040372 -0.335808 -0.188180 0.062927 -0.087616 0.237706 -0.031539 -0.057785 -0.080158 -0.104441 0.144599 -0.281521 0.105150 -0.178046 0.010024 -0.275847 -0.244808 -0.013763 0.157504 -0.260185
28 0.056754 0.007387 -0.381293 0.104184 0.374321 0.089336 0.083927 -0.144671 -0.131135 0.032351 0.292009 0.270769 0.057144 0.195709 -0.405122 -0.276360 -0.011863 0.238144 0.121878 -0.056785 -0.310376 -0.402127 -0.152864 -0.128337 -0.022469 0.245415 -0.427419 -0.072420 -0.066501 0.430796 0.069180 0.250866 0.133315 0.346745 0.050801 0.167691 0.260917 0.224789 -0.113155 -0.247884 -0.014369 -0.034079 0.026726 -0.092617 -0.169181 -0.263360 -0.014187 -0.169462 0.374063 -0.250880 -0.380775 -0.245654 0.115463 -0.048046 0.052180 0.125142 0.321219 -0.284194 -0.030277 -0.121730 0.282498 -0.097054 -0.283101 0.069656 -0.034758 -0.075708 -0.157920 -0.040212 -0.171598 -0.110819 -0.319404 0.064479 -0.205824 -0.099131 -0.162562 0.185739 0.219979 -0.095994 -0.123462 0.263374 -0.068956 0.093837 0.172084 0.519920 0.122991 0.043835 0.235231 -0.043072 0.101061 -0.112091 -0.075388 -0.325211 0.238126 -0.104337 0.042196 -0.126587 -0.322303 -0.360468 0.305634 0.059994 -0.383438 0.080943 0.199658 0.299650 -0.243580 0.037070 -0.030982 0.027475 -0.161446 0.205093 0.045599 -0.229425 -0.201838 -0.174706 0.009174 -0.181027 -0.084263 -0.008849 0.141955 0.119200 0.184120 -0.024932 -0.099986 -0.113372 -0.023788 0.229682 0.059184 0.033421
45 0.075528 0.092829 -0.311018 0.116983 0.403727 0.137159 0.104807 -0.234285 -0.215006 0.046747 0.349195 0.310516 0.103381 0.258807 -0.463041 -0.347334 0.112160 0.289964 0.264073 -0.105603 -0.446544 -0.565232 -0.330460 -0.076965 0.027970 0.284433 -0.467831 0.020673 -0.049251 0.603520 0.020152 0.262509 -0.062752 0.363258 0.057802 0.277950 0.128732 0.294289 -0.115896 -0.361221 -0.033521 -0.031631 0.071641 -0.002194 -0.167168 -0.274935 -0.018338 -0.092438 0.428065 -0.321667 -0.477297 -0.254048 0.096447 -0.100790 -0.047686 0.015504 0.474152 -0.202195 -0.085334 -0.165527 0.347683 -0.055243 -0.209302 0.009608 -0.062155 -0.031397 -0.130520 -0.069579 -0.044797 -0.104019 -0.248155 -0.045258 -0.170015 -0.162823 -0.169352 0.232593 0.251754 -0.280524 0.078004 0.354141 -0.027234 0.135412 0.096659 0.613408 0.058164 0.024395 0.142587 -0.069239 0.066530 -0.205339 -0.045481 -0.245736 0.136928 -0.136667 0.017333 -0.074574 -0.222575 -0.166414 0.186532 -0.046374 -0.260474 0.016773 0.188289 0.304990 -0.324141 -0.006414 -0.230299 0.037849 -0.112891 0.208720 -0.039998 -0.196735 -0.219624 -0.232582 -0.040037 -0.105701 -0.168616 0.038019 0.247869 0.155149 0.191720 -0.047393 -0.055062 -0.175020 -0.073959 0.321526 0.186262 0.110862
33 -0.467674 0.131426 -0.022136 -0.073058 0.552817 0.053673 -0.158417 0.036522 -0.056777 -0.074557 0.504621 0.404215 0.329796 0.193626 -0.339676 -0.003049 -0.110614 0.300807 0.467881 -0.093986 -0.409150 -0.606991 0.080358 0.100521 0.179218 -0.175981 -0.105043 0.245664 0.449542 0.638399 -0.097896 0.688201 0.156133 0.689625 -0.196570 -0.221774 -0.043685 -0.013048 -0.138470 0.159707 -0.211515 -0.154079 -0.155626 -0.232302 -0.370838 -0.296773 -0.277315 0.219551 0.489590 -0.144141 -0.650804 -0.139964 0.274070 0.231094 -0.792195 0.155424 0.449802 -0.204540 0.117340 0.237324 0.261384 0.254834 -0.911935 0.281462 0.195251 0.335511 0.519809 0.045771 -0.613774 0.325905 0.001484 0.046586 -0.309379 0.242644 -0.325235 0.635393 0.246133 -0.296715 0.208586 0.343048 0.127407 -0.187364 -0.035974 0.082528 0.110838 0.065025 -0.011911 -0.125103 -0.401498 -0.526787 -0.324959 0.073041 0.007852 -0.469636 -0.327043 -0.167899 -0.343358 -0.531765 0.211485 0.140365 -0.288856 -0.083336 0.032585 -0.007622 -0.087457 -0.178457 0.350625 0.227236 -0.104097 -0.274063 -0.093500 -0.001671 0.033998 0.116882 0.167645 -0.207397 0.221039 -0.214267 -0.375541 -0.340891 0.132721 -0.000707 -0.097496 -0.040762 0.008005 -0.015526 -0.184904 -0.336811
51 -0.490165 0.073560 -0.051761 -0.038040 0.568144 0.089762 -0.216934 0.020682 -0.119922 -0.068811 0.402658 0.418825 0.275427 0.224756 -0.250329 0.037993 -0.252693 0.326686 0.505444 -0.109772 -0.363811 -0.708106 0.047542 0.064020 0.180274 -0.096126 -0.111477 0.202299 0.328565 0.617983 -0.181131 0.867188 0.028346 0.635170 -0.143809 -0.197018 0.009059 0.029472 -0.216767 0.020555 -0.283829 -0.129060 -0.142210 -0.275127 -0.354122 -0.251056 -0.260936 0.186315 0.408836 -0.075927 -0.546304 -0.095288 0.210149 0.332258 -0.809886 0.164329 0.399217 -0.184536 0.065845 0.259239 0.196426 0.216185 -0.945979 0.268900 0.177581 0.234112 0.453707 0.144816 -0.661800 0.273766 0.039919 0.014308 -0.359488 0.349759 -0.315856 0.523959 0.166927 -0.219862 0.087648 0.233167 0.156781 -0.231965 0.071727 0.175986 0.255852 0.085423 -0.101521 -0.136257 -0.403592 -0.607031 -0.424111 0.064775 0.058491 -0.492597 -0.203131 -0.215537 -0.462530 -0.571964 0.300528 0.048962 -0.332739 -0.090209 0.068323 0.033295 -0.164200 -0.157491 0.333932 0.305621 -0.157668 -0.279395 -0.001418 -0.126554 0.017669 0.147723 0.116222 -0.195516 0.281277 -0.192806 -0.396558 -0.338849 0.231632 -0.123201 -0.167748 -0.186608 -0.080053 -0.009862 -0.155892 -0.373897
20 0.029910 -0.073963 0.014289 0.104945 0.105371 -0.073813 -0.230831 -0.024002 0.105432 -0.125540 -0.079635 -0.100429 -0.006696 -0.084781 -0.157467 -0.037634 0.061540 0.098381 -0.056789 -0.119184 -0.054351 0.082949 0.305566 -0.359294 -0.315088 0.448152 0.016553 0.020182 0.060018 0.024528 -0.061419 0.099963 -0.324689 0.107425 0.310114 0.129607 0.090892 0.063962 -0.111474 0.079131 0.085394 -0.037962 0.084647 0.189038 -0.016473 0.013905 0.165842 -0.363473 0.195826 -0.088715 -0.273046 -0.126692 -0.004537 -0.162045 0.018404 -0.248602 0.224057 0.214096 -0.055342 -0.175168 0.007572 0.063187 0.144619 -0.049046 -0.021970 -0.049835 0.180861 0.009876 -0.024540 0.106263 -0.165719 0.291302 -0.088254 0.052786 0.098832 -0.009491 -0.003856 0.257306 -0.227294 0.075824 0.054349 0.066834 0.074451 0.005917 -0.145436 0.025974 0.102914 0.142212 -0.238263 0.042846 0.109454 -0.185506 -0.111019 -0.314835 -0.036409 -0.191180 -0.090446 -0.233938 0.275048 0.238016 -0.030558 -0.189743 0.173620 0.084493 0.013266 -0.236733 0.095381 -0.158506 -0.039548 -0.313970 -0.121233 -0.022790 -0.130983 0.238799 0.004790 -0.152628 -0.046100 -0.068600 0.089078 -0.256699 0.047399 -0.200469 0.031831 -0.177662 -0.098771 -0.032354 0.068594 -0.238288
60 -0.049543 0.027135 0.090484 0.029631 0.077518 -0.008199 -0.279416 0.007565 0.042837 -0.148425 -0.037964 -0.143074 0.048225 -0.052103 -0.173197 -0.013074 0.141914 0.026076 0.042975 -0.179331 -0.192731 0.082795 0.220232 -0.285845 -0.293476 0.366370 0.003281 0.233396 0.193694 0.175770 -0.061101 0.116816 -0.261825 0.185362 0.271181 0.038520 0.066369 0.012478 -0.096742 0.091630 0.045172 -0.226583 0.079537 0.251251 -0.016860 -0.059433 0.128255 -0.304280 0.204799 -0.148413 -0.293493 -0.192951 -0.042822 -0.101085 -0.015502 -0.201909 0.249376 0.252632 -0.092743 -0.211062 0.074612 0.058321 0.125273 -0.099774 -0.033683 -0.076607 0.205406 0.019196 -0.127267 0.141603 -0.355848 0.300023 -0.120576 0.045291 0.051390 -0.020583 0.027983 0.177060 -0.257515 0.194418 0.119698 0.081286 0.121808 0.093991 -0.090513 0.023229 0.129694 0.089389 -0.332009 0.014367 0.123792 -0.255106 -0.168126 -0.331937 -0.060955 -0.159285 -0.049534 -0.152766 0.228662 0.187324 0.027958 -0.256981 0.200311 0.114351 0.008691 -0.139307 0.020088 -0.081689 -0.027463 -0.292164 -0.105399 -0.169098 -0.072853 0.166942 -0.046055 -0.204439 -0.146957 0.015431 0.032701 -0.163966 -0.021471 -0.148177 0.082462 -0.090851 -0.053240 -0.027762 0.102087 -0.067301
52 0.258970 0.339680 -0.744343 -0.529165 -0.156175 -0.226387 -0.030168 -0.215738 0.001191 -0.240249 0.372486 -0.103059 -0.090614 0.307057 -0.209950 -0.267447 -0.273690 -0.185672 -0.066951 0.472241 0.296985 0.134938 0.189080 0.407147 0.084574 -0.197129 -0.319918 0.465726 0.210601 0.565442 0.386983 0.013055 -0.155984 0.109113 -0.093798 0.162318 -0.287228 0.245479 -0.413899 -0.098514 -0.210359 -0.011211 -0.563042 -0.066826 0.071093 0.548805 0.011110 0.329408 -0.177953 -0.375842 -0.635896 -0.172823 0.121911 -0.617549 -0.061855 -0.446394 0.789398 -0.264522 -0.162013 -0.267631 0.013343 0.701941 -0.095257 -0.139478 -0.015630 0.207057 -0.011662 -0.011832 -0.217179 0.535089 0.219610 0.155847 0.125206 -0.109655 0.322130 0.044994 -0.628491 -0.347758 0.426699 0.469163 -0.072402 0.173153 -0.047161 0.029396 0.138365 0.041657 0.248920 -0.384511 -1.021216 -0.361977 0.090485 0.120970 0.036974 -0.504017 -0.783797 0.047489 0.093207 0.155500 0.277313 0.347574 -0.055884 0.129672 -0.244538 0.376989 0.229887 0.182510 0.552327 0.177950 0.070188 -0.046768 -0.209205 -0.516766 -0.382025 0.317646 -0.371760 0.032122 -0.131496 -0.220127 0.389025 -0.723041 0.177530 -0.423377 -0.392947 -0.167555 0.226673 -0.147054 -0.320668 -0.643562
17 0.309251 0.318886 -0.841853 -0.451908 -0.100218 -0.254354 -0.115248 -0.189460 0.103461 -0.209965 0.411080 -0.058046 -0.026956 0.319347 -0.269226 -0.191419 -0.266502 -0.303136 -0.059199 0.520795 0.205154 0.080630 0.299783 0.342618 0.103213 -0.105009 -0.428773 0.417577 0.161321 0.625979 0.395480 0.028061 -0.207827 0.099292 -0.198063 0.123224 -0.309408 0.340238 -0.528979 -0.079714 -0.274145 -0.144125 -0.655351 -0.127763 -0.026985 0.592877 0.007662 0.374959 -0.129856 -0.298345 -0.835605 -0.131600 0.059785 -0.677830 -0.203757 -0.602548 0.865391 -0.128056 -0.144780 -0.243682 -0.027776 0.750824 -0.093795 -0.156501 0.090642 0.249708 -0.061345 -0.121466 -0.194642 0.523414 0.280579 0.112407 0.120047 -0.141231 0.459232 0.129143 -0.736282 -0.388238 0.476190 0.399343 -0.079621 0.253387 0.032614 0.136824 0.068761 0.047275 0.201764 -0.530094 -0.871908 -0.492350 -0.017535 0.123847 0.100181 -0.347305 -0.761834 0.103858 0.188567 0.196691 0.399342 0.319073 -0.043802 0.041708 -0.389669 0.340340 0.186397 0.241237 0.575971 0.213855 0.065084 0.068456 -0.173881 -0.441733 -0.326880 0.319918 -0.459222 0.073096 -0.152932 -0.130251 0.365587 -0.722107 0.238567 -0.401792 -0.403169 -0.199286 0.068897 -0.106271 -0.331320 -0.591008
43 0.105751 0.010846 -0.027413 0.116733 0.148864 -0.010193 -0.253901 0.046898 0.097126 -0.125831 -0.125997 -0.158785 0.084695 -0.196478 -0.213417 -0.062829 0.071948 0.065431 0.005845 -0.065144 -0.112997 0.121788 0.207189 -0.264204 -0.393616 0.342423 -0.006046 0.097095 0.101476 0.116196 0.044578 0.027875 -0.249142 0.107631 0.263617 0.119031 -0.011148 0.008899 -0.147398 -0.013677 0.082825 -0.100975 -0.047853 0.088234 0.047573 -0.133881 0.073524 -0.149738 0.224916 -0.087340 -0.227738 -0.123264 -0.069028 -0.005736 -0.024393 -0.067016 0.187464 0.173682 0.041626 -0.100269 0.034998 0.168522 -0.021672 -0.071651 -0.009053 -0.083049 0.141051 -0.025190 -0.014365 0.183841 -0.113721 0.205660 -0.054574 0.038103 0.077877 0.042241 0.042342 0.208843 -0.131932 0.131246 0.028697 0.061488 0.070182 -0.069991 -0.149813 0.006214 0.129069 0.109339 -0.275860 0.011022 0.104107 -0.189004 -0.129454 -0.254230 -0.047937 -0.110591 -0.055421 -0.235708 0.274597 0.240356 -0.031873 -0.158808 0.183493 0.010084 0.021427 -0.179768 0.014832 -0.143827 0.056721 -0.261963 -0.122229 -0.075129 -0.055321 0.171733 -0.068258 -0.201861 -0.134565 -0.134546 0.116953 -0.178449 -0.013287 -0.222854 0.122948 -0.231512 -0.087435 -0.036900 0.134263 -0.218329
54 0.123089 0.002558 -0.130072 0.117029 0.100812 -0.114914 -0.248190 0.025632 0.219300 -0.096448 0.000750 -0.169368 0.006457 -0.143352 -0.139078 -0.038963 -0.023762 0.094905 -0.074063 -0.129164 -0.029861 -0.004757 0.187252 -0.272962 -0.219279 0.233541 0.014146 -0.055270 0.011628 -0.042989 -0.020313 0.046914 -0.238139 0.101988 0.374466 0.182732 -0.079950 0.037430 -0.063239 0.066022 0.136129 -0.045986 0.011701 0.183683 0.000561 -0.145332 0.133516 -0.174152 0.349974 -0.115731 -0.333688 -0.114054 0.028751 -0.057030 -0.012798 -0.176746 0.219862 0.211990 0.015904 -0.145330 0.150974 0.042904 0.022587 -0.073429 -0.049625 0.001101 0.193989 -0.072569 -0.052914 0.150444 -0.223593 0.343294 -0.060553 0.040820 0.044432 0.105724 0.080371 0.201413 -0.160262 0.176668 0.039757 0.098672 0.055022 0.072910 -0.180575 -0.024562 0.153218 0.054798 -0.247019 -0.004351 0.107969 -0.215158 -0.094281 -0.298035 -0.079472 -0.148166 0.021310 -0.288821 0.172987 0.154860 0.051837 -0.153438 0.219021 0.065447 -0.006725 -0.213833 0.029912 -0.212766 0.021769 -0.221129 -0.160064 0.023303 -0.079095 0.179453 0.040824 -0.238483 -0.113292 -0.143971 0.143089 -0.223922 0.050539 -0.054365 0.072396 -0.195162 -0.106397 -0.027375 0.135450 -0.156641
14 0.035533 0.001717 -0.016808 0.028210 0.120587 -0.090685 -0.269626 0.024764 0.169029 -0.129715 0.032188 -0.118250 0.069516 -0.165107 -0.213031 -0.088402 0.033585 0.041381 0.008112 -0.130892 -0.128017 0.104750 0.306022 -0.238121 -0.303416 0.354747 -0.013978 0.146235 0.148991 0.156622 -0.011650 0.062397 -0.236286 0.145762 0.330571 0.135918 -0.088179 0.009963 -0.096391 0.029848 0.064863 -0.134576 -0.046931 0.200471 0.023797 -0.085475 0.082392 -0.107629 0.314750 -0.149388 -0.384683 -0.174275 -0.026501 -0.068507 -0.046267 -0.137993 0.315391 0.208261 -0.016953 -0.162056 0.094280 0.118572 0.059204 -0.083812 -0.063912 -0.036814 0.213972 -0.028526 -0.025846 0.127704 -0.243242 0.280326 -0.069769 0.023716 0.040259 0.049626 0.064240 0.155203 -0.136534 0.153592 0.004908 0.154835 0.007258 -0.084251 -0.282402 -0.037763 0.139958 0.121732 -0.331610 0.081049 0.199703 -0.244013 -0.183133 -0.312569 -0.119617 -0.086819 0.055078 -0.180510 0.166770 0.266965 0.073180 -0.170217 0.155635 -0.037428 0.101459 -0.152940 0.043612 -0.187297 0.063930 -0.274429 -0.163167 -0.022007 0.032287 0.136066 -0.026545 -0.189906 -0.169457 -0.077744 0.062262 -0.087521 -0.102081 -0.112241 0.167474 -0.187609 -0.081588 -0.060691 0.141005 -0.052967
8 0.061367 -0.016504 -0.108541 0.113930 0.103930 -0.123347 -0.216466 -0.043897 0.133958 -0.124054 0.092862 -0.104428 -0.017883 -0.044084 -0.145391 -0.074820 0.069145 0.053862 -0.008041 -0.149607 -0.159061 0.060774 0.228671 -0.329582 -0.230606 0.386013 -0.076095 0.050675 0.102517 0.101454 -0.043623 0.050406 -0.195271 0.163813 0.247466 0.058005 0.034099 0.019377 -0.091409 0.117077 0.081560 -0.106461 0.024006 0.213008 -0.019180 -0.114545 0.068504 -0.167890 0.231630 -0.129456 -0.276027 -0.163253 -0.003312 -0.036580 -0.042174 -0.104556 0.217137 0.230944 0.014195 -0.106843 0.047874 0.138877 0.108867 0.014169 -0.045462 0.024299 0.263514 0.028498 -0.138254 0.138553 -0.274846 0.384524 -0.136888 0.082924 0.033351 0.087171 0.010487 0.193395 -0.197442 0.205810 0.066531 0.128149 0.086038 0.026400 -0.217280 -0.045121 0.137048 0.150549 -0.286196 0.037884 0.137748 -0.248809 -0.174475 -0.411815 -0.095829 -0.232765 0.013141 -0.285606 0.181104 0.238569 0.059102 -0.244747 0.233840 0.009096 0.031187 -0.187000 0.094973 -0.215546 -0.048724 -0.368439 -0.158020 -0.009265 -0.037332 0.243347 -0.015031 -0.161260 -0.091220 -0.050860 0.106964 -0.236907 -0.012450 -0.157272 0.113816 -0.208942 -0.176535 -0.098127 0.145132 -0.134769
2 0.193450 0.244615 0.234338 0.083267 0.046377 0.159912 -0.424073 0.048612 -0.148526 -0.307198 -0.222118 -0.451323 -0.001105 -0.124724 -0.135850 0.045970 0.208930 0.010229 0.067884 -0.087224 -0.236061 0.140693 0.097251 -0.288040 -0.478442 0.383441 -0.075141 0.281947 0.253212 0.129291 -0.054966 -0.142711 -0.135481 0.237735 -0.051487 -0.121945 -0.042892 -0.149205 0.014292 -0.293734 0.061443 -0.420402 -0.028807 0.240507 0.034092 -0.154816 -0.086790 0.049318 0.142308 -0.088128 0.028555 -0.300120 -0.296826 0.175356 -0.268832 0.261918 0.185708 0.264029 -0.191059 0.243901 -0.305941 0.336627 0.044928 -0.169413 0.113163 0.129685 0.210809 0.269600 -0.300595 -0.212815 -0.044296 -0.121362 -0.131964 0.001126 -0.211399 0.234016 0.267459 -0.143120 0.291674 0.098237 0.084308 -0.058879 0.082503 0.518452 0.107820 -0.044758 0.106733 0.056044 -0.052209 -0.427140 -0.298919 -0.122561 -0.067712 -0.377575 -0.221484 -0.227860 -0.360530 -0.202688 0.242780 0.213871 -0.110609 -0.113951 0.246245 -0.037604 -0.139500 0.026028 -0.083966 0.227354 -0.231617 -0.178297 -0.159380 -0.208106 -0.010361 0.124800 -0.070368 -0.165935 0.095635 -0.258885 0.031694 -0.723191 0.146062 -0.472496 -0.044980 -0.408393 -0.056418 0.011793 -0.004182 -0.405630
39 0.147260 0.302195 0.286755 0.021790 0.121016 0.158355 -0.515964 0.051676 -0.048042 -0.229838 -0.217581 -0.470774 0.078314 -0.186999 -0.233576 0.022464 0.268731 0.002213 0.112890 -0.104140 -0.150693 0.182650 0.150974 -0.223063 -0.560409 0.308006 0.120496 0.307627 0.335533 0.157354 0.047511 -0.249195 -0.157747 0.112534 0.039935 -0.028037 -0.164432 -0.099746 0.012157 -0.316047 0.098603 -0.317274 -0.039075 0.169813 0.026143 -0.152081 -0.026419 0.116575 0.349284 -0.113051 -0.189874 -0.271222 -0.269130 0.065809 -0.264176 0.181039 0.357004 0.278916 -0.119490 0.233085 -0.198151 0.300479 0.033683 -0.205705 0.004896 0.148795 0.216160 0.259404 -0.198197 -0.093392 0.053653 -0.072201 -0.098614 -0.020361 -0.127509 0.236208 0.305318 -0.065399 0.356443 0.096494 0.035642 -0.077548 0.029564 0.421962 0.076940 0.037976 0.153908 0.044420 0.031306 -0.356300 -0.299969 -0.084007 -0.059126 -0.269770 -0.115520 -0.205933 -0.231524 -0.176299 0.150881 0.132161 -0.087508 -0.022847 0.223009 0.015137 -0.085358 -0.077151 -0.231136 0.126448 -0.095565 -0.147968 -0.171974 -0.026848 -0.027515 0.044679 -0.004496 -0.186185 0.036555 -0.307696 -0.021924 -0.642696 0.163330 -0.370012 0.011703 -0.352214 -0.022765 0.122671 -0.026632 -0.374108
59 0.095806 0.170293 0.260575 0.084895 0.136600 0.129315 -0.453984 -0.069825 -0.021653 -0.190134 -0.214353 -0.350993 0.034094 -0.211578 -0.235401 0.031403 0.255798 0.070197 0.097896 -0.158634 -0.166279 0.087356 0.219274 -0.353039 -0.510755 0.405248 0.045832 0.216516 0.247217 0.150115 -0.043578 -0.016825 -0.305100 0.122711 0.158115 0.040683 -0.090194 -0.116952 -0.044044 -0.336061 0.099300 -0.232327 -0.054264 0.214998 0.055724 -0.196468 -0.030345 0.036416 0.316430 -0.055202 -0.167938 -0.235184 -0.245166 0.092995 -0.275442 0.187171 0.324243 0.349088 -0.127162 0.206542 -0.265421 0.283504 0.082977 -0.147946 0.048457 0.044647 0.272267 0.243566 -0.186131 -0.181652 0.076934 -0.079324 -0.179639 0.117536 -0.158368 0.226697 0.196688 -0.079740 0.237105 0.016884 -0.003110 -0.022322 0.033476 0.374766 -0.035595 -0.061121 0.008220 0.193734 -0.062404 -0.308536 -0.280932 -0.101528 -0.116458 -0.339531 -0.045386 -0.255413 -0.262700 -0.152003 0.251769 0.254115 -0.024639 -0.043257 0.154165 -0.083990 0.009044 -0.080237 -0.052137 0.080557 -0.126988 -0.155713 -0.131108 -0.120346 0.007295 0.073124 -0.012652 -0.153843 0.064030 -0.299837 0.132018 -0.556832 0.131626 -0.409808 0.080690 -0.406914 -0.028750 0.018650 0.050152 -0.341739
41 0.027118 -0.100236 0.031530 0.150994 0.118322 -0.124824 -0.135422 -0.027323 0.174683 -0.072860 0.018651 -0.042406 0.061960 -0.114136 -0.180150 -0.077272 0.055876 0.135238 0.014533 -0.160232 -0.148751 -0.043789 0.231045 -0.261588 -0.179543 0.371933 -0.041620 0.013783 0.032188 0.091073 -0.079132 0.114691 -0.353297 0.078778 0.347737 0.182932 -0.026582 0.042917 -0.100354 0.070092 0.128679 -0.016098 0.101059 0.202330 0.006493 -0.066683 0.145416 -0.269513 0.292598 -0.111184 -0.352337 -0.078931 0.062581 -0.154621 -0.012819 -0.220654 0.245361 0.237775 -0.001016 -0.187453 0.103660 0.027682 0.140817 -0.026052 -0.050312 -0.051267 0.209409 -0.081482 0.022936 0.160070 -0.193923 0.294952 -0.073279 0.047873 0.035250 0.009976 -0.028313 0.178801 -0.190305 0.133730 -0.005409 0.180714 0.063746 0.023684 -0.273010 -0.068677 0.089043 0.154813 -0.330575 0.076969 0.207517 -0.238993 -0.174390 -0.380354 -0.098460 -0.155886 0.005066 -0.147276 0.218467 0.235175 0.093016 -0.191544 0.171614 0.011723 0.035947 -0.224260 0.091276 -0.181955 0.034458 -0.231502 -0.192164 -0.044079 -0.107546 0.179044 -0.036328 -0.205894 -0.123016 -0.101932 0.161553 -0.141316 0.021138 -0.100974 0.128268 -0.167978 -0.120461 -0.050403 0.134771 -0.124416
9 0.050146 -0.102366 -0.117723 0.142741 0.096723 -0.124595 -0.218383 0.060665 0.264411 -0.109375 -0.019693 -0.120802 0.029507 -0.246375 -0.180204 -0.103876 0.046464 0.050441 -0.083974 -0.139161 -0.133630 0.185339 0.300768 -0.359194 -0.340487 0.472973 -0.058132 0.003881 0.026140 0.006353 -0.022261 0.083615 -0.259505 0.161159 0.365490 0.114089 0.015263 0.061889 -0.115320 0.108314 0.066218 -0.080714 0.016995 0.204782 -0.018376 -0.167220 0.098966 -0.249828 0.238829 -0.120799 -0.294357 -0.114785 -0.007128 -0.006410 0.000598 -0.159835 0.193536 0.187587 0.007274 -0.162378 0.122391 0.034828 0.004902 -0.062583 -0.053524 -0.066385 0.194595 0.033875 -0.092658 0.120436 -0.219927 0.262015 -0.091009 0.108481 0.049725 0.010238 -0.045295 0.173678 -0.202458 0.065638 0.015052 0.081733 0.073981 -0.056940 -0.136743 -0.039144 0.067842 0.100175 -0.275605 0.036731 0.131996 -0.206062 -0.120706 -0.252798 -0.039949 -0.153776 -0.049382 -0.249563 0.223924 0.211001 -0.036170 -0.184527 0.147951 0.028328 0.033557 -0.097200 0.090343 -0.123830 -0.011521 -0.243288 -0.096390 -0.105863 -0.022427 0.170798 -0.013244 -0.163278 -0.035905 -0.087451 0.060475 -0.171403 -0.012409 -0.128447 0.044854 -0.171941 -0.054036 -0.076057 0.055759 -0.127665
4 0.092325 0.204958 0.224607 0.143343 0.154700 0.049402 -0.390731 -0.002185 -0.093296 -0.195500 0.010567 -0.261107 0.078553 -0.079564 -0.196526 -0.048025 0.277195 0.056144 0.168314 -0.246555 -0.334336 0.071840 0.049597 -0.272161 -0.390254 0.469006 -0.008106 0.229174 0.269484 0.133069 -0.112941 -0.172219 -0.119507 0.188453 0.074436 -0.135460 -0.133367 -0.144869 0.078417 -0.089057 0.064494 -0.366550 -0.020192 0.292530 0.021919 -0.247696 -0.156230 0.100587 0.202643 -0.074241 -0.100678 -0.220710 -0.183778 0.185167 -0.251788 0.205876 0.209638 0.342501 -0.052487 0.215206 -0.228481 0.307913 0.175846 -0.094807 0.046238 0.210157 0.261648 0.260406 -0.251206 -0.112699 -0.083140 -0.035521 -0.097496 -0.009257 -0.199030 0.184512 0.145092 -0.185635 0.274132 0.043303 -0.056538 0.022848 0.054394 0.260045 -0.061650 -0.144363 0.076129 0.051043 -0.069300 -0.222290 -0.152034 -0.157214 -0.137662 -0.392884 -0.265230 -0.234293 -0.189989 -0.199104 0.127505 0.213272 0.007085 -0.139844 0.229371 -0.106999 -0.047866 0.046976 -0.070067 0.053211 -0.188596 -0.175919 -0.173051 -0.079516 0.052914 0.136770 -0.043470 -0.060118 0.080621 -0.148240 0.026171 -0.565049 0.114224 -0.315830 -0.004695 -0.389337 -0.218743 -0.010431 0.020300 -0.238803
3 0.135427 0.253154 0.318594 0.056106 0.073900 0.157053 -0.425263 -0.052966 -0.094662 -0.235857 -0.172071 -0.412400 0.021931 -0.125339 -0.142929 0.048850 0.276676 0.018080 0.074043 -0.158110 -0.231464 0.131626 0.141490 -0.316661 -0.516184 0.424841 0.001420 0.286911 0.291476 0.145612 -0.026906 -0.106201 -0.171306 0.085755 0.052239 -0.051903 -0.166081 -0.148178 0.053737 -0.250134 0.096602 -0.315589 -0.106093 0.216456 0.086294 -0.130340 -0.116292 0.124086 0.276510 -0.070257 -0.105500 -0.282047 -0.263391 0.127594 -0.270027 0.252848 0.301745 0.295157 -0.138341 0.247335 -0.298039 0.304695 0.089528 -0.194699 0.082140 0.127655 0.245084 0.268033 -0.211653 -0.219765 0.085486 -0.196245 -0.123924 0.029303 -0.204261 0.200966 0.203867 -0.217884 0.343350 -0.037762 -0.022173 -0.002982 -0.000600 0.486427 0.053249 -0.087274 0.026201 0.076863 0.007717 -0.406760 -0.333673 -0.063988 -0.049222 -0.313012 -0.176245 -0.232268 -0.334849 -0.175534 0.219941 0.234698 -0.115120 -0.005898 0.159537 -0.044825 -0.071323 0.006253 -0.104135 0.174308 -0.183116 -0.080749 -0.149977 -0.148966 -0.022507 0.027548 -0.037046 -0.108828 0.104142 -0.281388 0.083439 -0.679358 0.182647 -0.421640 -0.041327 -0.406398 -0.068889 0.085414 -0.005884 -0.378679
34 -0.492220 0.201630 -0.162314 -0.073222 0.635870 0.129432 -0.287843 -0.203051 -0.149388 -0.101384 0.697862 0.376495 0.201328 0.324143 -0.257526 -0.047861 0.014279 0.338572 0.467079 -0.107077 -0.400769 -0.624688 0.009677 -0.151004 0.043253 -0.142493 -0.155649 0.185295 0.551074 0.543741 -0.037824 0.644693 0.088020 0.568604 -0.290588 -0.093191 -0.068843 0.172996 -0.259199 0.275030 -0.262750 0.068528 -0.174223 -0.355034 -0.345401 -0.142045 -0.120628 0.087853 0.252126 -0.035928 -0.489738 -0.004163 0.275088 0.146933 -0.887443 -0.040993 0.368602 -0.221215 0.208889 0.380312 0.166539 0.348033 -0.904203 0.320901 0.108741 0.391448 0.467927 0.168747 -0.577305 0.203835 0.178165 0.040950 -0.385836 0.373638 -0.276039 0.577391 0.152968 -0.175142 0.230049 0.166519 0.051646 -0.156044 -0.038888 0.230122 0.316684 0.250257 -0.087066 -0.344368 -0.427530 -0.752391 -0.473422 0.435859 0.128981 -0.448455 -0.369025 -0.275953 -0.462255 -0.722656 0.263922 -0.018816 -0.467661 0.063678 -0.054817 0.095247 -0.336834 -0.330055 0.331805 0.272461 -0.043048 -0.352246 -0.058044 0.124309 -0.051807 0.169471 0.253209 0.097955 0.371002 -0.058337 -0.446061 -0.435522 0.266565 -0.020329 -0.318780 -0.003388 -0.166286 0.105109 -0.222052 -0.352609
42 -0.556924 0.266947 -0.038221 -0.115284 0.575151 0.116006 -0.344054 -0.183189 -0.173463 -0.021304 0.664912 0.318495 0.133652 0.377572 -0.131489 0.077229 -0.038935 0.337378 0.472203 -0.177818 -0.280499 -0.643194 0.079784 -0.125514 0.080133 -0.184135 -0.035915 0.201488 0.547049 0.552170 -0.114285 0.770078 0.214205 0.589063 -0.282934 -0.228465 -0.027224 -0.014276 -0.217731 0.199518 -0.284497 -0.007954 -0.210656 -0.308646 -0.309111 -0.163966 -0.193675 0.276812 0.177680 0.004001 -0.370217 -0.013968 0.222185 0.183114 -0.816693 0.128608 0.320398 -0.172523 0.170177 0.416899 0.131311 0.342567 -0.876208 0.388497 0.068179 0.394157 0.499031 0.264468 -0.669873 0.243470 0.216169 0.069390 -0.336104 0.395411 -0.285606 0.523480 0.138491 -0.144310 0.168399 0.176487 -0.018211 -0.161672 -0.029304 0.332774 0.309792 0.199172 0.032173 -0.270849 -0.465872 -0.727446 -0.535740 0.321072 0.114111 -0.586313 -0.422454 -0.418281 -0.519327 -0.843175 0.350024 0.121627 -0.467385 0.119405 -0.044237 0.055324 -0.181769 -0.299566 0.534689 0.318402 -0.106819 -0.261644 -0.014464 0.022571 -0.028894 0.176789 0.124142 0.128059 0.345183 -0.100364 -0.360763 -0.500145 0.342901 -0.123270 -0.326085 -0.109121 -0.192965 0.045520 -0.266231 -0.322623
38 0.067836 0.251761 0.415379 0.096307 0.111887 0.188798 -0.500976 0.073222 -0.065122 -0.227648 -0.247364 -0.470824 0.104131 -0.202201 -0.208344 0.089052 0.333330 0.069651 0.175780 -0.185692 -0.274671 0.145204 0.070973 -0.309607 -0.549146 0.370314 0.086378 0.246849 0.335938 0.137757 -0.053656 -0.137002 -0.121004 0.133622 -0.046933 -0.122913 -0.064709 -0.123019 0.031263 -0.236503 0.069722 -0.285811 0.079327 0.190267 -0.024296 -0.194422 -0.012742 -0.038580 0.225498 -0.145581 -0.100568 -0.208872 -0.200341 0.138792 -0.281805 0.195343 0.177895 0.134359 -0.144040 0.208264 -0.087902 0.163865 -0.109558 -0.129937 0.008622 0.139454 0.196937 0.209115 -0.191556 -0.029376 -0.016733 -0.098046 -0.038185 -0.043635 -0.183463 0.175568 0.258073 -0.063443 0.272885 0.084375 0.037977 -0.152095 0.053981 0.398968 0.099219 0.046725 0.111013 -0.013785 -0.032054 -0.413373 -0.285583 -0.026895 -0.069269 -0.298988 -0.161896 -0.261914 -0.298469 -0.290326 0.196121 0.089382 -0.184932 -0.054685 0.213697 0.009946 -0.181866 -0.055851 -0.049147 0.263618 -0.130753 -0.138994 -0.208366 -0.136715 0.033362 0.113629 0.024532 -0.130993 0.184786 -0.254757 -0.120236 -0.658807 0.153870 -0.290372 -0.052241 -0.194921 0.009082 0.039595 -0.166634 -0.342780
48 -0.017088 0.156688 0.170696 0.074064 0.114400 0.323732 -0.249168 -0.012015 -0.207764 -0.150128 -0.210766 -0.135933 0.000805 0.015539 0.038790 0.164389 0.255063 -0.047598 0.289150 -0.055851 -0.325292 -0.001822 -0.367429 -0.080000 -0.239234 0.086134 -0.047218 0.264067 0.125331 0.115186 0.011537 0.002328 -0.215445 0.022880 0.130500 0.087676 -0.164543 0.034263 -0.201457 -0.190302 0.098793 -0.188762 -0.086737 -0.013196 0.153015 -0.377315 0.024570 -0.001919 0.229642 -0.113887 -0.218043 -0.096906 -0.219186 0.179306 -0.316061 -0.069875 0.263842 0.328205 0.078795 0.090520 -0.132273 0.345477 0.106054 -0.180388 0.067120 -0.008928 0.174524 0.198567 -0.244893 -0.194336 -0.095896 0.125331 -0.340722 0.263091 -0.073455 0.216729 0.045657 0.026385 -0.012119 0.077009 0.072914 0.237677 0.221162 0.272283 -0.066616 -0.132269 -0.083169 0.117745 -0.172999 -0.197783 -0.030217 -0.088408 -0.175795 -0.391381 0.060798 -0.251233 0.068373 -0.225475 0.192070 0.091359 0.095275 -0.279196 0.159748 -0.130383 -0.104317 -0.040128 -0.324206 -0.262113 0.002412 -0.355662 -0.034421 -0.053360 0.034655 0.134142 -0.076850 0.021100 0.010718 -0.146882 0.388014 -0.253129 0.048057 -0.346040 0.196456 -0.549655 -0.425708 -0.197755 0.330638 -0.226639
30 0.110126 -0.079847 -0.208916 0.144569 0.223398 -0.168576 0.241261 -0.006852 0.259022 0.151187 0.054935 0.015261 0.217902 -0.395685 -0.746674 -0.615874 0.420393 -0.102043 0.097834 0.100984 -0.173280 0.077006 0.085232 0.430610 0.284093 -0.068942 -0.277347 0.235094 0.009103 0.472816 0.132423 -0.381442 -0.494801 -0.373326 -0.179213 0.009145 0.130009 0.123732 -0.243796 -0.504661 0.165827 0.363709 0.323715 0.000639 -0.076178 -0.073670 0.221668 -0.348609 0.393272 -0.035217 -0.223600 -0.061928 0.011840 -0.177224 -0.217055 -0.056096 0.591482 0.208951 -0.029588 0.126501 -0.306459 -0.033396 0.170855 -0.150158 -0.028367 -0.001421 0.066083 0.339051 -0.414638 -0.166001 0.080602 0.155648 -0.289078 0.224158 -0.082556 -0.080860 -0.184360 0.082220 0.180832 0.150661 -0.214667 0.025871 0.083556 0.104703 0.084338 -0.099729 0.255197 0.301740 -0.149764 0.220343 -0.233040 -0.134534 -0.030897 -0.248198 -0.296058 -0.081574 -0.075505 0.265004 -0.065085 0.265360 0.229816 0.325814 -0.034700 -0.264283 0.253197 0.132065 0.166462 -0.014356 -0.083853 0.202486 0.166646 -0.154337 0.073741 -0.159498 -0.287638 0.157236 0.028199 -0.113115 0.216327 0.122824 0.152058 -0.291560 0.154401 -0.280643 0.014195 0.010446 0.010426 0.117429
68 0.013875 -0.134143 -0.182578 0.123908 0.168687 -0.160886 0.216450 0.021774 0.200684 0.070613 0.102516 0.136820 0.147971 -0.297423 -0.449940 -0.439537 0.188220 -0.058287 0.019743 0.099416 -0.027549 0.044170 -0.039040 0.309991 0.225150 -0.079578 -0.217837 0.011262 -0.034365 0.044627 0.077999 -0.364401 -0.233486 -0.237180 -0.138830 -0.029499 0.115122 0.097341 -0.044059 -0.293260 0.146160 0.328991 0.296634 -0.079898 -0.131255 -0.073276 0.134685 -0.321509 0.237997 -0.025385 -0.206108 -0.006717 0.059306 -0.108258 -0.194396 -0.077689 0.433719 0.079829 -0.108747 0.098220 -0.156097 -0.179016 -0.018523 -0.124783 -0.127930 0.030951 -0.041701 0.199046 -0.256618 -0.062403 0.012141 0.058244 -0.101835 0.076557 -0.079389 -0.056165 0.134452 0.123004 0.095913 0.126951 -0.264461 0.010749 -0.075094 -0.015506 0.051952 -0.097388 0.424135 0.052540 -0.113517 0.178141 -0.127572 -0.101175 0.035799 -0.067119 -0.442508 -0.001365 -0.136743 -0.253220 0.091823 0.415304 -0.085471 0.328644 0.035899 -0.131751 0.126360 0.120926 0.266496 -0.060218 -0.127879 0.248696 0.105739 -0.067790 0.078949 -0.109445 -0.316089 0.211120 -0.071371 0.060666 0.162824 0.090647 0.152289 -0.247399 -0.060627 -0.334322 -0.205495 0.036037 0.005222 0.074785
32 0.086095 0.140411 0.035935 0.109099 0.156302 0.160754 -0.245038 0.049488 -0.067984 -0.141124 -0.187167 -0.270578 -0.045166 -0.181622 -0.085620 0.053512 0.221565 -0.008983 0.087401 -0.060511 -0.209392 0.059861 -0.206498 -0.073286 -0.240307 0.106999 -0.135783 0.203472 0.098639 0.105683 0.024222 -0.056586 -0.143026 0.086325 0.100753 0.051420 -0.152819 -0.006770 -0.168874 -0.338773 0.077971 -0.145778 -0.163271 0.009282 0.107231 -0.371655 0.005381 0.147140 0.244258 -0.052892 -0.097684 -0.142910 -0.239029 0.255597 -0.295704 0.091992 0.235724 0.240490 0.065502 0.176730 -0.210879 0.347384 0.018696 -0.152586 -0.005065 0.014061 0.151207 0.204511 -0.257828 -0.253780 -0.124386 0.192693 -0.302147 0.263827 -0.096561 0.212596 0.003489 0.034904 -0.010610 -0.023819 -0.002464 0.235320 0.271210 0.350383 -0.014829 -0.115288 0.037792 0.132502 -0.206984 -0.173641 -0.092250 -0.137212 -0.033151 -0.499449 -0.038965 -0.259778 0.008301 -0.114944 0.102815 0.090663 0.169190 -0.156817 0.153300 -0.100359 0.014683 -0.012483 -0.166110 -0.274797 -0.015464 -0.271913 -0.021007 -0.088318 0.096007 0.201768 -0.025219 -0.046912 0.046011 -0.204179 0.417387 -0.287054 0.057639 -0.370544 0.207746 -0.575348 -0.317886 -0.217787 0.245091 -0.194524
36 0.003959 0.004091 -0.146420 0.115044 0.348914 -0.163423 0.183006 0.082042 0.196962 0.042667 0.101468 -0.003850 0.247277 -0.409267 -0.839227 -0.557557 0.464567 -0.109016 0.084588 0.106106 -0.143112 0.186164 -0.051967 0.470945 0.185319 -0.150206 -0.287654 0.267303 0.140732 0.409406 0.211110 -0.448123 -0.174221 -0.198003 -0.268216 -0.127873 0.192495 0.074956 -0.193196 -0.506016 0.139644 0.239230 0.208337 -0.100557 -0.114055 -0.187356 0.175966 -0.168214 0.278894 -0.070285 -0.210916 -0.118054 0.001086 -0.122765 -0.166712 0.065442 0.534357 0.041412 -0.061427 0.111796 -0.239981 0.018330 -0.018638 -0.088895 -0.117965 0.029606 -0.021020 0.255083 -0.364089 -0.102962 -0.062361 0.063929 -0.181791 0.117846 -0.113006 -0.003937 -0.020480 -0.032154 0.149461 0.101637 -0.151546 -0.036934 0.099201 -0.001095 0.135593 -0.043129 0.384474 0.178338 -0.062312 0.259628 -0.172438 -0.130527 0.045772 -0.064354 -0.295065 0.008012 -0.037071 0.146838 -0.011880 0.356928 0.084229 0.261959 0.038707 -0.066710 0.314342 0.193646 0.223180 -0.097147 -0.080608 0.219369 0.145327 -0.185452 0.092384 -0.067017 -0.251005 0.031498 -0.033733 -0.014390 0.250349 0.144835 0.100737 -0.189679 0.082564 -0.169184 0.069936 -0.072935 -0.110521 0.116895
27 -0.016624 -0.134862 -0.141010 0.119033 0.203507 -0.059949 0.127727 0.055923 0.226250 0.029525 0.062818 0.098678 0.175812 -0.314262 -0.436013 -0.417557 0.258605 -0.121745 0.088209 0.116377 -0.085728 0.122085 -0.045639 0.231557 0.105219 -0.094344 -0.225022 0.037379 0.050453 0.004175 0.134742 -0.463190 -0.277068 -0.314085 -0.221741 -0.040412 0.138433 0.166610 -0.108984 -0.189529 0.147170 0.365340 0.349455 -0.171311 -0.123291 0.012117 0.243999 -0.472415 0.212063 0.000763 -0.135882 0.053128 0.020115 -0.084594 -0.263299 -0.146086 0.347169 0.094242 -0.042502 0.163819 -0.163350 -0.126502 -0.077081 -0.091446 -0.102360 -0.005130 -0.055006 0.236442 -0.235051 -0.092197 0.076610 0.054015 -0.136775 0.127960 -0.069518 -0.081626 0.158213 0.212261 0.086600 0.078980 -0.234906 -0.035088 -0.078630 -0.018091 0.090171 -0.025174 0.365750 0.030546 -0.042360 0.069790 -0.229620 0.050008 0.016071 0.051167 -0.334032 -0.057552 -0.115512 -0.400573 0.114573 0.307679 -0.175252 0.347525 -0.022487 -0.221289 0.074736 0.064470 0.229387 -0.030851 -0.051977 0.115320 0.138814 0.064187 0.132233 -0.058180 -0.308529 0.390228 0.052462 0.075290 -0.047947 -0.019282 0.120345 -0.278291 -0.136885 -0.276624 -0.248839 -0.012246 -0.085577 -0.034744
24 0.059090 0.003234 -0.121554 0.164225 0.301571 -0.148341 0.186179 -0.029224 0.182340 0.085037 0.136197 -0.031670 0.178710 -0.333573 -0.707391 -0.586810 0.509365 -0.111784 0.051958 0.095903 -0.155857 0.151666 0.051237 0.353098 0.228623 -0.032270 -0.289089 0.231746 0.104299 0.401921 0.118805 -0.414405 -0.308706 -0.334178 -0.283759 -0.116892 0.194922 0.056824 -0.191507 -0.348662 0.153339 0.353183 0.265056 -0.041884 -0.076760 -0.000071 0.198632 -0.285144 0.183163 0.046559 0.019036 -0.038062 -0.025821 -0.110736 -0.158524 0.014353 0.428226 0.183519 0.004150 0.140299 -0.417387 0.019326 0.188108 -0.093547 -0.074611 0.038761 0.100896 0.384998 -0.431418 -0.232585 0.050388 0.142947 -0.332761 0.267314 -0.078198 -0.079483 -0.218152 0.076665 0.132335 -0.011975 -0.195832 0.059218 0.082069 0.094484 0.177530 -0.113163 0.340995 0.258445 -0.150330 0.230775 -0.300695 0.015810 0.036447 -0.238591 -0.457706 -0.041856 -0.134936 0.181398 -0.047196 0.339144 0.100259 0.414074 -0.071909 -0.217135 0.243957 0.161666 0.274575 0.025568 -0.124145 0.159781 0.236240 -0.120124 0.092304 -0.096241 -0.382167 0.280522 0.069905 -0.006808 0.165765 0.075209 0.208535 -0.374048 -0.025885 -0.269382 -0.041493 -0.005164 -0.092334 0.089931
35 0.093104 0.020506 -0.387107 0.131547 0.263838 -0.165646 0.165409 -0.054444 0.198137 0.100219 0.113542 -0.038148 0.153873 -0.363904 -0.744841 -0.596867 0.562040 -0.026227 0.045502 0.181249 -0.103520 0.140226 -0.088719 0.306991 0.193018 -0.176203 -0.285639 0.194164 0.058112 0.356383 0.320320 -0.516163 -0.255459 -0.281046 -0.204296 0.051609 0.137674 0.145846 -0.269869 -0.434876 0.214905 0.365060 0.220782 -0.135686 -0.032018 -0.318321 0.261263 -0.358258 0.304113 -0.018011 -0.209957 -0.093449 0.043873 -0.228434 -0.214979 -0.098222 0.544025 0.155919 0.030193 0.190342 -0.300278 0.006214 0.081747 -0.130138 -0.108315 0.045357 -0.015632 0.364045 -0.395233 -0.145098 0.083611 0.079547 -0.206774 0.223982 -0.100720 -0.070969 -0.047786 0.168005 0.207934 0.051479 -0.290810 -0.035446 0.060472 -0.079919 0.194057 -0.024172 0.410002 0.146848 -0.180649 0.251008 -0.205628 -0.034067 -0.017636 -0.122505 -0.412089 -0.148035 -0.110447 0.109944 0.012563 0.386701 0.182531 0.338497 -0.048723 -0.231402 0.311506 0.082319 0.203821 -0.095901 -0.056437 0.218173 0.143586 -0.112885 0.173368 -0.133771 -0.167590 0.274923 0.114185 -0.013527 0.151476 0.125431 0.112827 -0.195960 0.148787 -0.155200 -0.019405 -0.056684 -0.065451 0.099299
12 -0.004491 -0.005534 0.113937 0.156109 0.047096 -0.001724 -0.180016 -0.273616 0.111785 0.057335 0.302526 -0.184675 -0.100627 -0.111906 -0.013455 -0.051721 0.337812 0.101764 0.013394 -0.401220 -0.281010 0.195070 0.052849 -0.527591 -0.405461 0.319150 -0.052234 -0.102800 0.232745 -0.124949 0.014426 -0.233892 -0.253895 -0.108458 0.153095 0.293553 -0.066450 0.198575 -0.091457 0.146063 0.180736 0.271206 0.245143 0.092273 0.037792 -0.090511 0.313789 -0.305238 0.100241 -0.152080 -0.168559 0.104394 0.006274 -0.202263 -0.107109 -0.232355 0.113793 0.094086 0.128989 0.184129 0.244575 0.021085 0.052525 0.112873 -0.322044 0.097941 0.121339 0.054368 0.076276 0.066038 0.032680 0.387481 0.022714 0.048958 -0.001368 -0.062422 0.169248 0.330427 -0.087977 0.242086 -0.240336 0.244019 -0.042513 0.256448 -0.305102 0.096846 0.117560 0.052631 -0.156602 -0.136968 0.066352 0.015875 -0.083606 -0.382841 -0.057749 -0.459810 0.142861 -0.528460 0.076847 0.149405 -0.100157 -0.043509 0.150381 0.038978 -0.110348 -0.283384 0.124514 -0.249931 0.223393 -0.198154 -0.260905 0.159025 -0.127528 0.241886 0.043905 0.219207 -0.071721 0.052623 0.310800 -0.296561 0.018894 -0.130086 0.152763 -0.125742 -0.332457 0.016846 0.031567 0.070568
67 0.037629 0.012768 0.019773 0.103389 0.079737 -0.083361 -0.272783 -0.170406 0.278410 -0.063262 0.240898 -0.296236 -0.126341 -0.181194 0.046371 -0.121929 0.246672 -0.036281 -0.050029 -0.253576 -0.224822 0.119038 0.142703 -0.349420 -0.204460 0.266981 -0.123140 -0.045108 0.205509 -0.161669 -0.032457 -0.222934 -0.414737 -0.217061 0.185997 0.252868 -0.275875 0.198619 -0.103086 0.186514 0.127620 0.274963 0.149237 0.168597 0.034757 0.001446 0.295285 -0.256912 0.247004 -0.107465 -0.224516 0.072720 0.028480 -0.123948 -0.228661 -0.289263 0.206570 0.178697 0.040118 0.157406 0.138047 0.028184 0.102893 0.089986 -0.197947 0.101645 0.189932 0.017069 0.106508 -0.040527 -0.016224 0.323508 0.011831 0.033712 -0.055821 -0.033437 0.204683 0.280685 -0.055514 0.076304 -0.116052 0.208512 -0.147927 0.302626 -0.254223 0.057765 0.073640 -0.059870 -0.093412 -0.170194 0.072353 0.067992 -0.046365 -0.273706 -0.112375 -0.295754 0.033902 -0.503268 0.004079 -0.031126 -0.098294 0.004047 0.158070 0.050430 -0.266384 -0.354827 0.032723 -0.135053 0.140570 -0.224946 -0.267740 0.290117 -0.084130 0.186123 0.123229 0.137701 -0.029249 0.005778 0.059118 -0.213156 -0.010897 0.004225 0.057137 -0.087359 -0.372111 0.106224 0.196547 0.080759
37 -0.221316 0.174622 0.052255 -0.115356 0.244195 -0.011648 -0.627384 -0.218635 0.276285 0.088917 0.089304 -0.086818 0.064323 -0.051852 -0.222754 0.164550 0.069054 -0.134693 0.575733 -0.417217 -0.138490 0.102900 0.024087 0.337047 -0.104471 0.173283 0.430498 0.229816 0.167990 0.114276 -0.030634 0.126123 -0.177778 -0.131927 0.264516 -0.091390 -0.362134 -0.004640 0.074059 -0.506099 -0.134380 0.084947 0.054573 -0.018077 -0.200861 -0.381093 -0.313722 0.678015 0.455751 -0.214946 -0.805740 0.177869 0.028881 0.288122 -0.425762 0.285805 0.747864 0.054323 -0.294390 0.368155 0.059067 -0.269615 -0.205559 0.002289 -0.369382 0.181768 0.036733 0.392743 -0.533590 0.222007 0.161901 -0.127746 -0.041870 0.160803 -0.300367 0.111950 0.092370 -0.654000 0.237956 0.351698 -0.394621 -0.354384 0.119250 0.650210 0.220924 -0.180507 -0.129818 -0.053008 0.164433 -0.613764 -0.626796 -0.471539 0.091956 -0.252192 0.315793 -0.485054 -0.258374 -0.476314 0.098203 -0.009923 -0.296369 -0.004794 0.107252 0.242797 0.077786 0.560025 0.398234 0.383329 -0.392118 0.573201 -0.010025 -0.560906 -0.300734 -0.025462 0.109052 -0.400177 0.485408 -0.567775 0.100430 -0.872572 0.620805 -0.138615 -0.182219 -0.295526 0.211711 0.043733 -0.734336 -0.472136
1 -0.176334 0.039158 -0.013067 -0.143476 0.208079 -0.165978 -0.548424 -0.197824 0.203685 0.052872 -0.003794 -0.154473 0.031077 0.008310 -0.188293 0.102026 0.115454 -0.158550 0.560560 -0.350798 0.001131 0.074739 -0.026523 0.318866 -0.041866 0.191174 0.414441 0.298888 0.065365 0.050048 -0.151541 0.254591 -0.217011 -0.010487 0.197683 -0.100306 -0.425959 -0.000017 0.074784 -0.670287 -0.240580 -0.076788 0.028826 0.102119 -0.162829 -0.476079 -0.365387 0.578335 0.502637 -0.163418 -0.916849 0.193267 -0.056443 0.272814 -0.490512 0.197363 0.781031 0.199300 -0.353412 0.332683 0.067108 -0.207000 -0.193901 -0.041696 -0.354199 0.165534 0.026453 0.418609 -0.648701 0.160245 0.104028 -0.186734 -0.008119 0.179155 -0.381468 0.056586 -0.006601 -0.686083 0.279228 0.199966 -0.332057 -0.356894 0.241221 0.562664 0.188876 -0.214993 -0.308872 -0.094756 0.112356 -0.599090 -0.522842 -0.404898 0.129716 -0.364458 0.327516 -0.465724 -0.257864 -0.335797 0.252486 -0.019892 -0.299385 -0.020701 0.193563 0.301437 0.081299 0.591621 0.447525 0.361823 -0.402562 0.443567 -0.102377 -0.722233 -0.367893 0.181726 0.106867 -0.480904 0.501999 -0.458239 0.108958 -0.903333 0.548835 -0.090321 -0.297813 -0.254074 0.160888 -0.000714 -0.682253 -0.489948
